
#include <eml_net.h>
static const float room_occupancy_forecast_layer_0_biases[30] = { 0.028506f, -0.045046f, 0.000000f, 0.000000f, -0.000331f, 0.000000f, -0.088443f, 0.000000f, -0.031632f, 0.000000f, -0.004489f, -0.004874f, 0.052134f, 0.000000f, 0.058975f, -0.059311f, 0.000000f, 0.053709f, 0.000000f, 0.000000f, 0.037522f, -0.004472f, 0.024491f, 0.008128f, 0.000000f, -0.065238f, -0.019930f, 0.022918f, 0.062214f, -0.009389f };
static const float room_occupancy_forecast_layer_0_weights[90] = { 0.270297f, -0.022635f, -0.204003f, 0.314196f, -0.333275f, -0.137291f, -0.494569f, -0.102688f, -0.184355f, -0.255540f, -0.387303f, 0.415199f, 0.371556f, 0.025097f, -0.207824f, -0.029618f, -0.021344f, -0.124555f, -0.047911f, -0.294038f, 0.435944f, -0.119661f, 0.272045f, 0.165619f, 0.078864f, -0.093809f, 0.048054f, 0.100930f, 0.488952f, -0.127903f, 0.059158f, 0.281311f, -0.150202f, -0.022505f, 0.237624f, -0.289591f, 0.159956f, -0.211282f, -0.055413f, -0.232841f, 0.281131f, 0.383036f, -0.238926f, -0.302297f, -0.254831f, 0.302296f, -0.241138f, -0.243409f, -0.152816f, -0.155371f, 0.289352f, 0.408604f, -0.136752f, 0.152678f, -0.309103f, -0.049017f, -0.130343f, -0.266115f, -0.186740f, 0.086858f, 0.021312f, 0.014565f, -0.373050f, -0.379090f, 0.051743f, -0.228988f, -0.270953f, -0.403664f, 0.128837f, -0.262106f, 0.038070f, -0.121990f, -0.189161f, -0.131868f, 0.417949f, -0.350203f, -0.423138f, 0.253627f, -0.030196f, 0.004730f, -0.226926f, 0.128515f, 0.244552f, 0.292096f, -0.120952f, 0.125479f, 0.123554f, 0.159058f, 0.081584f, -0.023191f };
static const float room_occupancy_forecast_layer_1_biases[30] = { 0.004845f, -0.007446f, 0.041422f, -0.037498f, 0.000000f, 0.065785f, 0.000000f, -0.037605f, 0.000000f, -0.002353f, -0.026965f, -0.009273f, -0.042900f, 0.000000f, 0.017044f, 0.002465f, 0.003581f, 0.000000f, 0.022940f, -0.031798f, 0.000000f, 0.000000f, 0.000000f, 0.020579f, 0.003820f, -0.012855f, -0.004730f, 0.024385f, 0.000000f, 0.022684f };
static const float room_occupancy_forecast_layer_1_weights[900] = { -0.011334f, -0.191757f, 0.108107f, 0.059205f, 0.031770f, -0.168714f, -0.068269f, -0.149066f, -0.001241f, -0.135390f, -0.293668f, -0.044531f, 0.136523f, -0.081895f, 0.021310f, -0.015330f, 0.257706f, -0.248138f, -0.060598f, -0.040710f, -0.310040f, 0.001728f, -0.000293f, 0.142567f, -0.261379f, -0.004714f, 0.069038f, 0.007695f, 0.144741f, 0.236851f, 0.019854f, 0.194596f, -0.115901f, -0.035862f, -0.243713f, -0.107205f, 0.068076f, -0.218740f, -0.275179f, 0.261928f, 0.224555f, 0.029869f, 0.084840f, -0.070561f, -0.009126f, 0.053814f, -0.294805f, -0.052404f, -0.204331f, -0.001458f, 0.257679f, -0.074580f, 0.156139f, -0.214769f, 0.028747f, 0.016644f, 0.037257f, 0.236176f, -0.123684f, 0.268596f, 0.242497f, 0.148488f, 0.311012f, 0.250891f, 0.041710f, 0.239715f, -0.228146f, 0.144125f, 0.299456f, -0.122149f, -0.079188f, 0.128944f, 0.219083f, -0.036705f, 0.037517f, -0.106686f, 0.280610f, 0.314366f, 0.190750f, -0.163030f, -0.158764f, -0.062020f, 0.175644f, 0.075937f, -0.170814f, -0.160993f, 0.044635f, 0.238521f, -0.270404f, -0.040140f, -0.230536f, 0.196655f, -0.141581f, 0.004058f, 0.052591f, -0.252251f, 0.090249f, -0.196624f, 0.245786f, 0.214871f, -0.225399f, 0.214504f, 0.310796f, -0.093640f, -0.102262f, 0.297260f, -0.243019f, 0.070754f, 0.015615f, 0.058581f, 0.199396f, -0.140011f, 0.081677f, 0.033258f, 0.132539f, 0.143753f, -0.096710f, 0.043752f, -0.078418f, -0.257764f, 0.148800f, 0.065271f, -0.221341f, -0.194104f, -0.141956f, -0.048808f, -0.246653f, 0.176904f, 0.007621f, -0.008512f, 0.130849f, 0.028218f, 0.266565f, -0.185601f, -0.134837f, -0.258031f, -0.007873f, -0.268607f, -0.257246f, -0.241337f, -0.119523f, -0.279962f, -0.255896f, -0.229485f, -0.097325f, 0.283222f, -0.209036f, -0.289818f, 0.077111f, -0.234792f, 0.307966f, 0.259031f, 0.245915f, 0.210323f, -0.085915f, 0.048793f, 0.279037f, 0.009451f, -0.252803f, -0.238350f, -0.140572f, -0.249041f, 0.116989f, -0.308927f, 0.085033f, 0.193581f, -0.207016f, 0.054874f, 0.264780f, -0.044269f, 0.290912f, -0.223159f, -0.146335f, -0.126316f, -0.291704f, 0.069825f, 0.177554f, 0.231143f, 0.027542f, -0.300423f, 0.263806f, -0.022985f, -0.067651f, 0.318162f, -0.291512f, -0.218415f, -0.119473f, 0.069701f, -0.234229f, 0.003262f, 0.115947f, 0.221302f, 0.008308f, 0.264434f, 0.047678f, -0.045173f, 0.058547f, 0.216049f, 0.234326f, -0.079048f, 0.208171f, -0.093165f, 0.109044f, -0.163960f, 0.118416f, -0.209614f, 0.254848f, 0.185711f, -0.111040f, -0.276878f, -0.193623f, 0.245862f, -0.065670f, -0.039573f, 0.095629f, -0.258331f, -0.172646f, 0.074476f, -0.271150f, 0.223783f, 0.159579f, -0.280041f, -0.039902f, 0.089294f, -0.217772f, 0.253105f, 0.190562f, 0.077416f, 0.182872f, 0.021324f, 0.140688f, -0.060291f, 0.029001f, -0.106839f, 0.079297f, 0.258788f, 0.124967f, -0.037201f, 0.085336f, -0.056867f, -0.245731f, -0.268127f, -0.032956f, -0.210177f, -0.132605f, -0.194422f, 0.034541f, 0.160999f, -0.068026f, 0.287030f, 0.321861f, -0.020936f, -0.224981f, 0.003239f, -0.158596f, 0.086708f, -0.159227f, -0.051429f, -0.108658f, -0.183649f, 0.018596f, 0.263304f, -0.103966f, 0.221381f, -0.253898f, 0.101043f, -0.093688f, 0.159271f, -0.045235f, -0.037624f, 0.163780f, -0.055945f, -0.125232f, 0.096182f, 0.024916f, 0.240822f, -0.069957f, -0.006372f, 0.200727f, 0.116342f, 0.255408f, 0.156773f, -0.055370f, 0.255730f, -0.121735f, 0.203318f, 0.128022f, 0.095968f, -0.183972f, -0.310989f, -0.092300f, 0.190195f, 0.075080f, -0.092397f, 0.037162f, -0.148790f, -0.011046f, -0.027553f, -0.230723f, 0.050437f, -0.026521f, -0.104747f, 0.159156f, -0.286207f, 0.280248f, 0.037243f, -0.036133f, 0.245508f, 0.030164f, -0.138635f, -0.244217f, -0.223258f, 0.335992f, -0.191041f, 0.220600f, -0.118001f, 0.063604f, -0.205425f, 0.239599f, 0.045471f, -0.244241f, -0.106160f, -0.176841f, -0.272974f, 0.188639f, 0.232407f, 0.156861f, -0.159367f, -0.104049f, -0.308907f, 0.170640f, 0.144453f, -0.074813f, 0.109405f, -0.252754f, -0.039518f, 0.083640f, -0.124733f, 0.063672f, -0.300997f, -0.021964f, 0.286728f, -0.230766f, -0.285440f, 0.163537f, -0.227036f, 0.186461f, 0.100525f, -0.113122f, -0.080948f, -0.263862f, 0.110331f, -0.086841f, -0.078607f, -0.162724f, 0.176213f, -0.135543f, 0.105909f, -0.052077f, 0.283467f, -0.016389f, -0.179654f, 0.174748f, 0.263150f, -0.206106f, 0.356535f, -0.254472f, -0.096769f, -0.275204f, -0.028459f, -0.113064f, -0.130025f, -0.032327f, -0.124914f, -0.022636f, 0.144597f, -0.217839f, 0.136215f, -0.210160f, -0.122907f, -0.023145f, 0.250572f, -0.051431f, 0.160197f, 0.252048f, -0.249581f, 0.320421f, 0.114607f, 0.142292f, 0.285844f, -0.166821f, 0.032860f, -0.247659f, 0.291658f, 0.308956f, 0.057244f, -0.069813f, 0.035224f, 0.094214f, -0.143182f, -0.017440f, 0.149075f, -0.075711f, -0.313401f, 0.023725f, 0.025815f, -0.114669f, 0.284983f, -0.245752f, -0.110165f, 0.077922f, -0.112927f, 0.024420f, 0.069403f, -0.072088f, 0.288092f, 0.160910f, -0.211938f, 0.053678f, 0.177358f, 0.171880f, 0.219953f, 0.351907f, 0.087433f, -0.008251f, 0.356513f, 0.155876f, -0.283046f, 0.305750f, -0.276442f, 0.056264f, -0.314891f, -0.102794f, -0.007146f, 0.125702f, 0.180085f, 0.184542f, 0.229114f, 0.012612f, 0.048049f, 0.050214f, 0.271881f, 0.221489f, -0.225068f, 0.045920f, 0.304356f, -0.093211f, 0.063412f, 0.106507f, 0.302419f, 0.118924f, 0.114971f, -0.012384f, 0.302127f, 0.176260f, -0.199163f, 0.189751f, -0.062313f, 0.247996f, 0.133490f, 0.086490f, 0.170569f, 0.222390f, -0.033396f, -0.061291f, 0.107150f, -0.049244f, 0.037545f, -0.238785f, 0.236695f, -0.213810f, 0.125577f, -0.019724f, 0.194975f, 0.273648f, 0.279349f, 0.152603f, 0.139802f, -0.241166f, 0.031094f, 0.307109f, -0.129583f, -0.031272f, 0.212583f, -0.054645f, -0.284797f, -0.203457f, -0.209670f, 0.209690f, -0.249464f, 0.155072f, -0.183629f, 0.280097f, -0.098871f, 0.194573f, -0.314879f, 0.155146f, -0.050407f, 0.277434f, -0.050109f, 0.267255f, -0.259079f, 0.226266f, 0.228839f, 0.053785f, 0.051303f, 0.080583f, -0.000266f, -0.159340f, 0.072463f, 0.146018f, -0.131025f, 0.331169f, 0.175167f, 0.056164f, 0.379749f, 0.028001f, -0.179202f, 0.038994f, -0.280345f, -0.092825f, 0.146569f, 0.128336f, 0.247988f, 0.304253f, 0.007446f, 0.229728f, -0.175445f, 0.245148f, 0.041538f, 0.048802f, 0.210491f, -0.195116f, 0.069858f, 0.021600f, -0.013864f, 0.184899f, -0.255414f, -0.083685f, 0.049622f, -0.149844f, 0.148756f, 0.172357f, -0.279483f, 0.134084f, -0.180070f, 0.303834f, 0.048858f, 0.154008f, -0.097981f, -0.305277f, 0.185587f, -0.090469f, 0.211611f, 0.206891f, 0.108052f, -0.084834f, 0.194797f, 0.158075f, 0.260621f, -0.107021f, -0.060061f, -0.087193f, 0.167447f, 0.184289f, 0.288529f, -0.160571f, 0.050939f, 0.049510f, -0.237673f, 0.107756f, 0.012635f, 0.102949f, -0.101405f, -0.307135f, -0.213386f, 0.044637f, 0.140570f, 0.064869f, -0.093282f, -0.139573f, -0.161411f, 0.309952f, -0.017298f, -0.307664f, -0.158831f, -0.089025f, -0.104501f, -0.262780f, -0.046342f, -0.297388f, -0.192840f, -0.135725f, -0.021884f, -0.306881f, 0.081371f, -0.019579f, -0.075561f, -0.271903f, 0.101690f, -0.116790f, 0.284220f, 0.062764f, -0.266699f, 0.012178f, 0.155444f, -0.150950f, -0.083681f, -0.217164f, 0.156516f, -0.151694f, 0.189047f, -0.004594f, -0.060900f, 0.206724f, -0.234917f, 0.196767f, -0.222741f, 0.151442f, -0.145641f, 0.152506f, -0.101526f, -0.165112f, -0.124776f, -0.067599f, -0.052111f, 0.275195f, 0.029311f, -0.303505f, -0.293576f, -0.148442f, -0.139851f, 0.174349f, 0.254333f, -0.045701f, -0.042749f, 0.064760f, 0.314748f, -0.303529f, -0.064585f, -0.006490f, 0.237413f, -0.164900f, -0.210465f, 0.029877f, -0.153567f, 0.209497f, 0.170600f, -0.047914f, 0.284696f, -0.144303f, -0.205041f, -0.197928f, -0.104501f, 0.025792f, -0.280839f, -0.097795f, -0.089874f, 0.096039f, 0.233805f, 0.254377f, -0.129113f, -0.156487f, -0.152543f, -0.089084f, 0.183865f, -0.194743f, 0.164186f, -0.164980f, -0.252409f, 0.024017f, -0.262724f, -0.146454f, 0.112611f, -0.292959f, 0.101306f, 0.047533f, -0.252120f, 0.296105f, 0.341330f, -0.051966f, -0.178802f, 0.015606f, 0.239674f, 0.302875f, -0.298262f, 0.128137f, 0.242483f, -0.267949f, 0.128005f, -0.035314f, -0.308180f, 0.068896f, 0.282589f, -0.215998f, 0.300746f, -0.138003f, 0.232601f, -0.260903f, 0.011463f, 0.344694f, 0.010016f, -0.170739f, -0.239625f, 0.082288f, 0.286227f, 0.249038f, -0.287567f, -0.103624f, 0.277160f, -0.291546f, -0.311920f, 0.024634f, 0.084898f, -0.101348f, -0.022023f, -0.155066f, -0.093986f, 0.098124f, 0.282617f, -0.232891f, -0.267429f, -0.202933f, -0.268220f, 0.250284f, -0.125030f, 0.249703f, 0.272229f, 0.211496f, -0.313588f, 0.171530f, -0.062049f, 0.154368f, 0.312281f, 0.110894f, -0.143578f, 0.250592f, 0.271306f, 0.111528f, -0.236160f, -0.168364f, -0.292497f, -0.041852f, -0.174342f, 0.206773f, 0.148639f, -0.036280f, 0.026976f, 0.004890f, -0.060301f, -0.235465f, 0.045718f, 0.100486f, -0.243018f, -0.070131f, -0.229622f, -0.131525f, 0.224232f, 0.215516f, 0.188693f, 0.058007f, 0.032109f, -0.114958f, -0.182125f, 0.200941f, 0.052299f, 0.064957f, -0.025153f, 0.272241f, -0.060411f, -0.083211f, 0.177290f, -0.248586f, -0.002631f, -0.143335f, 0.248501f, -0.082351f, 0.159953f, 0.005453f, -0.132976f, 0.100863f, -0.245098f, 0.079972f, -0.175082f, -0.112636f, -0.091001f, -0.164159f, 0.082617f, -0.094413f, 0.023439f, 0.104981f, -0.153750f, 0.083256f, -0.119274f, 0.069408f, 0.264495f, -0.182495f, 0.044642f, 0.311369f, 0.121648f, 0.139684f, -0.268815f, -0.213708f, -0.194830f, 0.297800f, -0.022838f, -0.037966f, 0.114065f, -0.105650f, 0.265122f, 0.364233f, 0.021631f, -0.154061f, 0.183104f, -0.194356f, 0.070994f, 0.286246f, 0.013225f, 0.281114f, -0.048732f, 0.027479f, -0.085662f, -0.276341f, -0.229699f, -0.112212f, 0.173663f, 0.027892f, 0.092854f, 0.298804f, 0.028910f, -0.123805f, -0.058542f, -0.269858f, 0.173579f, -0.017527f, -0.072486f, 0.232674f, -0.100732f, 0.032207f, -0.113887f, 0.167903f, -0.276446f, 0.339749f, -0.073919f, -0.250030f, 0.160569f, 0.101493f, -0.216919f, -0.273754f, -0.197857f, -0.023766f, -0.019445f, -0.305429f, 0.151356f, 0.215200f, -0.177742f, 0.052844f, 0.000106f, 0.086449f, 0.071311f, -0.248819f, 0.077282f, -0.130190f, 0.191577f, -0.098246f, -0.327053f, 0.240508f, -0.074271f, 0.068871f, 0.347521f, -0.186139f, 0.050913f, -0.306149f, 0.277735f, 0.311833f, 0.028671f, -0.178324f, -0.162853f, -0.037334f, 0.178236f, 0.026465f, 0.030242f, -0.100891f, -0.086808f, -0.046031f, -0.010168f, 0.052375f, -0.236056f, -0.160366f, -0.021553f, 0.006974f, 0.257914f, 0.261606f, 0.187534f, -0.166453f, 0.309432f, 0.013646f, -0.284276f, -0.050637f, 0.008440f };
static const float room_occupancy_forecast_layer_2_biases[30] = { 0.046221f, 0.000000f, 0.000000f, 0.008930f, 0.020839f, 0.000000f, -0.012788f, -0.020896f, 0.002590f, -0.039170f, 0.062698f, 0.000000f, 0.000000f, -0.009664f, -0.025820f, 0.000000f, 0.000000f, -0.034197f, 0.028414f, 0.016870f, 0.000000f, -0.026840f, -0.027375f, -0.049114f, 0.025761f, -0.014074f, 0.000000f, 0.020643f, -0.001209f, 0.022849f };
static const float room_occupancy_forecast_layer_2_weights[900] = { 0.098982f, -0.315334f, -0.304199f, -0.206458f, -0.276358f, 0.052509f, 0.025929f, -0.167928f, -0.116527f, 0.108422f, 0.055438f, -0.190663f, 0.186876f, 0.171436f, -0.226850f, -0.260712f, -0.082718f, -0.276285f, 0.251130f, -0.000970f, -0.149737f, 0.285652f, 0.202164f, 0.108770f, -0.048344f, 0.263058f, -0.239973f, -0.177104f, -0.255875f, 0.194199f, -0.197998f, -0.043059f, 0.068754f, -0.114572f, -0.327274f, -0.299602f, 0.331114f, 0.071756f, 0.038389f, 0.155599f, -0.277497f, -0.182012f, -0.252026f, 0.088925f, -0.224516f, 0.137942f, 0.053461f, 0.242544f, -0.208922f, -0.105347f, 0.188288f, -0.296064f, 0.206784f, 0.072738f, -0.012768f, 0.193042f, -0.174961f, -0.316037f, -0.268058f, -0.069655f, 0.088537f, -0.283154f, -0.274186f, 0.303204f, -0.233684f, -0.051409f, -0.102262f, -0.135792f, -0.323810f, -0.302238f, 0.358016f, -0.010233f, -0.242565f, -0.291983f, 0.256942f, 0.037768f, 0.179644f, 0.027231f, 0.345088f, 0.043534f, 0.043285f, -0.132337f, -0.070967f, -0.335435f, 0.314103f, -0.247835f, -0.118044f, 0.111833f, 0.084926f, -0.088727f, -0.048271f, -0.236751f, -0.023803f, 0.029930f, 0.058615f, -0.214186f, 0.256206f, -0.098743f, -0.135793f, 0.142434f, 0.100304f, 0.055050f, -0.114982f, 0.198773f, -0.221135f, -0.231715f, 0.120257f, 0.160492f, 0.114031f, 0.175208f, -0.164943f, -0.060429f, -0.180052f, 0.171416f, -0.035824f, 0.016277f, -0.216741f, -0.098014f, 0.041658f, -0.141513f, 0.024226f, -0.311825f, -0.299781f, 0.011573f, -0.164065f, 0.249395f, 0.306563f, 0.213739f, 0.236580f, -0.289324f, 0.291647f, 0.198094f, -0.181061f, -0.117933f, 0.164231f, 0.302803f, 0.163004f, 0.047964f, 0.128759f, 0.175676f, -0.220141f, -0.123949f, 0.149247f, 0.299615f, 0.131067f, 0.140185f, -0.192321f, -0.250477f, -0.095208f, 0.253796f, 0.353872f, -0.280950f, -0.158265f, -0.225151f, 0.251265f, -0.122678f, -0.243771f, -0.018367f, -0.114792f, 0.181317f, 0.224220f, -0.157969f, 0.081013f, -0.139376f, 0.239421f, 0.258850f, -0.142699f, -0.275995f, 0.270954f, 0.217446f, 0.081438f, -0.249560f, 0.021574f, -0.270275f, -0.012633f, -0.005630f, -0.161900f, 0.110914f, 0.160935f, 0.273925f, 0.293259f, 0.050084f, 0.103546f, 0.070520f, 0.107139f, -0.288893f, 0.236607f, 0.061449f, -0.004337f, 0.074880f, -0.030498f, -0.151927f, 0.283322f, 0.188061f, 0.136642f, -0.096484f, 0.194733f, 0.121533f, 0.200254f, 0.162539f, 0.056530f, -0.023315f, -0.203342f, -0.285138f, 0.192870f, -0.255224f, 0.219085f, 0.107072f, 0.005567f, -0.187278f, -0.240217f, 0.247314f, -0.067844f, -0.076183f, 0.039823f, 0.158311f, 0.319921f, 0.029366f, -0.092669f, -0.242317f, -0.069136f, 0.172247f, 0.297798f, -0.203698f, -0.087354f, 0.214859f, -0.074070f, -0.209362f, -0.276908f, 0.152149f, 0.204710f, -0.012195f, 0.257486f, 0.281164f, -0.080354f, 0.073448f, -0.180667f, -0.263209f, 0.131073f, 0.280107f, 0.052491f, -0.099402f, -0.259669f, -0.313793f, 0.114222f, -0.071223f, -0.166910f, 0.064274f, -0.261092f, -0.050131f, -0.258548f, -0.113915f, 0.148778f, 0.226710f, 0.152694f, -0.167575f, 0.153362f, 0.297733f, 0.281613f, 0.256246f, 0.201669f, 0.114340f, 0.253336f, 0.141197f, 0.301020f, 0.137522f, -0.147799f, 0.017354f, 0.278853f, -0.299665f, 0.072262f, -0.018288f, -0.034703f, -0.036553f, 0.139065f, -0.303612f, 0.029072f, -0.103628f, 0.041713f, 0.219186f, -0.037258f, -0.308374f, 0.032385f, -0.006036f, 0.169205f, -0.016710f, -0.277132f, 0.013136f, -0.257752f, 0.184885f, -0.034411f, -0.072392f, -0.142758f, -0.299637f, -0.049504f, 0.223488f, 0.015476f, 0.193730f, -0.040158f, 0.121057f, 0.172919f, -0.185823f, -0.184114f, 0.235633f, -0.112163f, 0.246747f, 0.283686f, -0.071602f, -0.184637f, -0.077936f, 0.025395f, -0.062427f, -0.058824f, -0.094412f, 0.162571f, -0.312276f, -0.127407f, -0.369354f, 0.346118f, 0.126799f, -0.031604f, 0.061143f, 0.078470f, 0.102093f, 0.321516f, 0.176689f, -0.221819f, -0.036222f, -0.225481f, 0.026080f, -0.291136f, -0.280236f, -0.255303f, 0.217184f, 0.168989f, -0.238581f, 0.334349f, 0.315282f, 0.190208f, -0.126162f, -0.315939f, -0.146596f, -0.288106f, 0.094367f, -0.275927f, -0.045663f, -0.086051f, 0.145367f, -0.088685f, -0.139372f, 0.224274f, 0.218066f, -0.157042f, -0.270151f, -0.287637f, 0.041199f, -0.060273f, 0.109026f, -0.045566f, 0.212956f, 0.217073f, -0.031427f, 0.305515f, -0.162944f, 0.086800f, 0.106240f, 0.274022f, 0.196741f, -0.302244f, -0.027953f, 0.128979f, 0.029122f, -0.247372f, -0.221143f, 0.003842f, 0.035281f, -0.306926f, -0.069762f, 0.240191f, 0.265179f, -0.116349f, -0.183514f, -0.306295f, -0.116943f, -0.286946f, -0.196971f, -0.010068f, -0.120562f, 0.308260f, -0.019616f, 0.235241f, 0.099470f, -0.192827f, 0.167788f, -0.202106f, -0.212227f, 0.181682f, 0.056426f, 0.232126f, 0.186317f, 0.243154f, -0.096207f, -0.075206f, -0.251778f, -0.166848f, -0.119764f, -0.087636f, 0.082074f, 0.096800f, -0.199832f, 0.128784f, -0.249895f, -0.115487f, -0.038275f, -0.293796f, -0.043707f, -0.087542f, 0.129643f, 0.039974f, 0.173476f, -0.023333f, 0.062434f, -0.122482f, -0.213008f, 0.147036f, 0.243600f, 0.302528f, -0.255453f, 0.131190f, 0.204378f, -0.112264f, -0.180091f, 0.207338f, -0.143327f, -0.071926f, -0.207401f, -0.186724f, -0.003320f, 0.226936f, 0.219449f, -0.058414f, -0.270862f, 0.206854f, 0.011295f, 0.241963f, 0.050651f, -0.219779f, -0.048607f, -0.111616f, -0.206095f, 0.075053f, 0.284922f, -0.292145f, -0.105104f, -0.122599f, 0.114564f, 0.005632f, -0.177729f, -0.053824f, -0.270875f, 0.158418f, -0.015444f, -0.103093f, -0.122784f, 0.208544f, 0.190557f, -0.012006f, 0.272966f, -0.051880f, -0.175348f, -0.286396f, -0.004692f, 0.153256f, -0.038065f, 0.001197f, 0.010794f, 0.088897f, 0.269378f, 0.082281f, 0.096636f, 0.325243f, -0.163531f, 0.148175f, -0.044496f, 0.028808f, -0.283066f, 0.154801f, 0.149260f, 0.049800f, -0.078184f, 0.221176f, 0.267685f, 0.182412f, -0.080747f, 0.065822f, -0.255991f, -0.215244f, -0.151775f, -0.127887f, 0.082219f, -0.285553f, 0.079659f, -0.073688f, -0.033955f, 0.308153f, -0.102380f, -0.254213f, 0.215720f, 0.170206f, -0.225135f, 0.112058f, 0.123958f, 0.087061f, 0.010252f, -0.219810f, -0.269372f, 0.244769f, -0.038780f, -0.061885f, 0.168439f, 0.270966f, -0.076975f, 0.187968f, -0.301712f, -0.224337f, -0.299834f, -0.006116f, 0.201600f, 0.136122f, -0.016491f, -0.258496f, 0.297401f, -0.289022f, -0.062396f, -0.162721f, 0.202237f, -0.168418f, -0.167244f, 0.130791f, 0.065533f, 0.076030f, 0.048926f, 0.223774f, -0.153780f, 0.126054f, -0.003570f, -0.005347f, -0.056069f, 0.304458f, -0.111008f, 0.145123f, -0.165983f, -0.289977f, -0.061607f, 0.095135f, 0.154657f, -0.085028f, -0.123805f, 0.029813f, 0.349784f, 0.248148f, -0.221322f, -0.344341f, 0.139940f, 0.280245f, 0.142353f, 0.092186f, -0.075649f, 0.014333f, -0.153974f, 0.296900f, -0.240560f, -0.026140f, 0.170288f, 0.074227f, -0.125577f, 0.016946f, 0.111171f, -0.078321f, 0.113505f, 0.113969f, -0.243628f, -0.183238f, 0.107887f, 0.071275f, -0.291189f, -0.009943f, 0.233808f, 0.064517f, -0.145286f, -0.188095f, -0.235760f, 0.012268f, 0.233680f, -0.158392f, 0.310058f, -0.163284f, 0.037121f, 0.059047f, 0.247840f, 0.045076f, 0.201144f, -0.229948f, -0.054653f, -0.242803f, 0.125670f, 0.063423f, 0.111132f, -0.284131f, 0.235616f, 0.181216f, -0.134335f, 0.168882f, -0.034127f, -0.084193f, -0.059464f, 0.013045f, -0.267808f, -0.138988f, 0.156519f, -0.154209f, 0.087432f, 0.221136f, 0.312964f, 0.210910f, -0.028982f, -0.164935f, 0.033223f, 0.033219f, -0.244397f, 0.157872f, -0.097077f, -0.047206f, 0.258077f, -0.116495f, 0.267341f, -0.052480f, 0.285996f, -0.041881f, -0.279657f, 0.046403f, -0.245781f, -0.122547f, 0.185526f, 0.171260f, -0.155136f, -0.221901f, -0.205292f, -0.315350f, 0.171181f, -0.008959f, -0.282352f, 0.066515f, -0.268537f, 0.162691f, 0.073495f, -0.107007f, -0.144959f, -0.292186f, 0.304131f, -0.227433f, 0.177652f, -0.187356f, 0.290009f, 0.281658f, -0.041298f, -0.159005f, 0.162776f, -0.047103f, 0.255022f, -0.087582f, 0.045499f, -0.112428f, 0.245275f, -0.033449f, 0.201708f, -0.297791f, 0.178744f, 0.236622f, 0.126950f, 0.144599f, -0.233555f, 0.204907f, 0.017730f, 0.170304f, 0.016302f, 0.278416f, -0.172063f, 0.191009f, 0.198452f, -0.255702f, -0.113938f, 0.198357f, 0.150956f, 0.356285f, 0.306320f, -0.242631f, 0.004203f, 0.290898f, 0.281153f, -0.053755f, 0.057250f, -0.041897f, 0.185602f, -0.255833f, -0.009051f, 0.281581f, 0.276978f, 0.245317f, -0.055511f, -0.119587f, -0.177987f, 0.122494f, -0.066459f, 0.230846f, 0.019223f, -0.118272f, 0.026801f, 0.329358f, 0.102083f, 0.321228f, -0.058992f, -0.008646f, 0.184199f, -0.140702f, -0.154540f, -0.123073f, -0.166756f, 0.262416f, -0.167042f, -0.200392f, -0.117283f, -0.011708f, 0.023621f, 0.189535f, -0.105753f, 0.215036f, 0.000245f, -0.052021f, 0.200449f, -0.151780f, 0.265306f, -0.137924f, 0.014749f, 0.215798f, 0.069758f, -0.016194f, 0.111471f, -0.031870f, 0.250390f, -0.160362f, -0.020744f, -0.123055f, 0.166146f, 0.217133f, 0.164123f, 0.330509f, -0.242457f, 0.220641f, 0.116861f, -0.365351f, -0.187988f, -0.060027f, 0.015079f, 0.148440f, 0.256376f, 0.130113f, -0.127409f, 0.019554f, -0.044660f, 0.049743f, 0.103125f, -0.296275f, 0.181870f, 0.103853f, 0.084366f, -0.146807f, 0.030312f, 0.016131f, -0.022565f, 0.310629f, -0.040878f, 0.315541f, -0.268022f, 0.000983f, -0.146090f, 0.315276f, -0.063533f, 0.012908f, -0.091518f, -0.024758f, 0.098075f, -0.139811f, -0.065013f, -0.072349f, -0.204715f, -0.129940f, 0.134523f, 0.131794f, 0.116395f, -0.312861f, -0.260738f, 0.202899f, 0.212623f, 0.096512f, 0.271613f, 0.101105f, 0.025230f, 0.274741f, 0.037313f, 0.089761f, -0.167189f, 0.128535f, -0.170814f, 0.343429f, 0.078717f, -0.314820f, -0.163310f, 0.210442f, 0.276166f, -0.051050f, 0.240065f, -0.022794f, 0.106302f, -0.155135f, 0.066988f, 0.172002f, 0.223430f, 0.203530f, -0.116593f, -0.102917f, -0.157085f, 0.189204f, -0.225342f, 0.054208f, 0.301585f, -0.225316f, 0.076876f, 0.265217f, -0.035991f, -0.290001f, 0.173206f, -0.301954f, 0.282533f, -0.312780f, -0.269716f, 0.289483f, 0.061435f, -0.201741f, 0.244377f, 0.055019f, -0.182785f, 0.073532f, -0.154231f, 0.277236f, -0.182070f, -0.111463f, 0.296266f, -0.084794f, 0.205173f, 0.070659f, -0.251911f, 0.105827f, 0.091449f, -0.019873f, -0.162500f, -0.038544f, -0.127802f, 0.168984f, 0.044697f, -0.170534f, -0.021093f, -0.254406f, 0.149464f, -0.083911f, -0.222557f, -0.092641f, 0.143332f, -0.162315f, -0.146397f, 0.312760f, -0.298903f, -0.222928f, -0.096668f, 0.104978f, 0.018989f, -0.005731f, -0.089372f, 0.214823f, 0.023279f, 0.057744f, 0.257222f, 0.034580f, 0.139380f, -0.057928f, -0.212498f, 0.164164f, 0.018983f, -0.017825f, -0.009431f };
static const float room_occupancy_forecast_layer_3_biases[30] = { 0.029005f, 0.011595f, 0.023124f, 0.000000f, 0.022321f, -0.029474f, 0.000000f, 0.007476f, 0.009755f, 0.000000f, 0.000000f, 0.023925f, 0.068221f, 0.002177f, -0.011885f, -0.007332f, 0.067460f, -0.022686f, 0.032065f, -0.027271f, 0.033669f, 0.011696f, 0.067166f, 0.032235f, 0.005107f, -0.012437f, 0.040189f, 0.031992f, -0.044915f, -0.022433f };
static const float room_occupancy_forecast_layer_3_weights[900] = { 0.127326f, -0.252296f, 0.249344f, -0.218445f, 0.229105f, -0.281763f, 0.100940f, -0.017006f, 0.263688f, 0.100722f, -0.301727f, 0.165443f, 0.125039f, -0.281710f, 0.036545f, -0.154845f, 0.404527f, -0.057908f, 0.077568f, -0.003573f, 0.013045f, 0.019878f, 0.043115f, 0.052045f, -0.113495f, -0.147905f, 0.022774f, 0.160162f, 0.118058f, -0.051008f, -0.313632f, -0.288301f, 0.269971f, -0.188669f, -0.204419f, -0.256841f, -0.153491f, 0.023748f, -0.274275f, 0.188933f, -0.289828f, 0.082745f, 0.222902f, 0.212404f, 0.305191f, -0.195592f, 0.172231f, -0.068846f, -0.075635f, -0.217683f, -0.057975f, 0.260087f, -0.143539f, -0.025534f, -0.023164f, 0.028077f, -0.057047f, -0.104991f, 0.306787f, -0.178666f, -0.108407f, -0.107971f, 0.061274f, 0.270032f, -0.129714f, 0.285610f, 0.147529f, -0.200351f, -0.304672f, 0.296149f, 0.238182f, 0.176737f, -0.028433f, -0.125286f, 0.154561f, 0.269622f, -0.061752f, -0.190579f, -0.079090f, 0.117385f, -0.222930f, 0.152638f, -0.288355f, 0.275080f, -0.233068f, 0.253986f, -0.262655f, 0.121031f, -0.300164f, -0.242946f, -0.021869f, -0.163154f, -0.280089f, -0.257817f, 0.110794f, 0.167884f, 0.106183f, 0.153097f, -0.222521f, 0.195393f, -0.219751f, 0.169963f, 0.163062f, 0.069148f, 0.005306f, 0.023121f, 0.147044f, 0.289898f, -0.284931f, -0.131840f, -0.040937f, -0.139207f, -0.213039f, -0.264680f, 0.008843f, -0.190095f, -0.312010f, 0.055187f, -0.126529f, -0.229202f, -0.290294f, 0.326957f, -0.098525f, -0.178366f, 0.053182f, 0.107454f, -0.004691f, -0.032018f, -0.082390f, 0.042144f, 0.089391f, -0.195451f, -0.210354f, 0.036448f, 0.188470f, 0.096330f, 0.120816f, 0.112417f, 0.180535f, -0.179702f, 0.245530f, -0.247247f, 0.109299f, 0.181915f, 0.187641f, -0.183260f, -0.166959f, 0.134816f, -0.254149f, 0.106448f, -0.203779f, -0.179559f, -0.002773f, -0.242937f, -0.056862f, 0.249303f, 0.290397f, 0.159506f, -0.065740f, 0.213167f, -0.273877f, -0.179168f, -0.132925f, 0.058014f, 0.020712f, -0.119761f, -0.257693f, 0.213802f, -0.059765f, -0.209329f, -0.025591f, 0.083614f, -0.018089f, -0.178945f, -0.104636f, -0.133988f, 0.067605f, 0.170466f, -0.148590f, 0.139434f, -0.167799f, -0.112973f, -0.168158f, -0.296945f, -0.109586f, 0.183203f, -0.079017f, 0.116668f, 0.175357f, -0.307968f, -0.059422f, -0.047924f, -0.154937f, -0.012166f, -0.100378f, 0.023577f, -0.112683f, 0.201154f, -0.149707f, -0.193637f, -0.115091f, -0.075797f, -0.039319f, 0.006191f, 0.170021f, 0.314397f, -0.137939f, 0.190211f, 0.305277f, 0.156660f, -0.053279f, -0.128801f, -0.133257f, -0.154707f, -0.182150f, -0.024624f, 0.265293f, -0.216568f, 0.227091f, -0.263016f, -0.196921f, -0.267551f, -0.132397f, -0.208169f, 0.045886f, -0.159339f, 0.136126f, -0.075084f, -0.099013f, -0.033234f, -0.312195f, 0.128975f, -0.157487f, -0.125994f, 0.287603f, 0.011055f, -0.000123f, -0.266591f, 0.108323f, -0.187174f, -0.078536f, 0.005964f, 0.295039f, 0.038084f, -0.061473f, -0.054596f, 0.234239f, 0.016521f, 0.072712f, 0.184066f, 0.116880f, 0.093521f, 0.047825f, 0.146920f, -0.113747f, -0.261333f, -0.097428f, -0.251793f, -0.168007f, 0.253941f, 0.275835f, -0.311700f, -0.018238f, 0.180908f, -0.133915f, -0.266900f, -0.269364f, 0.090056f, -0.232562f, 0.200734f, 0.097223f, -0.108929f, 0.132595f, 0.246977f, -0.284322f, 0.034395f, -0.092294f, 0.137413f, -0.164264f, -0.203524f, 0.137814f, -0.144635f, -0.148633f, 0.082787f, 0.107696f, -0.290920f, 0.050321f, 0.009814f, 0.225379f, -0.206344f, -0.021748f, -0.259641f, 0.115559f, 0.261942f, -0.021703f, -0.110056f, 0.018670f, 0.093222f, 0.171402f, -0.246046f, 0.173045f, -0.139874f, 0.197039f, -0.139441f, 0.100317f, 0.026561f, -0.255130f, 0.149585f, 0.204926f, 0.035281f, 0.010966f, 0.331257f, 0.161773f, -0.296619f, -0.083808f, -0.017987f, 0.146103f, -0.057650f, 0.051886f, -0.008391f, 0.057251f, 0.012259f, 0.064920f, 0.296960f, -0.261140f, 0.264324f, 0.281020f, 0.138770f, 0.021123f, 0.269438f, 0.110953f, -0.048798f, 0.154988f, 0.030644f, -0.071946f, 0.254928f, 0.052663f, -0.282051f, -0.015024f, 0.004237f, -0.061158f, -0.132505f, -0.201836f, 0.007202f, -0.194588f, -0.110433f, 0.015775f, 0.013097f, 0.302563f, -0.069123f, 0.019714f, 0.263757f, -0.043346f, -0.309370f, -0.275402f, 0.211956f, -0.172834f, 0.183039f, -0.287871f, 0.041870f, 0.240749f, 0.096257f, 0.298900f, -0.144329f, -0.115406f, -0.268146f, 0.281266f, 0.138128f, -0.081600f, 0.139525f, 0.306785f, 0.297351f, -0.057893f, -0.082915f, -0.032450f, 0.204944f, -0.123180f, -0.055260f, -0.259466f, -0.187896f, -0.199427f, 0.178800f, 0.112116f, 0.211961f, -0.180838f, 0.046245f, -0.166798f, -0.037624f, 0.182246f, 0.307383f, 0.019366f, -0.082149f, 0.086481f, 0.231413f, -0.234339f, 0.135256f, -0.137437f, -0.069457f, -0.054807f, 0.023877f, -0.173606f, 0.120783f, -0.077504f, 0.007090f, 0.013925f, 0.172353f, 0.086807f, -0.217181f, -0.158500f, 0.151859f, 0.204480f, 0.101676f, -0.208733f, -0.111343f, 0.182434f, -0.107119f, -0.253750f, 0.167606f, -0.071935f, -0.215904f, -0.226892f, 0.291708f, 0.188170f, 0.149434f, 0.132796f, 0.204045f, 0.219557f, -0.085128f, 0.189539f, -0.043454f, -0.291601f, 0.315943f, 0.023127f, -0.193094f, -0.294886f, 0.111560f, 0.125400f, -0.263470f, -0.213324f, 0.232087f, 0.216181f, -0.072740f, 0.163469f, -0.248983f, 0.049483f, -0.144276f, 0.014242f, -0.089576f, 0.254545f, -0.269475f, 0.278733f, -0.075766f, 0.085704f, 0.185716f, -0.133290f, -0.112197f, -0.295220f, -0.268613f, -0.143030f, -0.206655f, -0.070323f, -0.202890f, 0.123639f, -0.269793f, -0.181081f, -0.216574f, -0.255768f, 0.235385f, 0.291878f, 0.151690f, 0.310502f, -0.093547f, -0.163813f, -0.232534f, -0.130490f, -0.161592f, -0.164878f, -0.044529f, 0.079630f, 0.115958f, 0.248389f, 0.028979f, 0.283849f, -0.274277f, -0.133062f, 0.000568f, 0.095743f, 0.212386f, 0.114398f, -0.013408f, 0.208577f, -0.298076f, -0.157950f, 0.081017f, 0.282729f, -0.178969f, 0.234409f, -0.206328f, 0.137093f, 0.003481f, 0.021871f, -0.257607f, -0.177572f, -0.299276f, -0.183586f, -0.276552f, -0.307645f, 0.098762f, 0.012905f, -0.071840f, -0.247599f, 0.154117f, -0.134846f, -0.205051f, 0.141098f, -0.179122f, -0.122788f, -0.093652f, -0.170642f, -0.287757f, 0.162464f, -0.280048f, -0.055559f, -0.039616f, -0.321314f, -0.004182f, -0.128408f, 0.254593f, -0.079269f, 0.191816f, 0.033644f, 0.085040f, 0.043928f, -0.181507f, -0.273722f, 0.046658f, 0.118523f, 0.104478f, 0.174697f, -0.114294f, -0.144393f, 0.018426f, 0.026569f, -0.051832f, 0.044941f, -0.023610f, -0.291373f, 0.127718f, 0.194053f, -0.277059f, 0.234604f, 0.204997f, 0.232781f, 0.105942f, -0.143942f, -0.257943f, -0.173660f, -0.051276f, 0.331645f, 0.222458f, 0.241366f, -0.186569f, 0.362049f, 0.195568f, -0.151350f, -0.252113f, 0.335307f, -0.183161f, -0.212471f, 0.312704f, 0.009601f, 0.170131f, 0.218785f, -0.103519f, 0.255992f, 0.100722f, -0.087719f, 0.002953f, -0.275981f, -0.288550f, -0.207665f, 0.271619f, -0.043492f, 0.112634f, -0.064589f, -0.007152f, 0.077810f, -0.001322f, 0.147361f, -0.252949f, 0.268570f, 0.186970f, -0.228424f, 0.044898f, 0.120687f, 0.190608f, -0.065733f, 0.216013f, 0.147283f, -0.004263f, 0.038404f, -0.054037f, 0.219364f, -0.219226f, -0.226810f, 0.239164f, 0.086552f, 0.148520f, 0.003577f, 0.259238f, -0.142995f, 0.289929f, 0.220799f, -0.257472f, -0.126722f, 0.189999f, 0.141851f, -0.024071f, -0.154203f, 0.170913f, 0.313042f, -0.204406f, -0.103524f, -0.279124f, 0.076393f, -0.276928f, -0.242576f, -0.301442f, -0.092115f, 0.200083f, -0.189727f, 0.319192f, -0.102762f, -0.165048f, 0.108119f, -0.248921f, -0.174481f, 0.064982f, -0.210083f, -0.108887f, -0.036766f, 0.184699f, -0.230282f, -0.043616f, 0.283986f, -0.071343f, -0.345832f, 0.057974f, 0.206445f, 0.252543f, -0.217207f, 0.287324f, 0.251261f, -0.295774f, -0.305551f, 0.304199f, -0.001314f, 0.189598f, 0.301885f, 0.148790f, -0.003470f, 0.120613f, -0.091008f, -0.184223f, -0.067929f, 0.206630f, -0.258061f, -0.282525f, 0.240305f, -0.315430f, 0.046734f, -0.122639f, 0.231586f, 0.292090f, -0.257791f, -0.014292f, 0.090176f, 0.030849f, 0.092169f, -0.181570f, 0.009498f, 0.297694f, -0.029494f, -0.246874f, -0.235438f, -0.241329f, -0.089226f, -0.103103f, 0.062309f, 0.177375f, 0.287761f, -0.063282f, -0.057036f, 0.031063f, -0.137141f, -0.283577f, 0.026699f, 0.217686f, 0.095628f, 0.231147f, 0.049818f, 0.050919f, -0.195664f, -0.061399f, 0.304600f, -0.169279f, -0.079896f, 0.170837f, 0.265684f, -0.011224f, -0.258744f, -0.003770f, -0.064704f, 0.222331f, 0.185844f, -0.060900f, -0.050416f, -0.233641f, 0.285737f, -0.259790f, 0.243066f, 0.273532f, 0.234129f, -0.303696f, -0.158591f, 0.022431f, -0.272044f, -0.181848f, 0.065211f, 0.213243f, -0.258373f, 0.194988f, 0.117816f, -0.190924f, -0.043889f, 0.119344f, 0.346499f, -0.096941f, -0.279962f, -0.216554f, 0.276683f, 0.290489f, 0.229720f, -0.120165f, -0.131332f, -0.080455f, 0.055118f, 0.284835f, -0.052735f, 0.138650f, 0.314196f, -0.210053f, -0.025721f, 0.133859f, 0.282918f, 0.002091f, -0.080819f, 0.026384f, -0.189906f, -0.174396f, -0.096935f, -0.091478f, 0.178068f, -0.128690f, 0.048127f, 0.196373f, 0.161097f, -0.296634f, 0.064639f, -0.074885f, -0.093339f, 0.140710f, 0.193438f, 0.238763f, -0.256669f, 0.240624f, 0.267638f, -0.324178f, 0.229956f, 0.325978f, -0.002754f, -0.197136f, 0.226051f, 0.016413f, -0.276861f, 0.083588f, -0.113269f, -0.300013f, -0.151826f, 0.045677f, 0.222194f, -0.206116f, -0.192171f, -0.298983f, -0.102241f, -0.267948f, -0.252648f, -0.241820f, -0.144973f, -0.116003f, 0.045974f, -0.183957f, -0.249442f, -0.042280f, -0.242436f, -0.238483f, 0.118579f, 0.048921f, 0.113080f, 0.242883f, 0.248092f, 0.246100f, 0.176397f, -0.125225f, -0.227533f, -0.243989f, -0.253046f, -0.263437f, 0.061604f, -0.286451f, 0.122334f, 0.186149f, 0.320258f, 0.278111f, 0.139575f, 0.125866f, -0.048101f, -0.235730f, -0.069801f, 0.082714f, -0.273147f, 0.225132f, -0.223523f, 0.140317f, -0.161929f, -0.037490f, 0.009685f, 0.115620f, -0.114970f, -0.191362f, 0.189676f, 0.116812f, 0.238837f, 0.283051f, -0.120135f, 0.014141f, -0.192151f, 0.170566f, -0.129444f, -0.085167f, -0.074787f, 0.226231f, 0.097314f, -0.238009f, -0.052211f, -0.120792f, -0.063577f, 0.331217f, 0.183142f, 0.170140f, -0.056606f, -0.034232f, -0.117335f, 0.257173f, 0.010465f, 0.213913f, 0.019835f, -0.196633f, 0.025502f, 0.135021f, 0.148434f, 0.295788f, 0.060174f, 0.291733f, -0.257076f, 0.147939f, -0.220486f, 0.080659f, 0.233859f, 0.027335f, 0.067271f, 0.156407f, 0.114521f, -0.276007f, -0.125364f, 0.264964f, -0.011326f, 0.202671f, 0.041557f, -0.080838f, 0.030877f, -0.024692f, 0.004852f, 0.235821f, 0.323986f, -0.068188f, 0.158237f, 0.032685f, -0.281364f, -0.071922f };
static const float room_occupancy_forecast_layer_4_biases[30] = { 0.009734f, -0.005951f, -0.002816f, 0.006638f, -0.016068f, 0.022169f, 0.000000f, -0.047965f, -0.016181f, -0.035655f, 0.000720f, 0.004878f, 0.010376f, 0.019322f, 0.076593f, -0.170377f, 0.065873f, -0.009466f, -0.125383f, -0.003976f, 0.000000f, -0.012554f, -0.033614f, 0.008695f, 0.049391f, 0.035479f, 0.112833f, -0.000930f, -0.135163f, -0.002764f };
static const float room_occupancy_forecast_layer_4_weights[900] = { -0.004905f, 0.084315f, -0.255281f, -0.135130f, -0.167691f, -0.101991f, 0.237485f, 0.067449f, -0.170538f, -0.244599f, -0.194231f, 0.206858f, -0.186046f, 0.205439f, 0.281932f, 0.161611f, -0.012541f, -0.286853f, 0.125005f, -0.099375f, -0.278962f, -0.097806f, 0.280080f, -0.147641f, 0.242285f, 0.301829f, -0.055438f, 0.159826f, 0.246825f, 0.031135f, 0.233510f, -0.030418f, 0.304929f, -0.172171f, -0.335429f, 0.215286f, 0.021413f, 0.252933f, -0.208756f, 0.291990f, -0.241368f, 0.094010f, -0.139336f, 0.148604f, -0.325897f, -0.324651f, 0.049456f, 0.180574f, -0.042913f, -0.317309f, 0.042553f, 0.160990f, 0.152739f, 0.122917f, -0.197069f, 0.326184f, -0.043267f, 0.333497f, -0.099535f, -0.251780f, -0.272485f, -0.163613f, 0.036366f, -0.266793f, 0.178055f, -0.211135f, -0.147914f, -0.037905f, 0.121021f, 0.204280f, 0.327540f, -0.026707f, 0.314840f, -0.283362f, -0.046600f, 0.145554f, 0.201625f, 0.099236f, 0.032518f, -0.252693f, -0.255997f, -0.281058f, 0.115603f, 0.008258f, -0.041375f, -0.190009f, 0.099293f, 0.280663f, -0.216833f, 0.275108f, -0.087489f, 0.161534f, 0.270806f, 0.241075f, -0.260144f, 0.176982f, 0.049462f, 0.086519f, -0.089431f, -0.142891f, 0.018544f, 0.263432f, 0.015559f, -0.310269f, 0.268369f, 0.011356f, -0.302039f, -0.032902f, -0.144349f, -0.185121f, -0.001274f, 0.118435f, 0.130441f, 0.154373f, 0.221558f, 0.274546f, -0.038416f, -0.182377f, -0.148347f, 0.101491f, -0.172221f, -0.014691f, -0.186209f, 0.097240f, -0.130517f, -0.244301f, -0.135353f, -0.103138f, -0.191836f, 0.070995f, 0.168612f, -0.281491f, -0.090439f, 0.194507f, -0.056259f, 0.150715f, 0.075671f, -0.096896f, 0.295756f, 0.008171f, 0.055507f, -0.013419f, -0.168450f, 0.111445f, 0.098330f, 0.231627f, 0.259311f, 0.340162f, -0.139571f, 0.312154f, 0.302613f, 0.296536f, 0.052385f, 0.003745f, -0.177585f, -0.213160f, 0.306025f, -0.344921f, 0.294329f, -0.061064f, -0.092451f, 0.179001f, 0.018421f, -0.101783f, -0.112024f, 0.254770f, 0.142174f, -0.280144f, 0.022937f, -0.180257f, -0.281491f, -0.171671f, 0.035579f, -0.208401f, -0.136913f, 0.236225f, -0.263645f, -0.037372f, 0.185825f, -0.211045f, -0.195456f, 0.206296f, -0.019030f, -0.136134f, 0.082252f, -0.219663f, -0.277571f, 0.062892f, 0.154566f, 0.210727f, -0.136748f, -0.125569f, 0.025789f, -0.164037f, -0.144292f, 0.285459f, 0.226677f, 0.156428f, 0.248928f, -0.195483f, -0.056916f, 0.023576f, 0.236009f, -0.086762f, 0.307860f, 0.059098f, 0.134176f, -0.277350f, -0.164940f, -0.097578f, 0.067802f, -0.251978f, 0.035835f, 0.330692f, -0.201742f, 0.044256f, 0.154542f, -0.186821f, -0.071327f, 0.211374f, -0.246189f, 0.172191f, -0.000540f, 0.174474f, -0.096774f, -0.042030f, 0.266347f, -0.109057f, 0.074875f, 0.127327f, 0.112867f, 0.229706f, -0.269339f, 0.043753f, -0.070075f, -0.089837f, -0.123999f, 0.033510f, -0.153016f, -0.165593f, -0.214768f, -0.038679f, -0.214783f, 0.074384f, 0.252675f, -0.011849f, -0.152325f, -0.176497f, 0.115308f, 0.175030f, 0.214356f, 0.290507f, -0.011626f, -0.178613f, 0.252309f, -0.323658f, -0.016977f, 0.231452f, 0.281157f, -0.005098f, 0.062276f, 0.028446f, 0.013914f, 0.261699f, 0.066974f, 0.132413f, 0.245665f, 0.158200f, -0.254657f, -0.257106f, 0.121825f, 0.214959f, -0.120058f, 0.184460f, -0.229244f, -0.304116f, 0.278847f, -0.217288f, 0.029013f, -0.133783f, 0.208777f, 0.053306f, 0.101404f, 0.273475f, -0.054966f, 0.074335f, 0.231638f, 0.268977f, -0.230649f, 0.025059f, -0.194353f, 0.152201f, -0.272014f, 0.027139f, 0.189944f, 0.099218f, 0.305016f, 0.041720f, -0.254475f, -0.127195f, 0.258747f, 0.144352f, 0.227476f, -0.164825f, 0.273371f, -0.038296f, 0.192862f, 0.007560f, -0.126758f, -0.110902f, -0.184475f, -0.117052f, 0.181733f, -0.256066f, 0.222429f, -0.011389f, -0.108846f, -0.021882f, 0.124727f, -0.003025f, 0.126988f, -0.278210f, -0.023909f, -0.068824f, 0.148086f, -0.113475f, -0.143496f, -0.046478f, -0.228063f, -0.192468f, 0.309057f, -0.080877f, -0.054930f, 0.043069f, 0.134996f, 0.119609f, 0.061600f, -0.003972f, 0.313710f, 0.225431f, 0.162092f, -0.313386f, -0.272636f, -0.274480f, 0.042629f, -0.206499f, 0.285131f, -0.102422f, -0.294583f, 0.290757f, -0.143874f, -0.116029f, 0.152403f, -0.245028f, 0.322150f, 0.093041f, -0.163868f, 0.253191f, -0.129462f, -0.081882f, -0.001885f, -0.301250f, -0.099147f, -0.042159f, 0.202093f, 0.256144f, -0.239404f, 0.158353f, -0.149107f, -0.015626f, -0.088948f, -0.304788f, -0.018705f, 0.020120f, -0.282607f, -0.246663f, 0.229013f, -0.003259f, -0.172463f, -0.074146f, 0.152266f, 0.177731f, -0.271378f, -0.070523f, -0.059323f, 0.273405f, 0.363591f, 0.193302f, 0.281530f, -0.194990f, -0.235249f, 0.192403f, -0.140613f, -0.140708f, 0.218048f, 0.052376f, 0.237474f, -0.315588f, -0.038857f, 0.131371f, -0.141316f, 0.312884f, -0.306242f, 0.271557f, 0.044947f, -0.158777f, 0.077309f, 0.269397f, 0.027625f, 0.295304f, -0.015571f, -0.088943f, -0.294835f, -0.161417f, 0.239947f, 0.195289f, 0.084770f, 0.159810f, 0.100604f, -0.214615f, 0.088372f, 0.198159f, -0.082225f, -0.277675f, 0.100376f, -0.231971f, -0.240921f, 0.253880f, 0.029556f, -0.308726f, -0.011641f, 0.179122f, 0.196329f, 0.124554f, 0.192788f, 0.201342f, 0.307643f, 0.162539f, -0.018665f, -0.040141f, 0.157219f, -0.287637f, -0.270792f, 0.279332f, 0.283114f, -0.217876f, 0.179990f, 0.209885f, -0.062967f, -0.277921f, -0.305553f, 0.283763f, 0.012463f, -0.075263f, -0.248889f, -0.293303f, 0.259101f, -0.296188f, 0.116041f, 0.069937f, 0.054462f, 0.025425f, -0.080316f, 0.215396f, -0.005171f, -0.070952f, -0.067545f, -0.126030f, 0.029137f, -0.002641f, 0.099823f, -0.212695f, 0.211002f, -0.030736f, 0.088339f, 0.239691f, -0.069111f, -0.134616f, -0.075719f, -0.252148f, 0.378670f, 0.048735f, -0.018137f, -0.120870f, -0.041209f, 0.376553f, 0.273382f, 0.311573f, 0.390954f, 0.379065f, 0.217658f, 0.217842f, 0.189718f, -0.166722f, 0.232621f, 0.280083f, 0.134706f, -0.145988f, -0.209199f, 0.218862f, -0.267357f, -0.196967f, 0.081712f, -0.067739f, 0.333502f, 0.031733f, -0.072411f, 0.043931f, 0.032974f, 0.201039f, 0.230992f, -0.284111f, 0.112926f, -0.100242f, 0.234970f, -0.293493f, 0.109745f, 0.150833f, 0.202074f, 0.181197f, 0.153795f, -0.274235f, 0.183989f, 0.038540f, 0.286201f, 0.017907f, -0.301136f, 0.202172f, 0.038096f, 0.009166f, -0.113382f, -0.295004f, 0.229509f, 0.291567f, 0.229593f, 0.209775f, 0.231222f, 0.121373f, -0.228000f, -0.203215f, -0.203910f, -0.171342f, -0.074729f, -0.206195f, -0.144622f, -0.081685f, -0.275689f, 0.066248f, -0.037806f, -0.208083f, -0.060669f, 0.019116f, 0.306686f, 0.100646f, -0.210707f, -0.052105f, 0.038639f, 0.039132f, 0.290366f, 0.062228f, 0.135061f, 0.216585f, -0.298676f, -0.222470f, 0.334090f, 0.068538f, 0.301891f, 0.145503f, -0.008249f, 0.197989f, 0.249808f, -0.281703f, -0.214755f, 0.087046f, -0.072493f, -0.237968f, 0.013853f, -0.356125f, -0.048368f, -0.214964f, -0.123835f, 0.230870f, 0.194414f, -0.107315f, -0.149751f, 0.100736f, 0.203909f, -0.096986f, -0.037081f, -0.018939f, -0.162125f, 0.023650f, 0.115225f, 0.211666f, 0.001717f, -0.004639f, 0.173253f, -0.282896f, -0.240048f, -0.111998f, -0.235742f, 0.280320f, -0.014984f, 0.266255f, -0.209024f, 0.247068f, -0.128142f, 0.156583f, 0.251377f, 0.150895f, 0.154145f, -0.295926f, -0.245851f, 0.297045f, 0.019754f, -0.250486f, 0.273513f, -0.046206f, -0.257061f, -0.212037f, -0.224352f, 0.128777f, 0.186822f, -0.070958f, 0.056257f, 0.217607f, 0.022404f, -0.036189f, -0.231684f, 0.166739f, 0.010038f, 0.009928f, 0.276137f, -0.209507f, -0.041200f, 0.206199f, -0.236614f, 0.131199f, 0.043479f, 0.277756f, -0.248012f, -0.061336f, 0.202561f, -0.308772f, -0.002222f, 0.114884f, 0.117573f, 0.285604f, 0.125559f, -0.210329f, -0.069442f, -0.014699f, -0.145187f, 0.031264f, 0.033348f, -0.028333f, -0.063265f, -0.008916f, -0.221259f, -0.059916f, 0.007671f, 0.061320f, -0.073840f, 0.189713f, -0.180193f, 0.438195f, 0.270510f, -0.231536f, 0.362032f, -0.130421f, 0.009227f, -0.051676f, 0.006504f, 0.062411f, 0.005556f, -0.281658f, 0.052386f, -0.141109f, 0.230166f, 0.235882f, 0.253979f, 0.167287f, -0.130099f, 0.202661f, 0.276650f, 0.336396f, 0.455408f, 0.444485f, -0.028039f, 0.429131f, 0.084212f, 0.040132f, -0.266228f, 0.053748f, -0.234895f, 0.285410f, 0.161748f, 0.016595f, 0.206978f, -0.087998f, 0.277995f, 0.065879f, 0.059534f, 0.217606f, -0.142090f, -0.216798f, 0.162303f, -0.271394f, 0.035302f, 0.069373f, 0.290072f, 0.132271f, -0.106610f, -0.180193f, 0.174273f, 0.055824f, 0.066686f, 0.054113f, 0.088230f, 0.279139f, 0.170758f, 0.058468f, 0.179530f, 0.006515f, 0.118371f, -0.184506f, 0.015901f, -0.216254f, -0.206476f, 0.041762f, -0.000251f, 0.151247f, -0.041902f, 0.113083f, 0.174404f, 0.283952f, -0.114506f, -0.060953f, 0.038362f, 0.305634f, -0.095491f, 0.199097f, -0.002147f, 0.153824f, -0.296762f, -0.167350f, -0.328892f, -0.214342f, 0.292492f, 0.022409f, -0.178462f, 0.293302f, -0.086354f, 0.249039f, -0.036125f, 0.026487f, -0.058712f, 0.232885f, 0.094790f, -0.177956f, 0.065772f, -0.256847f, 0.083008f, 0.219714f, -0.240536f, -0.109271f, -0.288520f, 0.272999f, -0.004654f, 0.213496f, -0.183428f, 0.216509f, 0.224085f, 0.074984f, -0.062776f, -0.019381f, 0.080862f, 0.192714f, -0.211999f, -0.292625f, 0.084322f, -0.270777f, 0.176876f, -0.320869f, 0.103365f, 0.310831f, 0.057910f, -0.313272f, -0.222991f, -0.030389f, 0.136734f, 0.023874f, 0.129175f, 0.277147f, -0.126365f, -0.036127f, 0.369650f, -0.289889f, 0.072844f, -0.251175f, 0.007793f, -0.081172f, 0.211804f, 0.172608f, -0.200014f, 0.151542f, 0.444813f, -0.244762f, 0.179677f, 0.045198f, -0.218660f, -0.061347f, -0.100790f, -0.057985f, -0.113871f, 0.226112f, -0.304662f, -0.063783f, 0.264228f, -0.178939f, -0.172714f, 0.310151f, 0.108940f, 0.097306f, 0.171387f, 0.255532f, -0.259063f, -0.247458f, -0.043704f, 0.102785f, -0.022100f, 0.195480f, 0.238467f, 0.202106f, 0.208547f, -0.066726f, -0.191580f, -0.189306f, -0.298998f, -0.306833f, 0.201781f, -0.178481f, -0.211629f, 0.276197f, -0.208790f, -0.005698f, -0.257057f, -0.020254f, -0.204227f, -0.000037f, -0.107343f, -0.045954f, -0.140922f, -0.174689f, -0.104194f, 0.174876f, -0.064363f, -0.049617f, 0.282712f, -0.129785f, -0.041024f, 0.091637f, -0.014006f, -0.059546f, 0.032287f, -0.160706f, -0.148067f, 0.162048f, 0.274467f, -0.070111f, 0.154297f, -0.225815f, 0.056533f, 0.332129f, -0.165852f, 0.107553f, 0.021151f, -0.323411f, -0.306494f, 0.089569f, 0.251921f, -0.303133f, 0.055714f, -0.220059f, -0.305828f, -0.325960f, -0.165339f, -0.209543f, -0.244254f, 0.020021f, -0.037374f, 0.267240f, -0.196808f, 0.219264f, 0.173673f, 0.132794f, 0.249946f, 0.159157f, 0.232839f, 0.271351f };
static const float room_occupancy_forecast_layer_5_biases[30] = { -0.005205f, -0.021854f, 0.039045f, 0.000000f, 0.114135f, 0.030113f, -0.004206f, 0.000000f, -0.017525f, -0.059033f, 0.033456f, 0.000000f, 0.000000f, -0.010056f, -0.005892f, 0.073678f, -0.020681f, 0.020394f, 0.000000f, -0.018903f, -0.007695f, -0.009157f, -0.011515f, -0.024020f, 0.032477f, -0.035908f, -0.000626f, -0.005597f, -0.026277f, 0.001056f };
static const float room_occupancy_forecast_layer_5_weights[900] = { -0.318038f, -0.061167f, 0.280792f, 0.014678f, 0.047539f, -0.056249f, -0.204223f, 0.231286f, 0.225642f, 0.101618f, 0.101613f, 0.027088f, 0.230859f, -0.122621f, -0.033033f, 0.072285f, -0.138535f, 0.301065f, 0.314831f, -0.309309f, -0.182848f, 0.328476f, -0.280196f, 0.300187f, -0.254100f, 0.289556f, 0.162862f, -0.306964f, -0.074305f, 0.228091f, -0.298403f, -0.130014f, 0.028054f, 0.134282f, -0.016185f, -0.240250f, -0.054668f, 0.290747f, 0.235895f, 0.135780f, -0.137178f, 0.216379f, -0.210538f, 0.000239f, -0.138261f, 0.136269f, -0.301053f, -0.218481f, 0.095230f, -0.086433f, 0.144478f, -0.185675f, -0.215967f, -0.186781f, 0.097919f, 0.154355f, 0.157020f, 0.133083f, 0.153216f, 0.190069f, 0.175835f, 0.256976f, -0.069794f, -0.118682f, -0.018232f, 0.286116f, -0.234065f, -0.068372f, 0.212111f, 0.150198f, -0.300784f, 0.289379f, 0.198391f, 0.042181f, 0.212876f, -0.194103f, 0.239363f, -0.175643f, 0.067886f, 0.304948f, -0.283029f, 0.148583f, -0.108033f, 0.171139f, -0.173447f, 0.182773f, -0.141136f, 0.182295f, -0.105742f, -0.065289f, -0.181194f, 0.019526f, -0.303706f, -0.262301f, -0.050948f, -0.211212f, 0.240278f, -0.255593f, 0.195135f, -0.203339f, 0.143095f, -0.017578f, -0.196741f, 0.313082f, -0.141523f, -0.253441f, 0.142961f, 0.272815f, 0.004726f, 0.238466f, 0.222336f, 0.168821f, 0.164978f, 0.135702f, -0.156513f, 0.269565f, 0.250709f, -0.297473f, 0.050214f, -0.064381f, 0.054658f, 0.274295f, -0.023375f, -0.056994f, 0.274701f, 0.015472f, -0.142937f, -0.201575f, -0.250416f, 0.030938f, 0.071127f, -0.184359f, -0.227911f, 0.166236f, 0.145548f, -0.169494f, 0.148825f, 0.041964f, 0.173334f, 0.102475f, -0.088690f, -0.031604f, -0.242119f, -0.070887f, 0.144972f, -0.277897f, -0.296944f, 0.294808f, 0.234146f, 0.048302f, -0.133743f, 0.042191f, 0.300702f, -0.133116f, -0.059794f, 0.146406f, -0.180432f, -0.157653f, 0.282426f, 0.200374f, -0.072715f, 0.162213f, -0.165506f, -0.176875f, -0.218301f, 0.053809f, -0.082600f, -0.235895f, 0.205204f, -0.290099f, 0.265365f, 0.211962f, 0.103231f, -0.188272f, 0.027603f, 0.324300f, 0.165766f, 0.072638f, -0.175899f, 0.184848f, -0.302416f, -0.315371f, -0.193284f, -0.178248f, 0.191447f, -0.174777f, 0.181799f, 0.221837f, 0.288380f, 0.152264f, 0.260864f, 0.165010f, 0.003005f, 0.253260f, 0.225313f, -0.097297f, 0.094632f, 0.070940f, -0.298817f, -0.174203f, 0.116811f, -0.085400f, 0.066197f, 0.181569f, 0.104601f, 0.072001f, -0.185291f, -0.248856f, 0.194194f, 0.014891f, 0.088481f, 0.052560f, 0.267478f, -0.274410f, 0.219335f, -0.254247f, 0.133947f, -0.064747f, 0.102488f, 0.009584f, 0.088790f, 0.025978f, 0.180882f, 0.263689f, -0.002761f, -0.158685f, -0.249568f, -0.173629f, -0.243572f, 0.260043f, 0.340892f, -0.095017f, -0.000416f, 0.298396f, -0.203574f, -0.081320f, 0.253585f, 0.135339f, 0.194740f, -0.245001f, -0.198413f, -0.267578f, 0.156201f, 0.102280f, -0.230036f, 0.134067f, 0.103521f, -0.123767f, 0.276009f, 0.046934f, 0.094989f, 0.129164f, 0.097160f, -0.210603f, -0.264454f, 0.238000f, 0.301021f, -0.156118f, -0.193712f, -0.062198f, 0.060995f, 0.094640f, 0.308199f, -0.169143f, 0.272273f, 0.021067f, 0.160725f, 0.304939f, -0.290569f, 0.253216f, 0.260816f, -0.028850f, -0.079966f, -0.057928f, -0.230172f, 0.188093f, -0.107358f, -0.206152f, 0.005584f, -0.280272f, 0.124122f, -0.209337f, -0.090022f, -0.338614f, -0.254639f, 0.001170f, 0.025005f, -0.025399f, -0.235874f, -0.226411f, 0.222849f, 0.158231f, -0.285098f, 0.201072f, 0.326861f, 0.283819f, 0.329706f, 0.010631f, 0.214630f, -0.082143f, 0.190603f, 0.291434f, 0.314720f, -0.183039f, -0.134800f, -0.042982f, 0.242439f, 0.055393f, 0.234807f, -0.203509f, 0.137754f, 0.132171f, -0.219961f, -0.033824f, -0.288872f, -0.158081f, 0.042098f, -0.130898f, -0.263158f, 0.281304f, -0.247019f, 0.059134f, -0.012559f, -0.013442f, 0.301534f, 0.023553f, 0.296993f, -0.105029f, 0.217097f, -0.287396f, -0.089198f, -0.086255f, -0.010726f, -0.258924f, -0.153478f, -0.234559f, 0.232562f, 0.134340f, -0.014828f, 0.062360f, -0.303829f, -0.250131f, -0.295995f, 0.064947f, 0.234153f, 0.119631f, -0.067393f, 0.083812f, -0.182367f, 0.039069f, 0.178507f, -0.154444f, 0.146574f, 0.269888f, -0.104321f, 0.150805f, 0.027843f, -0.217054f, -0.080116f, -0.082004f, -0.168422f, 0.205227f, -0.041330f, -0.207230f, 0.275845f, 0.284757f, 0.292730f, -0.000318f, 0.036825f, 0.020089f, 0.198341f, -0.067242f, 0.240421f, 0.289962f, 0.268848f, -0.171581f, 0.310972f, 0.163896f, -0.111965f, -0.223692f, -0.296487f, -0.182947f, 0.221159f, -0.047401f, 0.226898f, 0.313528f, 0.112615f, -0.139577f, -0.274586f, -0.290810f, -0.270095f, 0.051487f, -0.339030f, -0.176965f, -0.091630f, 0.203032f, 0.224200f, -0.221675f, 0.288856f, 0.164961f, -0.292452f, -0.048689f, -0.272241f, -0.262342f, -0.231862f, 0.237014f, -0.141250f, -0.251183f, -0.044450f, -0.074158f, -0.209371f, 0.074344f, -0.260560f, -0.179172f, 0.013234f, 0.005748f, 0.018343f, 0.101324f, -0.220820f, 0.242363f, 0.158715f, -0.250499f, 0.174626f, -0.301940f, 0.334021f, -0.162556f, -0.169904f, 0.045319f, -0.140125f, 0.203336f, -0.055815f, -0.124644f, 0.001947f, 0.314268f, -0.053238f, 0.030429f, -0.172082f, -0.138023f, 0.001004f, 0.300525f, -0.142577f, 0.286077f, -0.269220f, -0.195081f, -0.140016f, -0.219212f, -0.087152f, -0.061434f, -0.241904f, -0.215803f, -0.215369f, 0.025622f, -0.255382f, 0.026312f, 0.287050f, -0.227779f, -0.062653f, -0.167589f, 0.203888f, 0.244897f, 0.102431f, -0.183217f, -0.190518f, -0.296268f, 0.177680f, 0.229706f, 0.177125f, 0.014339f, 0.237320f, -0.060452f, -0.002899f, 0.011552f, -0.031481f, 0.127120f, -0.281960f, 0.112752f, 0.095614f, 0.176283f, -0.043659f, -0.142610f, 0.231067f, 0.022969f, 0.249719f, 0.268677f, -0.161479f, 0.340884f, 0.213461f, -0.099587f, -0.291363f, 0.236256f, 0.012173f, 0.016340f, -0.113278f, -0.160636f, -0.047797f, -0.126127f, 0.025790f, -0.206835f, -0.018098f, 0.172996f, 0.350576f, -0.287408f, -0.071656f, -0.068275f, 0.057899f, 0.261547f, -0.255761f, -0.305077f, -0.148370f, -0.139520f, 0.044851f, -0.227306f, -0.277280f, -0.155085f, 0.295308f, 0.015811f, -0.219366f, -0.151166f, -0.167804f, 0.136009f, -0.026204f, -0.229334f, 0.256435f, -0.111233f, -0.140553f, -0.112142f, 0.281613f, -0.291637f, -0.184221f, 0.251268f, 0.209423f, 0.175544f, 0.239818f, 0.005831f, 0.012734f, -0.163591f, 0.081880f, 0.137603f, 0.127360f, -0.100986f, 0.187538f, -0.150649f, 0.160824f, -0.173738f, -0.153395f, 0.082450f, 0.083271f, 0.151494f, 0.012108f, 0.081794f, -0.259100f, 0.255738f, -0.214867f, -0.019425f, -0.004780f, -0.023504f, 0.223273f, 0.082410f, -0.223451f, -0.147678f, 0.024736f, 0.196863f, -0.262093f, 0.322541f, 0.117068f, -0.087425f, -0.025688f, 0.301228f, -0.274061f, 0.300888f, 0.107069f, -0.011669f, -0.228172f, 0.131863f, 0.097504f, -0.237198f, -0.051528f, -0.188701f, 0.228851f, 0.000748f, 0.166640f, -0.314187f, -0.289560f, -0.016396f, 0.100021f, 0.232479f, 0.267046f, -0.083287f, -0.219009f, -0.021979f, 0.203152f, 0.272253f, 0.256033f, 0.069132f, -0.153880f, 0.010858f, -0.276164f, -0.264038f, 0.066456f, 0.140320f, -0.019788f, 0.125091f, -0.069827f, 0.088076f, -0.046457f, 0.304012f, 0.168911f, 0.115355f, -0.304503f, 0.144197f, -0.247821f, 0.137223f, -0.184906f, 0.082363f, -0.201214f, -0.294298f, 0.216386f, -0.122192f, 0.184111f, 0.164035f, 0.065179f, 0.199204f, 0.225230f, -0.134739f, -0.292490f, 0.018883f, 0.032202f, -0.309062f, 0.046516f, 0.167265f, 0.152204f, -0.047662f, -0.164541f, -0.288312f, 0.193518f, -0.047914f, -0.051659f, -0.124597f, 0.089620f, 0.236886f, -0.029367f, -0.299899f, -0.020973f, -0.150360f, 0.223796f, 0.167990f, -0.138446f, 0.238949f, -0.287834f, 0.089791f, 0.222989f, 0.023788f, -0.015519f, -0.085096f, -0.077799f, 0.293926f, -0.224108f, 0.114172f, 0.105465f, -0.316994f, 0.202323f, -0.097928f, -0.249355f, -0.075428f, 0.263630f, 0.238393f, 0.015423f, -0.099358f, -0.062937f, -0.228421f, -0.317969f, -0.062020f, -0.204092f, 0.317141f, -0.247394f, 0.318760f, 0.307255f, -0.198004f, 0.100429f, -0.110740f, 0.014339f, 0.030244f, -0.141156f, 0.201309f, 0.026319f, 0.011155f, -0.243650f, 0.198376f, 0.137976f, 0.076310f, 0.078973f, -0.155753f, 0.043390f, 0.190688f, 0.061691f, -0.202466f, 0.092644f, -0.248854f, -0.146437f, -0.096128f, -0.326865f, -0.217630f, 0.159067f, -0.005343f, -0.010629f, -0.267566f, 0.053979f, 0.035521f, -0.290824f, -0.049886f, 0.001172f, -0.008926f, 0.249370f, 0.315767f, -0.201374f, 0.263132f, -0.162853f, -0.211469f, -0.249063f, -0.304744f, -0.004362f, 0.016768f, 0.329222f, -0.041220f, 0.229139f, 0.344918f, 0.029288f, 0.249508f, -0.294557f, -0.236427f, 0.220488f, -0.280368f, 0.110025f, 0.206095f, 0.162633f, 0.180352f, -0.114552f, -0.023332f, -0.025440f, -0.035431f, -0.191878f, 0.177242f, 0.237915f, -0.160917f, -0.252034f, 0.307395f, 0.115550f, -0.075689f, 0.196847f, -0.100635f, 0.146680f, -0.220295f, 0.226612f, -0.238280f, -0.206134f, 0.175802f, 0.194318f, 0.048499f, 0.185226f, 0.069389f, -0.139610f, -0.224769f, -0.238638f, 0.118776f, -0.168802f, 0.274202f, 0.174487f, -0.028844f, 0.276580f, -0.108939f, 0.078397f, 0.082887f, 0.170968f, -0.222669f, 0.132906f, 0.216554f, 0.157830f, -0.074451f, -0.111021f, 0.063530f, 0.127964f, 0.300260f, 0.446633f, -0.234549f, -0.136220f, -0.034963f, -0.271067f, -0.263272f, -0.139488f, -0.003124f, 0.281799f, -0.212581f, -0.024836f, 0.119993f, -0.162765f, -0.176276f, -0.100093f, -0.169184f, 0.016281f, -0.061510f, 0.339064f, 0.144122f, -0.017872f, -0.040730f, 0.147090f, -0.106330f, 0.430847f, -0.307099f, -0.193782f, 0.231365f, -0.084267f, -0.131032f, 0.047567f, 0.066169f, -0.276763f, 0.289037f, -0.201551f, -0.303345f, 0.020537f, -0.118576f, 0.287642f, -0.005544f, -0.091640f, 0.123732f, -0.066778f, 0.264387f, 0.095006f, 0.132495f, -0.136327f, -0.014404f, 0.301671f, 0.335581f, 0.071906f, 0.242074f, 0.328359f, -0.216039f, 0.183719f, 0.013337f, -0.192935f, 0.037151f, -0.324473f, 0.027316f, -0.212362f, 0.240415f, -0.172605f, -0.251014f, -0.092078f, 0.232728f, -0.186054f, -0.244056f, 0.152246f, -0.182101f, 0.221264f, 0.003445f, -0.285980f, -0.351461f, 0.324518f, 0.059736f, -0.229169f, 0.001230f, 0.104850f, 0.175735f, 0.217368f, -0.241283f, -0.015033f, -0.169765f, 0.030343f, -0.078837f, 0.192116f, 0.153456f, -0.136585f, 0.049017f, -0.196405f, -0.310907f, 0.315130f, 0.372811f, 0.149484f, -0.238078f, 0.131449f, 0.250479f, -0.012174f, 0.135787f, 0.234440f, 0.089820f, -0.264642f, 0.270562f, -0.020903f, -0.015072f, 0.046785f, -0.214542f, 0.154629f, 0.089804f, 0.010448f, 0.002471f, 0.351365f, 0.297123f, -0.241258f, -0.165978f, 0.271603f, -0.142403f };
static const float room_occupancy_forecast_layer_6_biases[30] = { -0.025920f, -0.001334f, 0.003104f, 0.011138f, -0.029834f, -0.016976f, -0.000340f, -0.008336f, 0.007960f, 0.000000f, -0.039793f, -0.001613f, -0.005900f, 0.007513f, -0.030369f, -0.019297f, -0.048199f, 0.027309f, -0.022815f, -0.144611f, -0.100976f, 0.006917f, -0.007515f, 0.065712f, 0.028177f, 0.008987f, -0.025610f, -0.121044f, 0.027584f, 0.000078f };
static const float room_occupancy_forecast_layer_6_weights[900] = { -0.144826f, -0.323046f, 0.098730f, 0.208371f, 0.028541f, 0.142052f, 0.034237f, -0.136487f, -0.308226f, -0.169640f, -0.056538f, -0.224954f, 0.157024f, 0.102489f, -0.171144f, -0.178724f, 0.124542f, 0.332678f, -0.162116f, 0.020031f, -0.247988f, 0.179058f, 0.058903f, 0.114367f, -0.219896f, -0.131161f, -0.063501f, -0.213461f, -0.186510f, -0.176879f, 0.248250f, -0.075855f, -0.248701f, -0.314593f, 0.259010f, -0.287703f, 0.001517f, 0.132619f, 0.251873f, -0.154579f, -0.192987f, -0.141924f, -0.145664f, -0.020019f, 0.301669f, 0.235199f, 0.119469f, 0.264724f, 0.241934f, -0.296012f, -0.213576f, -0.113485f, -0.236253f, 0.180464f, -0.022816f, -0.233247f, 0.113636f, 0.245872f, -0.092433f, 0.048047f, -0.142022f, 0.059507f, 0.122255f, -0.020469f, 0.120803f, -0.288595f, 0.165796f, 0.256928f, 0.295637f, -0.090024f, 0.003866f, -0.268063f, -0.212989f, 0.201419f, 0.291802f, -0.149935f, 0.098947f, -0.001836f, 0.143442f, 0.137846f, -0.069549f, -0.152673f, 0.146852f, -0.264228f, 0.281058f, 0.232901f, -0.189718f, -0.079079f, -0.137098f, -0.013251f, -0.063791f, 0.258768f, 0.129287f, -0.258362f, -0.257854f, 0.291511f, 0.225743f, -0.051360f, 0.067107f, -0.047177f, 0.304235f, 0.099462f, 0.265592f, 0.049783f, 0.191411f, -0.289004f, 0.215420f, -0.287975f, 0.313284f, 0.054056f, -0.180647f, 0.076380f, 0.005683f, -0.237231f, -0.283450f, -0.113645f, 0.003819f, -0.283798f, 0.211321f, -0.099242f, 0.233111f, 0.039005f, -0.128175f, 0.035535f, -0.215958f, 0.191574f, 0.256672f, 0.239160f, -0.245424f, -0.242159f, -0.130249f, 0.282306f, 0.122351f, 0.011326f, -0.182093f, 0.258851f, -0.037418f, 0.104488f, -0.059739f, -0.069053f, 0.073486f, -0.228337f, 0.159404f, 0.136139f, -0.200492f, 0.107343f, -0.114029f, -0.193980f, -0.067772f, 0.234658f, 0.066739f, 0.223523f, 0.267480f, -0.109933f, 0.105382f, 0.042519f, 0.330271f, 0.055652f, -0.222721f, -0.091758f, -0.318275f, 0.164723f, -0.165355f, 0.075436f, 0.184375f, -0.151761f, -0.204717f, 0.189901f, 0.012790f, -0.061278f, 0.213351f, 0.196150f, 0.011490f, -0.262317f, 0.144135f, 0.265208f, 0.318560f, -0.151297f, 0.007474f, 0.069427f, -0.115904f, 0.265460f, 0.316718f, 0.112002f, 0.194416f, 0.199794f, 0.257136f, -0.078586f, 0.314317f, -0.064671f, 0.130828f, 0.294674f, 0.019024f, -0.271742f, -0.134657f, -0.272528f, -0.160939f, -0.052055f, -0.156699f, -0.060417f, 0.052203f, -0.001536f, 0.288152f, -0.160434f, 0.052387f, 0.280388f, 0.001625f, -0.220892f, 0.305790f, 0.238279f, 0.067870f, 0.157779f, 0.076166f, -0.036396f, -0.062775f, 0.037308f, 0.160106f, -0.222213f, 0.171561f, -0.214534f, 0.029447f, 0.084909f, -0.292900f, 0.134101f, -0.005859f, -0.125912f, 0.130154f, 0.078794f, 0.229918f, -0.298552f, -0.311143f, 0.152961f, -0.205285f, 0.314202f, 0.010053f, -0.296887f, -0.256342f, -0.113967f, -0.178534f, 0.201186f, 0.191375f, 0.320114f, -0.005099f, 0.089927f, 0.229912f, 0.300424f, 0.176943f, 0.264640f, 0.056346f, -0.048886f, 0.053984f, -0.114970f, -0.085852f, 0.181389f, -0.117007f, -0.084748f, 0.155078f, -0.008207f, 0.059942f, 0.036729f, 0.103930f, 0.252086f, -0.102027f, 0.271718f, -0.068853f, 0.113107f, 0.126343f, 0.051308f, -0.105320f, 0.157412f, -0.067771f, 0.044399f, 0.084100f, -0.165982f, 0.201541f, 0.259554f, -0.290798f, 0.161393f, 0.295777f, -0.048959f, 0.224259f, 0.029833f, -0.177599f, 0.239333f, 0.299465f, -0.198470f, -0.190735f, -0.225882f, -0.256453f, -0.182570f, -0.159226f, 0.218803f, -0.033825f, -0.097104f, -0.088595f, -0.275202f, 0.164091f, 0.141574f, -0.253212f, 0.265907f, -0.057176f, -0.154152f, -0.287311f, -0.203243f, 0.051180f, -0.127822f, 0.221411f, -0.109670f, 0.089238f, 0.035197f, -0.284552f, 0.095903f, -0.242089f, 0.179343f, 0.194643f, -0.332781f, -0.225163f, 0.100797f, -0.109047f, -0.293915f, -0.221440f, -0.058648f, -0.102602f, -0.164347f, -0.217099f, 0.156765f, -0.071787f, 0.193011f, 0.265005f, -0.253682f, 0.229026f, 0.158089f, -0.077179f, -0.039230f, -0.212105f, 0.014938f, 0.049077f, -0.275625f, 0.257927f, 0.039207f, 0.314099f, 0.204553f, -0.279171f, 0.293733f, -0.164234f, 0.205153f, 0.229618f, -0.233806f, 0.026422f, -0.031913f, -0.285480f, 0.155293f, -0.125483f, 0.085648f, -0.202557f, 0.144411f, -0.266902f, -0.282965f, -0.285386f, -0.238153f, 0.206175f, 0.067727f, 0.068478f, 0.273704f, 0.251454f, 0.132317f, 0.041985f, -0.065038f, 0.033037f, -0.234383f, -0.139778f, 0.139154f, 0.241503f, -0.267284f, 0.238125f, -0.225012f, 0.053823f, -0.250728f, 0.165791f, 0.123589f, -0.099653f, 0.058261f, 0.024915f, -0.011649f, -0.136299f, 0.024782f, 0.051170f, 0.294871f, 0.085240f, 0.127667f, 0.259403f, -0.103242f, -0.219742f, 0.236967f, 0.172964f, -0.105120f, -0.290065f, -0.215588f, -0.195330f, 0.018481f, 0.243868f, -0.147854f, -0.313807f, 0.291138f, 0.014245f, -0.284453f, -0.084083f, 0.286653f, 0.240330f, -0.148151f, -0.008321f, -0.050388f, -0.262966f, -0.106315f, 0.101420f, 0.058609f, -0.319022f, -0.136594f, 0.147321f, 0.034573f, -0.250449f, -0.266209f, -0.266243f, 0.084149f, -0.033892f, 0.206122f, -0.193105f, 0.250456f, 0.145591f, -0.123803f, 0.145044f, 0.245013f, -0.032305f, 0.257767f, -0.146816f, -0.211387f, -0.042455f, -0.011985f, 0.141392f, 0.298092f, -0.025734f, -0.081306f, 0.137986f, 0.155830f, -0.170578f, 0.075736f, -0.119512f, -0.112408f, 0.265366f, -0.069998f, -0.152639f, -0.078230f, 0.170777f, 0.125147f, 0.150294f, -0.125027f, -0.150497f, 0.131776f, 0.266191f, -0.164529f, 0.233660f, 0.275428f, 0.235392f, 0.045189f, -0.012095f, -0.335850f, 0.099361f, 0.068820f, 0.041201f, -0.254050f, -0.171816f, 0.250138f, 0.263018f, 0.007053f, -0.049097f, -0.020161f, -0.202495f, -0.231019f, 0.316519f, -0.184642f, 0.188980f, 0.090987f, -0.207293f, -0.242224f, 0.213088f, 0.038202f, -0.133892f, -0.046623f, -0.191268f, -0.078921f, 0.050723f, -0.007743f, 0.197554f, -0.090921f, 0.195173f, -0.242090f, -0.200424f, 0.098674f, -0.104548f, 0.283300f, 0.199381f, 0.038675f, -0.248345f, 0.287887f, -0.257411f, 0.200043f, 0.178565f, -0.014682f, -0.215318f, -0.006964f, 0.153977f, 0.090044f, 0.066145f, -0.275048f, 0.032964f, -0.014896f, 0.183252f, -0.224527f, 0.178182f, 0.160952f, -0.061049f, -0.096272f, -0.298340f, 0.274657f, -0.157262f, 0.171751f, -0.170014f, 0.005764f, -0.118291f, 0.224396f, -0.280017f, 0.128995f, 0.274445f, -0.028087f, 0.029622f, -0.033712f, -0.140588f, 0.080976f, 0.300049f, -0.048600f, 0.141404f, 0.032071f, 0.208482f, 0.312191f, -0.027756f, 0.219950f, 0.177535f, -0.257601f, -0.185755f, -0.214927f, -0.208965f, -0.022901f, 0.130847f, -0.203525f, -0.222333f, -0.157893f, 0.136557f, -0.194002f, 0.038518f, 0.298575f, 0.140428f, -0.141799f, -0.173942f, 0.120366f, 0.053501f, 0.114959f, -0.276779f, 0.286152f, 0.311000f, 0.017219f, -0.241303f, -0.326581f, -0.074412f, 0.271516f, -0.189166f, -0.044356f, -0.050757f, -0.057314f, 0.165647f, -0.119657f, -0.052643f, -0.077588f, 0.226580f, -0.122434f, 0.209034f, 0.105237f, 0.237817f, 0.159840f, 0.085297f, 0.164794f, -0.026871f, -0.088373f, -0.119303f, 0.138315f, -0.122083f, 0.246745f, 0.217159f, 0.110105f, 0.071026f, -0.286949f, 0.023511f, 0.144228f, 0.100295f, -0.051698f, -0.154962f, 0.047023f, -0.304688f, -0.169970f, -0.174815f, -0.108646f, 0.242195f, -0.175604f, -0.061015f, -0.130594f, 0.253567f, 0.208543f, -0.040357f, 0.213564f, -0.320795f, 0.043551f, 0.302115f, -0.194856f, -0.155684f, -0.080714f, 0.021672f, 0.059954f, 0.220548f, 0.200849f, -0.259909f, -0.176713f, 0.333177f, 0.193233f, -0.095985f, 0.003012f, -0.065656f, 0.170520f, 0.090016f, -0.291886f, -0.298988f, -0.186952f, 0.001667f, 0.194606f, -0.275308f, 0.084059f, -0.103713f, -0.083271f, -0.166336f, 0.053200f, 0.159993f, -0.234192f, -0.180190f, 0.066290f, 0.059646f, -0.162627f, -0.069446f, 0.168503f, 0.298890f, -0.125422f, 0.203686f, 0.045889f, 0.296091f, 0.179673f, -0.039854f, 0.009277f, -0.037012f, -0.079446f, -0.280128f, 0.288574f, 0.003769f, 0.211767f, -0.093558f, -0.193241f, -0.247723f, 0.090275f, 0.133585f, 0.220063f, -0.132439f, 0.184615f, -0.253038f, 0.262638f, 0.228648f, 0.136336f, 0.197638f, 0.149909f, 0.302655f, -0.316703f, -0.094681f, 0.204632f, 0.080615f, 0.170962f, 0.112479f, 0.288981f, 0.137739f, -0.080870f, -0.244457f, 0.218139f, -0.008873f, -0.112345f, 0.170825f, -0.093359f, 0.150095f, 0.037782f, -0.276857f, 0.258542f, 0.287894f, 0.249073f, 0.146051f, -0.326693f, 0.237993f, 0.278108f, 0.275316f, 0.306482f, -0.181345f, 0.016490f, -0.271906f, -0.251841f, 0.238259f, 0.220154f, -0.145655f, -0.277301f, -0.288633f, 0.164505f, -0.277270f, -0.152960f, 0.081103f, 0.291339f, 0.070506f, -0.259214f, -0.029692f, 0.067039f, -0.057603f, 0.113873f, 0.147737f, 0.056274f, 0.215290f, 0.203393f, 0.255986f, -0.083419f, 0.152248f, 0.021237f, -0.207997f, -0.258549f, -0.270428f, -0.122877f, 0.285074f, 0.272961f, 0.129582f, 0.184884f, -0.199291f, -0.153079f, -0.028469f, 0.162945f, 0.190225f, 0.190342f, -0.273763f, 0.138116f, 0.290572f, -0.228549f, 0.016879f, -0.289587f, -0.268465f, -0.275841f, 0.026230f, -0.180571f, 0.128803f, -0.146370f, -0.027951f, -0.277570f, -0.033497f, -0.008506f, 0.081238f, -0.174016f, -0.315080f, 0.043483f, 0.079337f, 0.158687f, -0.007196f, 0.096550f, 0.059950f, -0.199701f, 0.120552f, 0.185703f, -0.012186f, -0.129444f, -0.316785f, -0.147482f, 0.062340f, 0.049260f, -0.082062f, -0.050007f, 0.000554f, -0.125763f, 0.004997f, -0.209109f, 0.213643f, 0.050132f, 0.053479f, 0.278554f, 0.172886f, 0.223959f, -0.301870f, 0.214437f, 0.270362f, 0.287228f, -0.289276f, -0.068225f, -0.003594f, -0.273203f, -0.024450f, -0.298396f, 0.054985f, 0.070413f, -0.226693f, -0.095792f, 0.253258f, 0.204901f, -0.226929f, 0.201899f, 0.131998f, -0.280132f, -0.008467f, -0.122797f, -0.185565f, 0.293354f, -0.233783f, -0.108306f, 0.252000f, -0.235821f, -0.040222f, 0.274431f, 0.307215f, 0.268760f, 0.268965f, -0.026700f, 0.192110f, 0.268088f, 0.181101f, -0.023049f, 0.216987f, 0.164759f, 0.178336f, 0.304067f, 0.055301f, 0.078960f, -0.134091f, 0.139314f, -0.226928f, -0.122873f, -0.299304f, -0.225801f, -0.184364f, -0.210784f, -0.220855f, 0.171908f, -0.089880f, -0.101899f, 0.262702f, 0.068714f, 0.018983f, 0.214872f, 0.238364f, -0.243487f, 0.202162f, -0.185588f, -0.047437f, 0.198611f, 0.070574f, 0.146171f, -0.127671f, -0.157424f, -0.143319f, 0.294271f, -0.046538f, -0.163796f, -0.110309f, 0.221959f, -0.241371f, -0.314089f, 0.020052f, -0.116612f, -0.197388f, -0.265692f, -0.052472f, 0.008488f, -0.104673f, -0.199909f, 0.243203f, 0.151943f, -0.167515f, -0.266522f, 0.285737f, 0.239423f, 0.008517f, -0.148016f, -0.078000f, 0.133013f, -0.190531f, 0.241153f, 0.166265f, 0.058865f };
static const float room_occupancy_forecast_layer_7_biases[30] = { 0.005701f, 0.027640f, 0.036384f, -0.005770f, 0.016270f, 0.000000f, -0.012700f, -0.026141f, -0.014109f, 0.031259f, -0.028049f, 0.000000f, -0.018762f, -0.024098f, 0.000000f, 0.000000f, -0.069821f, -0.020416f, 0.000000f, -0.012637f, 0.015824f, 0.000000f, -0.022941f, 0.000000f, 0.029045f, -0.000916f, 0.052926f, -0.025020f, 0.000000f, 0.000000f };
static const float room_occupancy_forecast_layer_7_weights[900] = { -0.325659f, -0.091244f, -0.081026f, 0.258657f, -0.041116f, 0.000908f, 0.259400f, 0.251820f, -0.164492f, -0.171013f, -0.043205f, -0.211003f, 0.100180f, 0.097450f, 0.155194f, -0.087976f, 0.285719f, 0.041351f, -0.064196f, 0.242221f, -0.100554f, 0.230745f, 0.268937f, 0.060044f, -0.260325f, 0.182695f, -0.215143f, -0.099877f, 0.303473f, -0.099251f, 0.147206f, -0.002539f, -0.074667f, -0.080924f, 0.197821f, -0.033515f, 0.268879f, -0.014627f, 0.067194f, 0.052016f, 0.092210f, -0.150667f, 0.135753f, 0.212863f, 0.035160f, -0.132321f, 0.109672f, -0.096307f, -0.250434f, -0.196601f, 0.015279f, -0.246304f, -0.118762f, -0.205184f, 0.155121f, -0.306108f, 0.021125f, -0.259346f, -0.163608f, -0.281230f, 0.141474f, -0.312256f, -0.172833f, 0.193104f, 0.058377f, 0.019791f, 0.314710f, 0.305816f, -0.077072f, 0.243033f, -0.262640f, 0.304518f, -0.257984f, 0.160802f, 0.069856f, -0.266542f, -0.323930f, -0.024280f, -0.269473f, 0.144585f, 0.065511f, 0.009281f, 0.078656f, 0.215608f, -0.079920f, 0.021859f, -0.065326f, 0.276043f, -0.166447f, -0.253016f, 0.227359f, -0.302048f, -0.171717f, 0.091387f, 0.156099f, -0.018186f, 0.256745f, 0.315807f, -0.275336f, 0.195299f, 0.327935f, -0.303803f, -0.174306f, 0.092586f, 0.248920f, 0.027210f, -0.005421f, 0.021798f, 0.101300f, -0.284841f, 0.032965f, 0.223357f, 0.270392f, 0.059210f, 0.188278f, 0.128039f, 0.120026f, 0.137084f, 0.081153f, -0.205316f, -0.099251f, 0.324720f, 0.209827f, 0.308647f, -0.333231f, -0.123791f, 0.103285f, -0.071980f, -0.312738f, -0.070125f, 0.153322f, -0.188590f, -0.220113f, 0.157248f, -0.296184f, -0.219959f, 0.065692f, 0.260767f, 0.244351f, 0.285721f, -0.203610f, 0.308907f, 0.254669f, -0.186354f, 0.010225f, -0.138483f, -0.039323f, 0.131739f, -0.203291f, 0.238723f, 0.054162f, -0.210709f, 0.097671f, -0.080661f, -0.083635f, -0.140032f, -0.237402f, -0.208887f, -0.005749f, 0.081316f, 0.294682f, -0.127618f, 0.329840f, -0.219908f, -0.306405f, 0.302769f, -0.060325f, 0.052883f, -0.274251f, -0.028638f, -0.179070f, -0.278860f, -0.133500f, -0.304050f, -0.008109f, 0.008899f, 0.038496f, 0.256130f, 0.054448f, 0.049366f, 0.319784f, -0.021121f, 0.098258f, -0.079551f, 0.038871f, -0.244978f, 0.148840f, -0.160361f, -0.174091f, 0.057898f, -0.279827f, -0.193663f, -0.134338f, -0.246211f, -0.064328f, -0.277470f, 0.061600f, 0.092261f, 0.039008f, 0.049774f, 0.091837f, -0.180834f, 0.237322f, 0.180378f, -0.113921f, 0.034341f, 0.034024f, 0.031701f, -0.204634f, -0.170909f, 0.301080f, -0.162708f, -0.231291f, -0.288768f, -0.033933f, 0.036795f, 0.032852f, 0.073137f, -0.163460f, 0.229930f, -0.067321f, -0.304551f, 0.153181f, 0.052399f, 0.283783f, 0.190303f, -0.186510f, 0.109755f, 0.005008f, -0.266017f, -0.251291f, 0.069012f, 0.250859f, 0.309006f, -0.141345f, -0.107558f, -0.091974f, 0.294369f, 0.252434f, -0.217403f, 0.049177f, -0.168571f, -0.090966f, 0.205313f, -0.102798f, -0.146298f, -0.265728f, -0.005088f, -0.121659f, -0.161114f, 0.255182f, -0.118043f, 0.225062f, 0.205990f, 0.042966f, -0.128582f, 0.260852f, -0.235717f, -0.069709f, 0.060315f, -0.008898f, -0.101464f, 0.057233f, 0.083865f, -0.093176f, 0.218102f, 0.095319f, -0.286822f, -0.116636f, 0.052005f, -0.102041f, 0.039354f, 0.129690f, 0.269037f, -0.152751f, 0.226224f, 0.026213f, -0.017156f, -0.304142f, 0.256581f, 0.129082f, -0.164914f, -0.190439f, -0.014786f, -0.116929f, -0.235154f, -0.124556f, 0.042994f, -0.005771f, -0.170907f, -0.105396f, -0.263061f, -0.108837f, -0.239472f, 0.146867f, 0.274734f, 0.026323f, 0.272181f, 0.171294f, -0.094532f, 0.009053f, 0.012994f, -0.013019f, -0.041245f, 0.010768f, 0.233025f, -0.111606f, 0.174023f, 0.114228f, -0.159947f, 0.010371f, 0.172098f, 0.070541f, 0.071027f, 0.195055f, -0.037493f, 0.002908f, 0.100316f, -0.059595f, -0.010504f, 0.284308f, 0.084393f, 0.164940f, -0.054956f, -0.061292f, 0.124265f, 0.050620f, 0.297311f, -0.267442f, 0.231913f, 0.206033f, 0.255348f, 0.152231f, 0.043482f, -0.310496f, 0.173001f, 0.235758f, 0.303256f, -0.049126f, -0.241494f, 0.270698f, -0.161195f, -0.118066f, -0.026341f, 0.103760f, -0.279086f, -0.124890f, 0.091909f, -0.018964f, 0.144481f, 0.050307f, 0.055828f, 0.120988f, -0.177070f, -0.006526f, 0.213640f, 0.256247f, 0.101711f, -0.109221f, 0.301658f, 0.201200f, 0.135297f, 0.204464f, -0.028413f, 0.155424f, -0.238509f, -0.103001f, 0.018558f, -0.052523f, -0.012635f, -0.226910f, -0.045052f, -0.069835f, -0.305208f, 0.041695f, 0.152593f, -0.058225f, -0.310794f, -0.042788f, 0.209272f, 0.032989f, -0.229535f, -0.044121f, -0.299369f, -0.300150f, 0.174639f, -0.295936f, -0.015915f, 0.101465f, 0.004528f, -0.109110f, -0.032697f, -0.226871f, -0.181293f, -0.220297f, -0.115422f, -0.108433f, 0.056447f, 0.016876f, 0.277355f, -0.135196f, -0.087509f, 0.088917f, 0.090152f, 0.229076f, 0.041894f, -0.056112f, 0.083302f, 0.123006f, 0.314055f, -0.135651f, 0.115106f, -0.190830f, -0.120951f, 0.059309f, -0.107644f, -0.105787f, -0.025849f, -0.173720f, 0.235844f, -0.008103f, 0.272524f, 0.267526f, 0.004502f, -0.037021f, -0.280261f, 0.274277f, 0.319574f, -0.243331f, -0.074564f, -0.030876f, 0.147589f, 0.165109f, 0.114200f, -0.271893f, -0.027518f, -0.079107f, 0.022272f, -0.267480f, 0.276647f, 0.056288f, 0.164202f, 0.226781f, -0.284474f, 0.266945f, 0.162008f, 0.197967f, 0.043450f, 0.073889f, -0.075691f, 0.022907f, -0.304646f, -0.116702f, 0.170789f, 0.259768f, 0.261663f, -0.047786f, 0.296444f, 0.024536f, -0.048543f, -0.035924f, 0.067276f, -0.157661f, -0.077291f, 0.001234f, -0.283981f, -0.127609f, -0.051715f, 0.142928f, -0.114626f, 0.218998f, -0.062232f, 0.213776f, -0.005793f, 0.205015f, -0.160494f, 0.231107f, 0.135760f, 0.102567f, 0.083596f, 0.188022f, 0.028621f, 0.190377f, 0.246707f, 0.170432f, -0.084351f, 0.085234f, -0.214035f, 0.156681f, -0.221189f, -0.150825f, -0.050098f, -0.092831f, -0.034205f, -0.117900f, -0.140653f, 0.206203f, -0.334570f, -0.037107f, 0.191828f, 0.026784f, 0.224258f, -0.271588f, 0.257411f, -0.220235f, 0.088758f, 0.236777f, -0.060069f, 0.119024f, 0.220517f, -0.057815f, 0.173271f, 0.215140f, -0.035906f, 0.100895f, -0.144118f, -0.051664f, 0.155439f, 0.218049f, 0.018071f, 0.138526f, -0.184830f, -0.247983f, 0.061203f, 0.195876f, -0.009839f, 0.046041f, -0.162323f, -0.114642f, 0.141000f, 0.221230f, 0.080231f, -0.187989f, 0.060673f, -0.000809f, 0.039302f, 0.098231f, 0.036329f, 0.230306f, -0.035147f, -0.205997f, 0.237104f, 0.227150f, 0.039482f, 0.250251f, -0.023320f, -0.028612f, 0.099113f, 0.201146f, -0.021093f, 0.029014f, -0.266396f, -0.082274f, 0.216052f, 0.161791f, -0.129202f, 0.199694f, 0.155203f, -0.201161f, 0.162896f, 0.100767f, 0.009003f, -0.003778f, 0.293524f, -0.255867f, -0.061239f, -0.056571f, 0.277105f, -0.298715f, 0.202388f, 0.296497f, -0.193285f, 0.122566f, 0.291353f, -0.291996f, 0.303667f, -0.059072f, -0.009497f, 0.198525f, -0.157841f, -0.252914f, 0.148958f, -0.027601f, -0.313888f, 0.225740f, 0.078576f, 0.208509f, 0.042563f, 0.071059f, 0.145655f, 0.096830f, -0.014332f, -0.024284f, -0.064961f, -0.133845f, 0.284060f, -0.201242f, -0.136630f, 0.024589f, 0.137829f, -0.124448f, 0.227326f, -0.253665f, 0.063424f, -0.134774f, 0.080005f, -0.190274f, 0.166558f, 0.044276f, 0.045442f, 0.199149f, -0.146905f, 0.194558f, -0.203919f, -0.085046f, -0.135845f, -0.219655f, -0.220704f, 0.233071f, 0.281056f, -0.325381f, -0.217707f, 0.064221f, 0.055951f, -0.320969f, 0.114006f, 0.055938f, 0.253978f, 0.111948f, -0.168905f, -0.077426f, 0.048991f, -0.258686f, 0.145826f, 0.084838f, 0.060692f, 0.073118f, -0.298788f, -0.323727f, 0.026495f, 0.069493f, 0.025218f, 0.193311f, 0.202865f, -0.094659f, 0.064494f, 0.047393f, -0.133010f, 0.056738f, -0.116425f, -0.189990f, 0.293087f, 0.277669f, -0.232495f, 0.008592f, 0.024929f, -0.040569f, -0.199471f, -0.028730f, -0.107043f, -0.177316f, -0.204663f, 0.199502f, 0.239126f, -0.193996f, 0.243869f, -0.271798f, 0.096316f, -0.002577f, 0.140414f, -0.010787f, -0.078604f, -0.067613f, 0.286712f, 0.005738f, 0.209213f, -0.232143f, 0.247448f, -0.101289f, -0.227414f, -0.268126f, 0.182408f, 0.151533f, -0.007885f, -0.085847f, 0.250596f, 0.083514f, -0.191989f, 0.182977f, -0.209821f, -0.191478f, -0.269225f, -0.159483f, -0.074186f, -0.165603f, -0.187878f, -0.193197f, 0.256482f, 0.271279f, -0.035624f, -0.084956f, 0.159916f, -0.225578f, -0.319128f, -0.029666f, 0.129080f, -0.135143f, -0.225880f, 0.118839f, -0.113362f, -0.003033f, -0.294671f, -0.101949f, 0.175819f, -0.000845f, -0.122814f, 0.001534f, -0.067580f, -0.161725f, 0.217352f, -0.159243f, 0.063934f, 0.040893f, -0.158171f, 0.091338f, -0.191411f, -0.048179f, -0.119023f, 0.120363f, 0.163077f, 0.257888f, -0.051079f, -0.193938f, 0.271056f, 0.164333f, -0.196073f, -0.309224f, -0.172048f, 0.149526f, 0.231050f, -0.100669f, -0.161152f, -0.239921f, 0.002961f, 0.272991f, 0.167107f, -0.118358f, 0.275253f, 0.099850f, 0.126132f, 0.186511f, 0.157273f, 0.297624f, -0.073738f, 0.030631f, -0.160407f, 0.246204f, 0.194602f, -0.128916f, 0.134481f, 0.303017f, -0.060905f, -0.180599f, -0.294604f, -0.288974f, -0.215523f, 0.055915f, 0.091433f, -0.126778f, 0.254881f, -0.092283f, -0.272943f, 0.266494f, -0.121492f, -0.058160f, -0.139124f, 0.234270f, 0.193235f, -0.087254f, -0.044098f, 0.087038f, 0.092361f, 0.097453f, -0.238785f, 0.208186f, -0.194499f, -0.098111f, 0.028813f, 0.272359f, -0.068901f, -0.208583f, -0.182894f, 0.301610f, -0.250383f, 0.179661f, -0.118904f, 0.113529f, -0.070206f, 0.274374f, 0.139153f, 0.325231f, 0.243064f, -0.197738f, -0.162254f, 0.110010f, -0.092499f, -0.166410f, -0.178549f, 0.056879f, 0.095026f, -0.047042f, -0.055099f, -0.035128f, -0.121644f, -0.253031f, -0.013696f, -0.039440f, 0.061669f, 0.110889f, 0.325843f, -0.340090f, -0.065571f, -0.045765f, 0.207654f, -0.284933f, 0.119094f, -0.181485f, -0.312201f, 0.230881f, 0.049633f, 0.025079f, 0.241422f, -0.103712f, 0.260770f, 0.122857f, 0.200534f, 0.040060f, 0.152820f, -0.149747f, 0.269041f, -0.136165f, -0.004467f, -0.212857f, -0.273984f, -0.279887f, -0.312486f, -0.169521f, -0.213721f, -0.006832f, -0.110446f, 0.210946f, -0.113126f, 0.105927f, -0.208679f, -0.042709f, 0.292427f, -0.218111f, 0.053167f, -0.036138f, -0.070628f, -0.131206f, -0.220022f, 0.151766f, 0.274021f, 0.089337f, -0.046720f, -0.244974f, -0.096313f, -0.243056f, -0.117788f, -0.244778f, 0.057837f, -0.223694f, 0.065705f, -0.001716f, 0.055529f, 0.153956f, -0.206001f, 0.115197f, -0.269214f, -0.230668f, -0.088616f, 0.068865f, 0.040447f, 0.185077f, 0.149478f, 0.029188f, -0.089815f, 0.247073f, 0.267458f, -0.089404f, 0.251885f, -0.004416f, -0.029148f, 0.130453f, -0.258838f, 0.090312f, -0.061008f, -0.272217f, -0.000450f };
static const float room_occupancy_forecast_layer_8_biases[30] = { 0.000000f, -0.006723f, 0.015370f, 0.000000f, -0.094901f, -0.012275f, 0.000000f, -0.041356f, 0.045378f, -0.001679f, 0.000951f, -0.051177f, -0.005996f, 0.000000f, 0.000000f, 0.050159f, 0.134776f, 0.059405f, 0.000000f, -0.007336f, 0.046950f, -0.036662f, 0.045243f, 0.052406f, -0.014573f, -0.003571f, 0.039606f, 0.002054f, -0.039668f, 0.000000f };
static const float room_occupancy_forecast_layer_8_weights[900] = { -0.219022f, 0.298578f, -0.056595f, -0.296451f, 0.023688f, -0.170093f, -0.072514f, 0.231764f, 0.159336f, 0.199548f, -0.168236f, 0.080857f, -0.080256f, -0.132887f, 0.137427f, 0.286500f, -0.207761f, 0.032235f, 0.032857f, 0.054243f, 0.182627f, -0.099576f, 0.092918f, 0.324241f, 0.000410f, 0.086995f, -0.126016f, 0.219129f, -0.057055f, -0.307576f, 0.030713f, -0.185257f, -0.019285f, 0.087872f, 0.082742f, -0.201210f, -0.151871f, 0.102187f, 0.201892f, -0.130030f, -0.100728f, -0.065189f, -0.038529f, -0.251135f, -0.152066f, 0.232712f, -0.225617f, 0.284306f, -0.277112f, 0.141426f, 0.177598f, -0.077737f, 0.265409f, -0.205772f, -0.053490f, -0.173508f, -0.079296f, 0.141648f, 0.229348f, 0.231393f, -0.274270f, 0.193133f, 0.234756f, -0.030312f, -0.149093f, 0.113343f, -0.016730f, -0.058114f, 0.096599f, -0.247106f, -0.109829f, -0.256789f, -0.224789f, 0.296473f, 0.290333f, 0.254341f, -0.270221f, 0.109443f, -0.048638f, -0.115252f, 0.061394f, -0.042088f, 0.321228f, -0.104988f, 0.093663f, 0.256191f, 0.205690f, 0.308749f, 0.108913f, -0.088881f, -0.001786f, -0.073809f, -0.095419f, -0.151561f, -0.011537f, 0.099066f, -0.014723f, -0.086934f, 0.069377f, 0.028888f, 0.318247f, 0.178314f, 0.130101f, -0.168710f, 0.178755f, 0.014662f, -0.012747f, -0.232236f, 0.128738f, -0.187935f, 0.132958f, 0.083740f, -0.005442f, 0.006132f, -0.133420f, -0.168443f, 0.307000f, -0.144604f, -0.260520f, -0.116696f, -0.205422f, -0.171292f, 0.049222f, 0.010371f, -0.198716f, 0.209490f, -0.034975f, -0.183998f, 0.273414f, 0.305128f, 0.016054f, 0.251944f, 0.226988f, -0.314574f, 0.123395f, -0.054012f, 0.034515f, -0.224094f, -0.206354f, -0.262481f, -0.080778f, 0.061159f, -0.094935f, 0.009963f, 0.141308f, -0.209346f, 0.190035f, -0.158820f, 0.002333f, -0.181377f, 0.258030f, -0.112094f, -0.188114f, 0.244596f, -0.096039f, 0.309946f, -0.100472f, 0.082674f, 0.294057f, 0.230212f, -0.140836f, -0.261264f, 0.083291f, 0.145434f, 0.094577f, -0.216842f, 0.207527f, 0.245648f, 0.098365f, 0.196229f, 0.240771f, -0.184574f, 0.098899f, -0.159336f, 0.182856f, -0.000360f, 0.197508f, -0.025057f, 0.185548f, 0.174338f, -0.151993f, -0.087823f, 0.136699f, -0.175225f, 0.261850f, 0.164552f, -0.289116f, 0.137676f, 0.131289f, 0.278247f, 0.314790f, 0.063959f, -0.208151f, -0.141259f, -0.268929f, -0.121255f, 0.027071f, 0.047351f, -0.115365f, -0.004282f, -0.174807f, 0.016498f, -0.256448f, 0.072509f, 0.253700f, -0.240141f, 0.235683f, -0.233671f, 0.110967f, -0.002910f, -0.303046f, 0.242491f, -0.249959f, -0.246790f, 0.187713f, -0.045108f, 0.137994f, 0.249796f, 0.302534f, 0.303131f, 0.282787f, -0.080622f, -0.010118f, 0.054785f, 0.069908f, -0.097505f, -0.011892f, 0.090116f, -0.026247f, 0.294847f, 0.233512f, 0.236737f, -0.147689f, -0.045155f, -0.168215f, 0.171214f, 0.067530f, -0.113486f, -0.198513f, 0.255596f, -0.069647f, -0.240664f, 0.075845f, -0.187527f, 0.239585f, -0.059603f, -0.034088f, 0.275685f, -0.026852f, 0.302903f, 0.134941f, 0.261363f, -0.276438f, 0.257434f, 0.218193f, -0.101554f, -0.161071f, -0.303334f, 0.286939f, 0.172961f, -0.262352f, -0.174798f, -0.173857f, 0.074892f, 0.148756f, 0.090314f, -0.182891f, 0.170562f, 0.273097f, -0.163237f, -0.264574f, 0.310465f, 0.289982f, 0.082073f, -0.204694f, 0.143309f, -0.233681f, 0.141197f, 0.136440f, -0.057457f, 0.094717f, 0.273127f, 0.201520f, -0.024024f, -0.306036f, 0.096951f, 0.201700f, 0.121148f, 0.082562f, 0.021956f, -0.049091f, -0.182486f, 0.216698f, 0.184195f, -0.100370f, -0.264532f, 0.329082f, 0.315537f, -0.168246f, 0.148217f, -0.160670f, 0.052263f, 0.157263f, -0.032305f, -0.065996f, -0.277614f, -0.098230f, -0.096007f, -0.246636f, 0.103260f, -0.008209f, -0.320300f, 0.233646f, -0.224681f, 0.308078f, -0.057436f, -0.045412f, 0.192150f, 0.038293f, -0.128533f, 0.036126f, 0.206182f, -0.048605f, -0.255180f, 0.004143f, 0.024448f, 0.064489f, 0.249108f, -0.078355f, 0.014322f, 0.153499f, -0.308681f, -0.128183f, 0.082077f, -0.222300f, -0.209618f, -0.307833f, 0.112721f, 0.139575f, -0.075945f, 0.266285f, -0.122358f, 0.290612f, 0.245727f, -0.182459f, 0.047974f, -0.291022f, 0.161818f, -0.157744f, -0.012483f, -0.153552f, -0.002528f, -0.042062f, -0.110933f, 0.028630f, 0.309721f, 0.181888f, -0.114673f, 0.166699f, 0.124816f, 0.149150f, -0.026734f, -0.080576f, 0.044061f, 0.117591f, -0.008166f, -0.115560f, 0.092165f, -0.334457f, 0.132684f, 0.197917f, 0.180143f, -0.080374f, -0.168110f, 0.034263f, 0.021174f, -0.114262f, 0.057521f, -0.125044f, -0.226767f, 0.132105f, 0.016648f, 0.169010f, 0.289031f, 0.337972f, -0.137102f, -0.144029f, 0.224079f, 0.307050f, -0.097951f, 0.054456f, 0.269184f, -0.024271f, 0.151145f, 0.070600f, -0.171985f, -0.204314f, -0.291849f, 0.122591f, 0.200718f, 0.103924f, 0.137070f, -0.004439f, 0.061629f, 0.304005f, -0.215252f, 0.262710f, 0.254856f, -0.019018f, 0.164286f, 0.259429f, 0.190155f, 0.307430f, -0.098348f, 0.181161f, 0.224327f, 0.159159f, -0.274671f, -0.049240f, -0.017702f, -0.315122f, -0.182781f, 0.174593f, 0.013067f, -0.231424f, 0.277241f, 0.029682f, -0.123880f, -0.114735f, 0.002262f, 0.084983f, -0.215830f, -0.271154f, -0.226505f, 0.092296f, -0.128559f, -0.290682f, -0.227293f, 0.124883f, 0.261827f, -0.045995f, -0.203285f, 0.093532f, -0.114969f, 0.148298f, 0.049557f, 0.175875f, 0.281885f, 0.067919f, 0.058076f, 0.021035f, 0.000095f, 0.115336f, 0.133496f, 0.269309f, 0.053305f, -0.291991f, 0.037544f, 0.089246f, 0.042345f, 0.254733f, -0.172218f, -0.178250f, -0.226206f, -0.077428f, -0.287321f, -0.282795f, 0.282400f, -0.191145f, -0.049244f, -0.097379f, 0.095448f, 0.296531f, 0.001094f, -0.062070f, 0.035858f, 0.055161f, -0.049540f, 0.025052f, -0.098134f, 0.052489f, 0.121290f, -0.228875f, 0.181030f, -0.112608f, 0.016095f, -0.244855f, 0.098127f, -0.109782f, -0.257544f, -0.282763f, 0.083553f, -0.182196f, -0.232729f, -0.306511f, 0.295950f, 0.184062f, 0.059801f, -0.056579f, 0.155728f, -0.306347f, 0.064572f, -0.236488f, -0.235829f, 0.062623f, 0.219787f, -0.297435f, 0.005928f, 0.249494f, -0.097223f, -0.232836f, 0.133385f, -0.299852f, 0.048703f, -0.053490f, 0.120094f, -0.219190f, -0.086068f, -0.105153f, -0.234149f, 0.170280f, -0.212011f, 0.113412f, 0.279761f, 0.297357f, 0.132848f, 0.275224f, 0.299608f, -0.195811f, -0.239597f, -0.221170f, 0.105623f, 0.088037f, -0.116600f, -0.197280f, -0.127751f, 0.114546f, -0.276987f, 0.037604f, 0.023221f, 0.145668f, -0.200860f, 0.108107f, -0.279218f, -0.221663f, 0.287359f, -0.095539f, 0.082075f, 0.044650f, -0.251739f, -0.035182f, 0.204564f, -0.191981f, 0.027668f, 0.008236f, 0.160674f, -0.094665f, -0.188556f, -0.312737f, -0.037171f, 0.079425f, -0.176419f, 0.203125f, 0.003783f, 0.132451f, -0.166254f, 0.088299f, -0.005057f, 0.291975f, -0.292496f, -0.030427f, 0.294031f, -0.204465f, -0.314146f, -0.222542f, -0.147167f, -0.238943f, 0.311927f, 0.072018f, -0.246822f, -0.252578f, 0.227323f, -0.066670f, -0.159235f, -0.194997f, 0.033834f, 0.167128f, -0.149376f, -0.175375f, -0.117743f, 0.126018f, 0.240148f, 0.164958f, 0.029139f, -0.159035f, -0.105121f, 0.016355f, 0.122506f, 0.170030f, -0.297376f, 0.031477f, 0.270069f, -0.069375f, -0.067139f, 0.150924f, 0.327339f, -0.065794f, -0.280354f, -0.182785f, 0.157925f, -0.169048f, -0.233415f, 0.127742f, -0.047045f, 0.017730f, -0.240214f, 0.244384f, -0.016036f, 0.158154f, 0.289219f, 0.239427f, -0.163035f, -0.059406f, 0.211660f, 0.113874f, 0.199260f, 0.330300f, -0.024169f, 0.274906f, 0.121213f, -0.040165f, 0.112488f, 0.184993f, -0.004484f, -0.042300f, -0.093151f, -0.028114f, 0.022403f, 0.301257f, -0.173672f, -0.047654f, -0.057830f, -0.073188f, -0.085393f, 0.121534f, -0.278274f, 0.174380f, -0.214349f, -0.020914f, 0.007895f, 0.109955f, 0.249750f, 0.157373f, 0.231283f, 0.135177f, 0.044872f, 0.154030f, -0.016812f, 0.292606f, -0.140233f, -0.038053f, 0.241133f, 0.290042f, -0.214966f, -0.139594f, 0.266153f, 0.045100f, -0.048448f, -0.168163f, -0.096507f, 0.074094f, -0.165433f, -0.210789f, 0.295888f, -0.192657f, -0.170763f, -0.204493f, 0.279976f, 0.087679f, 0.113278f, -0.172117f, 0.238932f, 0.074388f, 0.085873f, 0.192577f, 0.154580f, -0.217592f, 0.154826f, 0.002074f, -0.033271f, -0.290264f, -0.064599f, 0.157521f, -0.107695f, -0.167062f, 0.106794f, -0.113593f, 0.061238f, -0.109672f, 0.313527f, 0.072562f, -0.047688f, 0.147161f, 0.053185f, 0.146888f, -0.222669f, 0.204072f, 0.083753f, -0.208427f, -0.186569f, 0.261055f, 0.228535f, 0.231799f, 0.196493f, 0.124519f, -0.106101f, -0.019336f, 0.311916f, 0.232978f, 0.051940f, -0.284113f, -0.113774f, 0.197743f, -0.204416f, -0.291508f, -0.049444f, -0.094007f, -0.071354f, 0.086925f, -0.137641f, 0.029635f, 0.139018f, 0.013278f, 0.143149f, -0.069869f, 0.308412f, -0.049952f, 0.215128f, 0.266853f, 0.191405f, 0.002088f, -0.150167f, 0.079505f, 0.080817f, -0.134253f, -0.110366f, -0.176271f, 0.019715f, 0.069405f, -0.190895f, -0.168567f, -0.178906f, -0.294606f, -0.215085f, 0.118290f, -0.248880f, 0.067565f, -0.256645f, -0.211970f, 0.029437f, 0.079347f, 0.272585f, -0.130694f, -0.058588f, -0.290318f, -0.078055f, 0.122689f, -0.028559f, 0.095030f, 0.061142f, -0.164852f, -0.013329f, -0.153364f, 0.058034f, -0.319202f, 0.166120f, 0.154667f, 0.006195f, -0.197338f, -0.135085f, -0.055129f, -0.140581f, 0.337091f, -0.049557f, 0.281301f, 0.077536f, -0.108620f, -0.080189f, 0.099375f, -0.146054f, -0.310992f, 0.158302f, 0.295092f, -0.202002f, 0.259755f, -0.009829f, 0.042451f, 0.304498f, -0.240844f, 0.000186f, -0.216044f, -0.289083f, 0.352150f, 0.094118f, -0.149554f, -0.103317f, -0.095790f, 0.314295f, 0.139900f, 0.264096f, 0.016553f, 0.142520f, 0.285945f, -0.163611f, -0.198830f, -0.005214f, 0.208253f, -0.085751f, -0.235895f, -0.085005f, 0.025726f, 0.212903f, 0.244356f, -0.017970f, -0.186373f, 0.289923f, 0.164678f, 0.305270f, -0.044442f, -0.280622f, 0.276679f, 0.196642f, 0.111267f, -0.251345f, -0.103266f, 0.201805f, -0.113558f, -0.041027f, -0.065358f, -0.096613f, 0.297550f, 0.213404f, 0.243648f, 0.227699f, -0.072867f, -0.078054f, -0.187004f, -0.117740f, -0.036660f, -0.077976f, -0.300367f, -0.138885f, -0.227315f, -0.121970f, 0.018354f, -0.003437f, 0.113452f, -0.063500f, 0.291584f, 0.101341f, -0.097318f, -0.050731f, 0.114463f, -0.023339f, -0.073754f, 0.201984f, 0.144196f, 0.071625f, 0.170109f, -0.049980f, -0.078674f, -0.112291f, -0.156964f, -0.250928f, 0.249656f, 0.256009f, -0.021450f, -0.095265f, 0.030081f, 0.173047f, 0.253090f, 0.175317f, 0.095001f, -0.005688f, 0.101522f, 0.155453f, -0.012734f, -0.215182f, 0.188824f, -0.250039f, -0.222908f, -0.008773f, -0.240006f, 0.185140f, -0.245897f, -0.293481f, -0.151109f, 0.220376f, 0.111236f, -0.003001f };
static const float room_occupancy_forecast_layer_9_biases[30] = { -0.002410f, 0.000000f, -0.003614f, 0.047129f, -0.034958f, -0.011324f, 0.000000f, 0.000000f, 0.009858f, -0.012159f, 0.000000f, -0.047945f, -0.037451f, 0.004639f, -0.045330f, 0.015599f, 0.000000f, 0.000000f, -0.062839f, -0.009699f, -0.103479f, -0.008218f, 0.038624f, 0.006412f, 0.043244f, -0.082335f, -0.038179f, 0.000000f, 0.000000f, -0.002975f };
static const float room_occupancy_forecast_layer_9_weights[900] = { 0.282864f, 0.050411f, 0.240852f, 0.020803f, -0.036691f, 0.192836f, 0.055276f, 0.107583f, 0.115172f, -0.197457f, -0.048426f, -0.200639f, -0.161825f, -0.147298f, -0.217620f, -0.045171f, 0.143979f, 0.261867f, -0.013192f, -0.022680f, -0.314042f, -0.307717f, 0.161627f, 0.114497f, -0.249100f, -0.011293f, -0.238696f, 0.133218f, 0.135674f, -0.242559f, -0.169996f, -0.285859f, -0.084341f, -0.167274f, 0.035533f, -0.217569f, -0.226957f, -0.029116f, 0.149389f, 0.218701f, 0.072757f, 0.324120f, 0.236251f, -0.294261f, 0.233532f, 0.228662f, -0.301945f, 0.053261f, 0.082421f, -0.311006f, -0.008584f, -0.102400f, 0.283957f, 0.157570f, 0.192016f, 0.172416f, 0.094538f, -0.293855f, -0.245574f, 0.229299f, 0.080495f, 0.240776f, -0.042077f, 0.111623f, 0.161995f, -0.086778f, 0.150271f, 0.133172f, 0.030503f, 0.237007f, -0.281193f, 0.122233f, -0.292822f, 0.110404f, -0.205557f, -0.070509f, -0.031630f, 0.199507f, -0.073008f, -0.007059f, -0.176437f, 0.042257f, -0.045985f, -0.095456f, 0.075068f, 0.081107f, -0.154875f, -0.098218f, 0.110448f, 0.092367f, 0.220884f, -0.174149f, -0.135255f, 0.197417f, -0.106336f, -0.087927f, 0.121143f, -0.022517f, 0.148783f, -0.147265f, -0.059044f, 0.030037f, 0.044302f, -0.307995f, -0.212907f, -0.142340f, 0.276326f, -0.118953f, 0.210834f, -0.107822f, -0.091538f, 0.050628f, 0.282563f, 0.237976f, -0.099024f, -0.002337f, 0.006388f, -0.079942f, -0.236106f, -0.260968f, 0.239148f, 0.124445f, -0.194034f, 0.031655f, -0.108419f, 0.097156f, -0.256988f, -0.278787f, 0.203418f, 0.245586f, -0.059221f, -0.192181f, -0.248887f, 0.279271f, 0.021690f, -0.005169f, -0.123012f, 0.240550f, -0.029745f, 0.164277f, -0.131386f, 0.307026f, -0.164070f, -0.129871f, -0.312754f, 0.232320f, 0.091353f, -0.205311f, -0.110321f, -0.143689f, 0.213631f, -0.313486f, 0.275578f, -0.010965f, 0.174662f, -0.199539f, -0.076724f, -0.062797f, -0.203598f, -0.209058f, -0.093839f, -0.026847f, -0.149274f, 0.281676f, 0.276888f, 0.002644f, 0.012392f, -0.129628f, 0.319815f, 0.297509f, 0.030474f, 0.350562f, 0.187230f, 0.058477f, 0.304684f, -0.249217f, -0.251080f, 0.063340f, -0.013183f, 0.070015f, 0.148053f, 0.169613f, -0.071152f, -0.099454f, -0.240007f, 0.058222f, 0.008197f, 0.296163f, 0.272561f, -0.218093f, 0.086466f, 0.179314f, 0.072626f, 0.112264f, 0.059074f, -0.250486f, 0.125418f, 0.157341f, 0.179551f, 0.120578f, -0.132477f, -0.114667f, -0.307919f, 0.135320f, -0.141041f, 0.070739f, -0.169390f, -0.087701f, -0.045801f, 0.229422f, -0.314802f, 0.192071f, 0.007446f, 0.011513f, -0.131605f, -0.175174f, 0.281174f, 0.139001f, -0.261248f, 0.245664f, -0.236572f, 0.313342f, 0.031079f, 0.118757f, 0.257569f, 0.079941f, -0.275777f, -0.259931f, 0.141360f, 0.156261f, 0.082119f, 0.225714f, 0.099347f, -0.212006f, -0.228033f, 0.241138f, 0.164110f, -0.244731f, -0.170959f, 0.049652f, -0.308912f, -0.225850f, 0.210572f, 0.337390f, -0.000938f, 0.125509f, 0.001076f, -0.211064f, 0.171148f, 0.253521f, -0.006306f, -0.257561f, -0.178679f, -0.033513f, 0.198109f, 0.013434f, -0.276880f, -0.182740f, 0.233511f, 0.016230f, 0.031686f, -0.165790f, 0.293244f, 0.013964f, 0.036567f, -0.149277f, 0.027088f, -0.304883f, 0.114469f, -0.333783f, -0.225121f, 0.247992f, 0.135439f, 0.220897f, 0.191101f, 0.220619f, 0.017930f, 0.049382f, 0.068264f, -0.291323f, -0.006682f, 0.134207f, 0.191169f, 0.168570f, -0.305475f, -0.226067f, 0.242113f, 0.244160f, -0.084524f, 0.150055f, -0.222273f, 0.276478f, -0.311836f, -0.032544f, 0.286988f, -0.073548f, 0.208120f, -0.112840f, -0.300193f, -0.197015f, 0.292875f, 0.052522f, 0.285916f, -0.159047f, -0.029330f, 0.290325f, -0.114276f, -0.184102f, -0.201255f, -0.164369f, -0.075955f, -0.242412f, -0.075463f, 0.285511f, 0.135994f, -0.123507f, -0.051503f, 0.127725f, -0.011323f, -0.101383f, 0.074421f, 0.316708f, -0.126036f, 0.056170f, -0.203546f, 0.310351f, 0.221825f, -0.086282f, 0.125520f, 0.166847f, -0.122141f, -0.003798f, -0.125270f, 0.095244f, 0.251170f, -0.177353f, 0.097037f, 0.077468f, 0.303144f, 0.311847f, -0.304840f, 0.324596f, -0.146005f, -0.072782f, -0.256377f, 0.284125f, -0.068408f, -0.104459f, 0.305151f, 0.154292f, 0.227169f, 0.300611f, 0.073863f, -0.071524f, -0.016814f, 0.215616f, -0.323720f, 0.181223f, -0.311395f, -0.145431f, 0.213334f, -0.031022f, -0.263172f, -0.013498f, -0.066532f, -0.091193f, -0.050947f, 0.182002f, -0.246688f, -0.113626f, -0.215662f, -0.106223f, -0.218378f, -0.118934f, -0.146578f, -0.168350f, 0.021029f, -0.119575f, 0.304506f, -0.067862f, 0.003649f, 0.204657f, 0.203428f, -0.145039f, 0.033016f, 0.137539f, -0.256711f, 0.315083f, 0.288702f, -0.186763f, 0.209662f, -0.137853f, 0.223226f, -0.301359f, -0.182222f, 0.088441f, 0.147960f, -0.082901f, -0.243476f, -0.078747f, -0.017833f, 0.252830f, -0.226776f, -0.121444f, -0.054829f, 0.262918f, 0.178429f, 0.037924f, 0.199163f, -0.235285f, -0.000751f, 0.309509f, 0.122640f, 0.097508f, 0.100447f, -0.293669f, 0.257794f, 0.065574f, -0.261073f, 0.158566f, 0.163369f, 0.300128f, -0.059325f, 0.188430f, 0.086856f, 0.185606f, 0.055674f, 0.102754f, -0.038489f, 0.064710f, -0.222875f, -0.003376f, 0.227998f, -0.065282f, -0.289362f, -0.214103f, -0.021898f, 0.076084f, 0.236007f, 0.183190f, -0.056599f, 0.038640f, -0.058035f, 0.026533f, 0.186967f, -0.044627f, 0.176123f, 0.123736f, -0.030599f, -0.279513f, 0.217581f, -0.172738f, -0.142618f, 0.277555f, 0.035300f, 0.294432f, -0.208885f, 0.023750f, -0.078349f, 0.021404f, -0.140887f, 0.076200f, 0.171605f, 0.205150f, -0.119337f, 0.075147f, -0.196742f, 0.231880f, 0.034578f, -0.010454f, 0.031825f, -0.103971f, 0.098326f, 0.054089f, 0.293226f, -0.083965f, 0.052675f, 0.232235f, -0.268477f, 0.266263f, -0.040532f, 0.052204f, -0.142615f, -0.048443f, 0.228335f, 0.066797f, -0.157407f, 0.276966f, -0.096211f, 0.147632f, 0.140315f, 0.185177f, 0.040130f, 0.124530f, -0.275958f, -0.080378f, -0.176382f, 0.172332f, -0.011594f, -0.005789f, -0.099820f, -0.292201f, -0.017133f, 0.167916f, 0.087030f, 0.048224f, -0.034123f, -0.309012f, 0.198762f, 0.104352f, -0.061748f, -0.117254f, -0.255459f, -0.194553f, -0.237180f, -0.048765f, -0.135395f, 0.139193f, 0.021275f, 0.120878f, 0.015307f, -0.281253f, -0.252241f, 0.275308f, 0.061453f, 0.274799f, -0.304525f, -0.156128f, -0.042589f, -0.238212f, -0.297917f, -0.213271f, -0.265099f, 0.307490f, 0.005668f, -0.212330f, 0.003166f, 0.133817f, 0.050113f, 0.207479f, -0.156129f, 0.010726f, -0.273219f, -0.077922f, -0.132259f, 0.098547f, -0.116450f, 0.130823f, -0.206327f, 0.191808f, 0.173044f, -0.103673f, -0.164476f, -0.282102f, -0.251267f, 0.026609f, 0.172120f, 0.084841f, -0.141709f, -0.229673f, 0.116492f, 0.124805f, -0.126023f, -0.165451f, -0.188349f, 0.238482f, 0.108469f, 0.067628f, -0.113918f, -0.182027f, 0.090149f, -0.253035f, 0.177616f, 0.003831f, -0.302386f, -0.031462f, 0.133129f, 0.064070f, -0.247946f, 0.328669f, -0.053923f, -0.257230f, 0.242876f, -0.113495f, 0.155342f, -0.249858f, 0.134411f, 0.096530f, -0.295768f, 0.062503f, 0.167254f, 0.261993f, 0.162472f, 0.081268f, 0.116649f, 0.165297f, 0.186093f, -0.120824f, -0.047229f, -0.286751f, 0.172464f, 0.072026f, -0.011096f, 0.328938f, -0.265889f, 0.275503f, -0.209348f, 0.001372f, 0.154141f, 0.013402f, 0.229444f, 0.089542f, -0.134641f, -0.147706f, 0.101002f, 0.133855f, -0.315077f, -0.272485f, 0.103810f, -0.002055f, -0.184727f, -0.233781f, 0.173211f, 0.125748f, -0.115574f, -0.228288f, 0.105874f, 0.235606f, 0.272740f, 0.247593f, 0.194595f, -0.065804f, -0.203330f, 0.096324f, -0.161523f, -0.040895f, -0.085984f, -0.190188f, 0.279179f, -0.136959f, -0.275345f, 0.316961f, 0.285518f, 0.193002f, -0.239547f, -0.182108f, 0.036145f, -0.179508f, -0.029947f, 0.198864f, -0.349952f, 0.190064f, 0.050864f, -0.175783f, -0.023054f, 0.118636f, 0.032544f, -0.252594f, -0.192334f, 0.107190f, 0.167173f, 0.181899f, 0.074431f, -0.186455f, -0.170423f, 0.168401f, -0.028039f, 0.277449f, 0.050052f, -0.093603f, -0.247269f, -0.046858f, 0.140029f, 0.086764f, 0.078496f, -0.059547f, 0.208878f, -0.141643f, 0.084252f, 0.161056f, -0.209984f, -0.013389f, 0.093453f, 0.033954f, 0.313902f, -0.287409f, -0.235509f, 0.088272f, -0.236845f, 0.038608f, 0.051729f, -0.237521f, -0.234537f, 0.281366f, -0.045728f, 0.095870f, -0.083715f, -0.211188f, 0.202452f, 0.018039f, -0.245514f, -0.328788f, -0.202437f, -0.199858f, -0.143306f, -0.062591f, -0.082011f, -0.313649f, 0.119531f, -0.122919f, 0.248663f, 0.027271f, -0.172229f, -0.135510f, 0.324539f, -0.118080f, 0.087798f, -0.277479f, 0.097739f, 0.109821f, -0.266899f, -0.181323f, -0.174364f, -0.244404f, -0.213291f, 0.123343f, -0.271901f, 0.255807f, -0.090437f, -0.114663f, 0.207557f, 0.286278f, -0.053626f, -0.257142f, 0.146599f, -0.251553f, 0.052347f, -0.080361f, -0.190445f, 0.027887f, 0.227620f, 0.312329f, -0.248142f, -0.183882f, -0.318110f, 0.322405f, 0.280594f, 0.299906f, -0.039164f, 0.245706f, -0.078258f, -0.244605f, -0.210391f, 0.172015f, 0.131157f, -0.197444f, 0.122151f, -0.019589f, 0.053752f, 0.053781f, 0.236211f, 0.195901f, -0.078623f, 0.197622f, -0.276985f, -0.276388f, -0.032923f, 0.011718f, -0.304604f, 0.178382f, 0.084271f, -0.196011f, -0.094944f, 0.144624f, -0.233012f, -0.097691f, -0.082723f, 0.195574f, 0.061077f, 0.143405f, 0.089661f, 0.176430f, 0.063565f, -0.173607f, 0.208674f, 0.100558f, 0.008144f, -0.305951f, 0.089126f, 0.304451f, -0.089130f, -0.310296f, 0.193601f, 0.065363f, -0.139899f, 0.243593f, 0.127613f, 0.246856f, 0.119350f, 0.138443f, -0.041818f, 0.090739f, 0.199492f, -0.209664f, 0.219583f, 0.118236f, -0.269618f, -0.215020f, 0.178632f, 0.231884f, 0.034940f, -0.270402f, 0.284179f, -0.148242f, 0.005462f, -0.173359f, 0.123871f, -0.231926f, 0.173540f, -0.307973f, 0.188900f, 0.077690f, 0.232614f, 0.259691f, -0.018519f, -0.061104f, -0.000098f, -0.070735f, 0.223124f, -0.316388f, -0.075161f, -0.121015f, -0.027702f, -0.262415f, 0.205702f, 0.124833f, -0.266304f, 0.295885f, -0.138786f, -0.116797f, -0.130065f, 0.122103f, -0.275180f, 0.132792f, 0.187386f, -0.136132f, -0.079945f, -0.114672f, 0.120815f, 0.080324f, -0.231241f, 0.259199f, -0.184893f, 0.194850f, 0.197424f, 0.062295f, 0.162265f, -0.049434f, 0.171689f, 0.191001f, -0.164509f, -0.051105f, -0.169786f, 0.043346f, 0.277351f, -0.142148f, 0.301113f, -0.129505f, -0.040796f, -0.001694f, -0.263935f, -0.200815f, -0.002681f, -0.315391f, -0.008984f, -0.126707f, -0.190969f, -0.005351f, -0.282156f, -0.035936f, 0.115447f, 0.165175f, -0.289162f, 0.178129f, -0.046478f, -0.073584f, 0.095173f, -0.017899f, -0.128528f, -0.147561f, 0.227957f, -0.082224f, 0.209105f, 0.222975f, -0.189220f, -0.178936f, -0.291802f, 0.087853f, 0.093237f, -0.078556f };
static const float room_occupancy_forecast_layer_10_biases[30] = { 0.028124f, -0.056554f, 0.000000f, 0.035368f, -0.017985f, 0.049440f, 0.000000f, 0.042445f, -0.007981f, -0.039479f, 0.000000f, -0.018981f, 0.000000f, 0.000000f, 0.000365f, 0.034248f, 0.000000f, 0.000000f, 0.000000f, 0.017492f, 0.004769f, 0.021539f, 0.030930f, -0.106508f, 0.011483f, 0.029905f, -0.045210f, -0.051264f, -0.048924f, -0.022679f };
