
#include <eml_net.h>
static const float room_occupancy_forecast_layer_0_biases[30] = { -0.012968f, -0.019866f, 0.000000f, 0.084290f, 0.000000f, -0.078186f, -0.083292f, -0.008260f, 0.089723f, -0.035143f, 0.047513f, -0.067796f, 0.000000f, 0.000000f, 0.000000f, 0.054268f, 0.041587f, -0.068142f, 0.000000f, -0.046526f, 0.000000f, -0.020738f, -0.011548f, 0.000000f, -0.021181f, -0.000759f, 0.103011f, 0.030049f, 0.038446f, -0.073889f };
static const float room_occupancy_forecast_layer_0_weights[90] = { -0.237950f, -0.389498f, -0.312812f, -0.086519f, -0.128674f, 0.027208f, -0.073309f, 0.010402f, 0.455138f, -0.401555f, 0.246999f, 0.235749f, 0.180946f, 0.025398f, -0.408215f, 0.203252f, 0.335798f, 0.087103f, -0.261211f, 0.357887f, 0.105868f, -0.058675f, -0.359535f, -0.030939f, -0.242202f, 0.323761f, 0.494154f, 0.338730f, 0.153027f, 0.258960f, -0.401152f, 0.317311f, -0.089852f, -0.251608f, -0.274683f, 0.267136f, 0.137841f, 0.356164f, -0.293408f, 0.317980f, -0.022580f, 0.215918f, -0.037864f, -0.149211f, -0.266300f, 0.052520f, 0.384638f, 0.157750f, -0.046862f, 0.094984f, -0.339976f, 0.092554f, -0.138922f, -0.173969f, 0.089482f, 0.256717f, -0.185118f, -0.234179f, 0.052324f, 0.283461f, 0.249082f, 0.424180f, -0.145404f, 0.426632f, -0.325234f, -0.015712f, 0.073677f, 0.265212f, 0.303593f, -0.233246f, 0.394364f, -0.277585f, -0.226955f, -0.413609f, -0.023415f, 0.131554f, 0.279046f, -0.030012f, -0.392265f, -0.403194f, -0.355690f, -0.346251f, 0.350088f, -0.267661f, -0.207722f, 0.191034f, 0.383272f, 0.363662f, 0.403148f, -0.145685f };
static const float room_occupancy_forecast_layer_1_biases[30] = { -0.013663f, 0.000000f, 0.017016f, 0.000000f, -0.035283f, 0.000000f, 0.049612f, 0.000000f, 0.000000f, 0.020143f, 0.019036f, 0.119520f, 0.004939f, -0.022977f, -0.047859f, -0.065089f, 0.048680f, 0.042375f, 0.000000f, 0.000000f, 0.001877f, -0.047323f, -0.018917f, -0.051959f, -0.041160f, 0.000000f, -0.067708f, 0.085757f, -0.018161f, 0.089234f };
static const float room_occupancy_forecast_layer_1_weights[900] = { 0.126384f, 0.050974f, 0.064592f, -0.009158f, -0.254952f, -0.070103f, -0.260710f, 0.118264f, -0.306560f, 0.083340f, 0.364144f, 0.069552f, 0.186684f, -0.277967f, -0.029678f, -0.155148f, 0.142582f, 0.009989f, -0.211032f, -0.009921f, 0.194125f, 0.144505f, -0.297904f, -0.324974f, -0.112839f, 0.247048f, -0.304705f, -0.032632f, -0.008117f, 0.308261f, 0.266247f, 0.227486f, -0.214776f, -0.043628f, 0.147947f, -0.089993f, -0.054210f, 0.275337f, -0.034901f, 0.272894f, 0.284234f, 0.274887f, -0.036407f, -0.151969f, -0.242978f, 0.134656f, -0.070338f, 0.146997f, 0.297933f, -0.139958f, 0.046814f, 0.336544f, 0.238531f, 0.188118f, 0.129968f, -0.279518f, -0.173667f, -0.082929f, 0.096107f, -0.078932f, 0.020789f, 0.274498f, -0.191844f, -0.087829f, -0.017553f, 0.304930f, 0.299144f, 0.005733f, 0.286968f, -0.204622f, 0.244363f, -0.033079f, 0.213626f, 0.007290f, 0.110707f, -0.091493f, -0.091878f, -0.293977f, 0.264849f, 0.243453f, -0.134602f, 0.196064f, 0.211289f, 0.157132f, 0.260650f, 0.242617f, 0.220961f, 0.256912f, -0.035597f, -0.023650f, 0.017910f, -0.099741f, -0.193214f, -0.102952f, 0.341245f, 0.051201f, 0.288665f, 0.027612f, -0.279929f, 0.195795f, -0.105458f, 0.236576f, 0.213701f, -0.285804f, -0.107120f, 0.250349f, 0.314233f, 0.254975f, -0.134668f, -0.124653f, 0.012742f, 0.204714f, -0.240309f, -0.245229f, -0.167346f, 0.069127f, 0.129193f, -0.083142f, 0.168394f, 0.365768f, 0.313115f, 0.090972f, 0.175255f, 0.232230f, -0.176469f, 0.181031f, -0.113360f, 0.161798f, -0.172865f, 0.216290f, -0.143808f, 0.008279f, 0.263802f, 0.120059f, 0.256773f, 0.179952f, -0.039576f, -0.089815f, 0.129587f, 0.061778f, 0.095338f, 0.160987f, 0.037257f, 0.240400f, 0.091102f, -0.191994f, 0.287684f, 0.020670f, 0.275674f, -0.028470f, 0.023092f, -0.262237f, -0.168683f, 0.044294f, 0.209027f, 0.073620f, 0.178676f, -0.199060f, -0.272966f, 0.170588f, -0.103528f, -0.111826f, 0.160814f, -0.074841f, 0.226006f, 0.079040f, -0.218459f, 0.151988f, -0.247639f, -0.307045f, 0.174966f, -0.044061f, 0.134772f, 0.039465f, 0.339030f, 0.097059f, 0.272547f, 0.033854f, 0.016588f, -0.019499f, -0.278861f, -0.188383f, 0.029409f, 0.138893f, -0.248661f, -0.180872f, 0.010587f, 0.093166f, 0.217427f, -0.239510f, -0.109333f, -0.030899f, -0.145468f, 0.173843f, -0.282155f, 0.089851f, -0.141643f, -0.049722f, -0.110552f, 0.096326f, -0.346699f, 0.339159f, -0.205530f, 0.054351f, -0.061900f, 0.053150f, 0.097408f, -0.203452f, -0.161414f, 0.190932f, 0.165383f, 0.011475f, -0.004864f, -0.228466f, -0.023629f, 0.150980f, -0.113097f, -0.112126f, -0.244483f, 0.150570f, 0.067620f, 0.084676f, 0.075618f, 0.094122f, 0.254625f, 0.050146f, 0.134264f, -0.116349f, -0.098028f, -0.108596f, 0.138575f, 0.341969f, 0.072127f, 0.220755f, 0.154246f, -0.205992f, -0.288610f, 0.223319f, -0.037680f, 0.060718f, 0.222944f, 0.203040f, -0.243830f, 0.027645f, -0.150122f, -0.183695f, -0.032712f, 0.294389f, 0.147889f, -0.282233f, 0.189445f, 0.153222f, -0.260064f, -0.113981f, 0.257797f, 0.072785f, 0.290622f, 0.152004f, -0.167380f, -0.080347f, -0.128624f, -0.079321f, -0.239636f, 0.221267f, -0.112820f, 0.042268f, 0.045359f, 0.234744f, -0.248950f, 0.026171f, -0.067338f, 0.012816f, 0.290407f, -0.106242f, 0.086176f, -0.018393f, -0.107953f, -0.067906f, 0.037741f, -0.016435f, 0.142678f, -0.230581f, -0.084159f, 0.263060f, 0.083222f, 0.264245f, -0.137779f, -0.198145f, -0.085593f, -0.041223f, 0.092100f, -0.272194f, -0.113130f, 0.209408f, 0.040019f, 0.313892f, 0.183690f, -0.011516f, 0.049473f, -0.287874f, -0.250107f, -0.033374f, 0.346166f, -0.289614f, -0.114764f, -0.088367f, -0.025571f, -0.187002f, -0.039291f, -0.258410f, 0.264316f, -0.205657f, 0.260595f, 0.267685f, 0.216718f, -0.093318f, 0.333935f, 0.030187f, -0.273312f, 0.251124f, 0.106108f, -0.296306f, 0.051629f, -0.320426f, 0.092442f, 0.048875f, -0.007991f, 0.286430f, -0.013095f, 0.054688f, 0.042444f, 0.145792f, -0.007168f, -0.287022f, -0.298353f, 0.113481f, -0.154440f, -0.162603f, -0.172796f, 0.283236f, -0.296380f, -0.179141f, -0.050809f, 0.028906f, -0.139141f, -0.209604f, 0.237647f, 0.045988f, -0.188744f, 0.099006f, -0.120486f, 0.276014f, -0.240824f, 0.044294f, 0.274742f, 0.088700f, 0.049043f, -0.325767f, -0.090075f, -0.195350f, -0.289665f, 0.192740f, -0.070361f, 0.275634f, 0.091056f, -0.023513f, 0.063273f, 0.088244f, 0.104729f, 0.240110f, 0.111946f, -0.257159f, -0.161129f, 0.294764f, 0.095290f, -0.198723f, 0.163567f, -0.223489f, -0.125282f, 0.170441f, 0.053756f, -0.117510f, 0.163125f, -0.007752f, -0.196705f, 0.165068f, 0.108194f, 0.299851f, -0.278675f, 0.067889f, 0.197070f, 0.188565f, -0.165933f, -0.184751f, -0.295347f, 0.240847f, -0.268790f, 0.267013f, 0.065908f, 0.089951f, 0.295938f, -0.118985f, -0.046147f, 0.119516f, -0.136432f, 0.118656f, 0.308673f, 0.113671f, 0.173525f, 0.140003f, -0.230188f, -0.285588f, 0.254013f, -0.072219f, 0.267778f, -0.092518f, -0.075988f, 0.119950f, 0.026926f, 0.193161f, -0.313052f, -0.187170f, 0.096742f, 0.294959f, -0.304170f, -0.017527f, -0.022676f, -0.069824f, -0.183666f, -0.254796f, 0.177764f, -0.044537f, -0.236784f, 0.248499f, 0.310298f, -0.081893f, 0.070739f, 0.150222f, -0.089440f, 0.256542f, -0.160266f, -0.112410f, -0.074049f, -0.263041f, 0.138284f, -0.303281f, 0.151049f, -0.051836f, -0.115137f, 0.181680f, -0.299861f, -0.282482f, -0.193221f, -0.036161f, 0.105315f, -0.075812f, 0.181746f, -0.056947f, -0.075151f, -0.203440f, 0.024565f, -0.054948f, -0.107998f, -0.245057f, 0.276718f, 0.229235f, 0.061835f, 0.107950f, -0.207940f, -0.008831f, 0.176518f, -0.207369f, -0.162355f, -0.173681f, -0.226752f, -0.199172f, -0.131804f, -0.111625f, -0.160851f, 0.113776f, 0.272235f, 0.066185f, 0.339589f, 0.004071f, -0.134305f, -0.035535f, -0.167889f, 0.178688f, 0.093067f, -0.302623f, 0.006289f, -0.032259f, -0.019276f, -0.009100f, 0.271281f, -0.011400f, 0.260087f, 0.071476f, -0.184644f, -0.273528f, -0.053605f, -0.085873f, -0.106209f, 0.016985f, -0.041376f, 0.063516f, 0.008602f, 0.085964f, 0.045497f, -0.118742f, 0.304243f, -0.092979f, 0.056463f, 0.188465f, -0.069974f, -0.087211f, -0.139847f, -0.174137f, 0.062107f, -0.245736f, -0.171660f, 0.117088f, -0.178181f, 0.280946f, 0.158608f, -0.021450f, -0.004056f, 0.065869f, 0.118515f, -0.078421f, -0.052215f, 0.153236f, 0.081268f, -0.069261f, 0.072135f, -0.282229f, 0.289665f, 0.003074f, -0.024642f, -0.211146f, -0.111364f, -0.020298f, -0.096767f, 0.214912f, -0.055117f, -0.274894f, -0.073386f, -0.044665f, 0.262967f, -0.056261f, -0.080982f, 0.073189f, 0.026094f, -0.223404f, -0.044475f, 0.240778f, 0.177416f, 0.270365f, -0.181034f, -0.300198f, -0.302855f, 0.157502f, 0.238206f, -0.248994f, -0.071371f, 0.273238f, 0.191303f, -0.203662f, -0.173410f, -0.241780f, -0.025777f, -0.183565f, 0.288504f, -0.004592f, -0.074246f, -0.125215f, -0.167192f, 0.163263f, 0.204224f, 0.114493f, 0.113740f, -0.167937f, -0.129455f, -0.217367f, 0.175213f, -0.027501f, -0.167614f, -0.129935f, 0.199133f, -0.200239f, -0.013407f, -0.064690f, -0.170591f, -0.186868f, 0.213218f, 0.077887f, 0.204650f, -0.172450f, -0.199253f, -0.308192f, 0.139656f, 0.136207f, -0.177819f, 0.055912f, 0.201547f, 0.148230f, 0.273206f, 0.260564f, -0.216770f, 0.150273f, -0.036046f, -0.200497f, -0.205983f, 0.131897f, -0.201245f, -0.140225f, 0.162507f, 0.046421f, -0.216120f, -0.310003f, -0.213256f, 0.045612f, 0.284591f, 0.073276f, -0.287919f, 0.254736f, 0.238695f, 0.038652f, -0.044671f, 0.227538f, 0.201973f, 0.217273f, -0.225105f, 0.313444f, 0.097189f, -0.228520f, -0.398706f, 0.213087f, -0.104565f, 0.085066f, 0.163768f, -0.234344f, -0.306246f, -0.062122f, -0.216479f, -0.141202f, 0.175588f, 0.215912f, 0.226245f, -0.213814f, -0.121398f, 0.161336f, 0.166759f, 0.144971f, -0.222470f, -0.279905f, 0.189817f, -0.200615f, 0.276383f, -0.102943f, 0.289861f, 0.017054f, -0.270023f, 0.047062f, -0.269211f, 0.221860f, 0.294526f, 0.064087f, -0.110393f, 0.006682f, -0.160329f, -0.058827f, 0.018391f, 0.027325f, -0.210055f, -0.213859f, -0.259349f, 0.092129f, 0.201749f, -0.230755f, -0.310567f, 0.245270f, 0.176337f, -0.036626f, -0.044738f, -0.291506f, -0.282207f, 0.063528f, -0.253177f, 0.300248f, -0.176966f, 0.264194f, -0.009834f, -0.169045f, -0.231847f, -0.058476f, 0.006755f, 0.217524f, 0.306224f, -0.008059f, -0.220920f, -0.312032f, -0.010980f, -0.229022f, -0.007861f, -0.241554f, 0.026044f, -0.181360f, 0.225948f, 0.314980f, 0.189635f, 0.076943f, -0.302102f, -0.240387f, 0.033187f, -0.043849f, 0.115751f, 0.284668f, -0.286753f, -0.024134f, 0.069493f, 0.114196f, 0.270427f, -0.100973f, -0.115824f, 0.184632f, -0.086215f, -0.166787f, -0.127123f, -0.346788f, -0.203387f, 0.123832f, 0.180778f, 0.141866f, 0.316475f, 0.108298f, 0.248527f, -0.065768f, 0.314780f, -0.198249f, -0.004380f, 0.031272f, -0.048083f, -0.089948f, 0.213584f, 0.131322f, 0.266309f, -0.120860f, 0.292538f, -0.382169f, 0.161415f, -0.140774f, -0.125260f, 0.224774f, 0.130165f, -0.214804f, 0.215929f, -0.059345f, -0.263391f, -0.139015f, 0.119053f, -0.008244f, -0.135609f, -0.252699f, 0.003942f, -0.277045f, 0.239639f, 0.065720f, -0.275103f, 0.145009f, 0.251515f, 0.299126f, -0.129181f, -0.164168f, 0.100383f, -0.193281f, 0.247913f, -0.237224f, 0.258121f, 0.173138f, -0.214080f, 0.143666f, 0.332290f, -0.091530f, 0.116494f, 0.179063f, 0.162630f, -0.185448f, -0.256186f, 0.240780f, 0.272533f, 0.349850f, 0.092909f, -0.102293f, 0.201183f, 0.342946f, -0.032974f, 0.059741f, 0.297759f, 0.188401f, -0.094368f, -0.132790f, 0.117947f, -0.129043f, -0.275886f, 0.016258f, 0.108939f, -0.211754f, -0.276933f, 0.113287f, -0.280178f, -0.089670f, 0.285210f, -0.124253f, 0.131725f, -0.067775f, -0.061887f, -0.019743f, -0.159171f, 0.233434f, 0.120807f, 0.013015f, -0.181026f, 0.072195f, 0.277467f, -0.215105f, 0.111980f, -0.071317f, -0.102937f, -0.078724f, 0.245203f, 0.241128f, -0.275121f, 0.257982f, 0.218950f, 0.121659f, -0.179848f, 0.310806f, 0.242790f, 0.196260f, -0.185261f, -0.243754f, 0.250051f, -0.238978f, 0.047527f, -0.019681f, 0.298329f, -0.031996f, 0.169740f, -0.262305f, 0.026150f, 0.355437f, 0.236307f, -0.121290f, -0.166969f, 0.019218f, -0.011623f, 0.115884f, -0.117295f, -0.140985f, -0.044128f, -0.173964f, -0.030871f, 0.163194f, -0.216332f, -0.097518f, -0.023023f, -0.007976f, 0.100931f, -0.084218f, -0.160637f, -0.021128f, 0.089395f, -0.048279f, 0.049483f, -0.232636f, -0.070816f, -0.217116f, -0.010927f, 0.089995f, -0.039293f, 0.035857f, 0.001260f, -0.187907f, 0.241093f, 0.027351f, -0.225045f, -0.308685f, -0.009757f, -0.019841f, -0.330036f, 0.196082f, 0.083406f, 0.073644f, -0.248321f, 0.071397f, 0.173475f, -0.027485f, 0.178061f, 0.195622f };
static const float room_occupancy_forecast_layer_2_biases[30] = { 0.000000f, -0.001360f, 0.032365f, 0.046803f, -0.023166f, 0.036254f, 0.012802f, 0.000000f, -0.013638f, 0.019640f, -0.079023f, -0.041743f, 0.046752f, 0.007576f, -0.001200f, 0.093722f, 0.047929f, 0.164764f, -0.020057f, 0.000000f, 0.000000f, 0.000000f, -0.033413f, -0.066559f, 0.004229f, -0.011320f, -0.009293f, -0.012769f, 0.000000f, -0.045706f };
static const float room_occupancy_forecast_layer_2_weights[900] = { 0.040463f, -0.223400f, 0.027289f, -0.025896f, 0.002473f, 0.054824f, -0.257529f, -0.305038f, 0.169748f, -0.143915f, -0.040714f, 0.340815f, 0.199591f, -0.039738f, -0.193179f, 0.159757f, -0.317918f, -0.093355f, -0.104668f, -0.025994f, -0.246284f, 0.236887f, 0.010287f, 0.068827f, 0.029566f, 0.000527f, 0.051850f, -0.253115f, 0.202637f, 0.164344f, 0.162028f, -0.202323f, -0.135955f, -0.104490f, 0.113263f, -0.266731f, 0.238082f, 0.315787f, -0.122729f, 0.300635f, -0.115878f, 0.238639f, -0.099519f, -0.027996f, -0.303483f, -0.040620f, 0.157866f, 0.167978f, -0.059337f, -0.223478f, -0.100411f, 0.040722f, 0.052714f, -0.028766f, 0.250268f, -0.296245f, -0.076454f, -0.232247f, -0.276022f, -0.186386f, -0.051579f, -0.259447f, 0.012859f, -0.324664f, -0.080988f, 0.094251f, 0.071586f, 0.265209f, -0.311849f, -0.203698f, -0.023240f, -0.131729f, -0.162847f, 0.243485f, -0.246006f, 0.300041f, -0.182423f, -0.198889f, 0.014509f, -0.023925f, 0.010770f, -0.015606f, 0.130153f, 0.137584f, 0.087760f, 0.057695f, -0.319118f, -0.057750f, -0.167297f, 0.314756f, -0.224422f, 0.127962f, -0.238562f, 0.105836f, -0.135674f, -0.308845f, 0.102554f, 0.142812f, 0.159776f, -0.227712f, -0.136678f, 0.102696f, -0.201971f, -0.082464f, 0.174486f, -0.016411f, -0.200231f, -0.083394f, 0.154476f, -0.140591f, -0.117960f, 0.220417f, 0.101830f, 0.119164f, 0.019318f, -0.202586f, -0.176408f, 0.239285f, 0.101402f, 0.280566f, -0.030417f, -0.299719f, -0.106462f, 0.151043f, 0.327099f, 0.153782f, 0.289080f, -0.312080f, 0.201449f, 0.073957f, 0.225732f, -0.018326f, -0.198251f, 0.150132f, -0.221545f, 0.247895f, 0.145858f, 0.324494f, 0.295413f, 0.248590f, 0.298477f, -0.267529f, 0.342082f, -0.259709f, 0.055514f, 0.167296f, 0.252060f, 0.171702f, 0.000796f, -0.065101f, 0.081954f, 0.254924f, -0.143803f, 0.244445f, 0.094641f, -0.055188f, 0.079076f, 0.029449f, -0.078223f, 0.129502f, 0.187390f, -0.143847f, 0.163309f, 0.247749f, -0.032712f, -0.105709f, -0.074871f, -0.211642f, 0.218653f, -0.289706f, -0.274888f, 0.232013f, -0.084892f, -0.174514f, -0.297628f, -0.130076f, 0.182752f, -0.240182f, 0.169124f, -0.269879f, -0.241746f, 0.253958f, 0.019357f, 0.371633f, -0.144051f, 0.292138f, -0.019248f, -0.187922f, 0.222575f, -0.225449f, -0.307709f, -0.263411f, -0.016428f, 0.064827f, 0.291550f, 0.162661f, -0.049830f, 0.322996f, -0.322955f, 0.140511f, -0.036084f, -0.087828f, -0.157817f, -0.153970f, -0.252467f, -0.078954f, -0.125670f, 0.012317f, 0.067909f, -0.237796f, 0.123046f, 0.037191f, 0.307985f, 0.201312f, 0.066466f, -0.271433f, 0.253798f, 0.290341f, -0.081466f, 0.222595f, 0.014753f, -0.299470f, -0.041567f, -0.286016f, -0.260059f, -0.000956f, -0.242840f, -0.005101f, 0.005449f, -0.134715f, -0.207936f, -0.009695f, 0.069017f, 0.145043f, 0.077730f, 0.152865f, -0.091173f, 0.268006f, 0.099477f, -0.141028f, -0.169695f, -0.148848f, 0.273291f, -0.020116f, -0.300348f, -0.270750f, -0.246771f, -0.274808f, -0.141985f, -0.306713f, 0.064910f, 0.093102f, -0.157114f, 0.268521f, 0.315573f, -0.301352f, -0.076042f, 0.144855f, -0.082800f, -0.056461f, -0.013694f, -0.264176f, -0.027947f, 0.104326f, 0.198789f, -0.077340f, 0.159389f, -0.066413f, -0.088196f, -0.290053f, -0.207242f, -0.282958f, -0.242614f, 0.075356f, -0.103495f, -0.246649f, -0.308173f, -0.238866f, -0.006938f, 0.280006f, 0.152245f, -0.237348f, -0.259453f, 0.243854f, 0.038568f, 0.240225f, 0.060180f, 0.070634f, 0.045728f, -0.050127f, -0.121505f, -0.190526f, 0.230504f, -0.114630f, 0.068235f, -0.147212f, 0.027473f, 0.080042f, -0.083401f, -0.065705f, -0.315686f, 0.042281f, -0.157007f, 0.272448f, -0.241597f, -0.063906f, 0.059374f, -0.093720f, 0.138419f, -0.047268f, 0.099642f, 0.086222f, 0.081022f, -0.043549f, -0.069474f, -0.220522f, 0.234670f, 0.218254f, 0.266580f, -0.098724f, 0.195026f, 0.130943f, -0.107634f, -0.181165f, -0.190753f, -0.260749f, -0.219934f, 0.248124f, -0.071123f, -0.117435f, -0.126913f, -0.150610f, -0.096911f, 0.035381f, -0.128638f, 0.175491f, -0.076785f, -0.309634f, 0.042547f, 0.203791f, -0.241898f, 0.066425f, 0.050714f, -0.203274f, -0.143383f, 0.294090f, -0.195456f, 0.425642f, -0.333476f, 0.110242f, -0.158267f, -0.309865f, -0.369396f, -0.108132f, -0.207391f, 0.324730f, -0.049628f, 0.284642f, 0.057255f, -0.106441f, -0.269617f, 0.110133f, 0.039952f, 0.264538f, -0.288329f, 0.005299f, 0.062380f, -0.069625f, 0.203931f, 0.091958f, -0.195281f, 0.156219f, 0.197216f, 0.241641f, -0.004855f, 0.161566f, 0.175741f, 0.121577f, 0.170638f, 0.248178f, -0.147014f, 0.036861f, 0.280578f, -0.147114f, 0.043018f, -0.167551f, -0.059451f, -0.121417f, 0.172655f, -0.229214f, 0.063438f, -0.069713f, -0.036169f, -0.272296f, -0.145202f, 0.114188f, -0.274647f, 0.095751f, -0.008841f, -0.194662f, 0.163626f, -0.095317f, -0.007856f, 0.145935f, -0.066773f, 0.012702f, -0.261176f, -0.116367f, 0.154297f, -0.103819f, -0.303876f, -0.259457f, 0.007333f, 0.158501f, -0.168069f, -0.101119f, 0.171042f, -0.051714f, 0.031634f, -0.061393f, -0.137979f, 0.004122f, -0.107512f, -0.081454f, 0.243798f, 0.158274f, 0.150669f, -0.226907f, -0.146240f, 0.186589f, 0.167172f, 0.030487f, 0.161381f, 0.150779f, -0.254533f, 0.209396f, -0.025327f, -0.192298f, 0.250410f, -0.311460f, -0.015372f, 0.076829f, -0.133217f, 0.313818f, -0.097525f, 0.192153f, 0.027159f, 0.190925f, -0.307527f, -0.056904f, 0.017257f, 0.260333f, -0.097604f, 0.057236f, -0.016942f, 0.206639f, 0.074634f, 0.082086f, -0.100412f, -0.112854f, 0.127691f, 0.288493f, 0.185839f, 0.223904f, -0.167840f, 0.072632f, -0.144640f, 0.305403f, 0.075083f, -0.113613f, -0.113473f, -0.310443f, -0.051593f, 0.065539f, -0.263846f, -0.114914f, -0.166672f, 0.135134f, 0.269450f, 0.071047f, -0.293250f, -0.192492f, -0.179083f, -0.262447f, -0.075492f, 0.145844f, 0.202628f, -0.272910f, -0.319535f, -0.018892f, -0.139225f, 0.034839f, 0.049802f, 0.132136f, -0.003179f, 0.091453f, 0.201086f, -0.104376f, -0.118747f, 0.108697f, 0.003769f, -0.209246f, -0.157418f, -0.281394f, -0.075416f, -0.042111f, 0.148641f, -0.312140f, 0.251315f, 0.135444f, 0.045683f, 0.282475f, -0.106391f, -0.168463f, 0.020346f, 0.334115f, 0.353735f, 0.126803f, 0.220761f, 0.034543f, 0.005670f, 0.020991f, 0.135898f, 0.341110f, 0.060070f, 0.005209f, -0.258829f, 0.382248f, -0.141619f, -0.083621f, -0.007164f, -0.048611f, -0.054400f, -0.057729f, 0.288855f, 0.046970f, -0.252010f, 0.190916f, 0.239943f, -0.193881f, -0.169763f, -0.108466f, -0.275929f, -0.305857f, -0.281086f, -0.008384f, -0.105174f, -0.161669f, -0.242812f, -0.011338f, 0.141850f, 0.217306f, 0.100605f, -0.232294f, 0.202226f, 0.177590f, -0.310094f, -0.264499f, 0.237428f, -0.254077f, -0.157552f, -0.002682f, -0.032588f, -0.232224f, 0.181156f, -0.046568f, 0.263045f, 0.012591f, 0.089295f, -0.083824f, 0.221159f, -0.113761f, -0.139937f, -0.185889f, -0.059734f, 0.247519f, -0.124683f, 0.209844f, 0.283683f, 0.126989f, 0.119222f, 0.211210f, 0.028376f, -0.255992f, -0.279863f, 0.184111f, 0.276214f, -0.229657f, -0.054933f, 0.072197f, 0.283268f, -0.311381f, -0.085312f, -0.245936f, -0.188013f, 0.068285f, 0.235746f, -0.309344f, -0.060213f, 0.208489f, -0.269896f, 0.048444f, 0.007405f, 0.246828f, 0.244423f, -0.262921f, -0.076442f, 0.258969f, -0.182861f, 0.024794f, -0.126675f, 0.025937f, -0.093318f, 0.279208f, 0.009607f, -0.069521f, -0.212419f, 0.003604f, -0.123298f, -0.287338f, -0.215205f, 0.073754f, -0.219549f, -0.241572f, 0.132552f, 0.158470f, 0.059644f, -0.153697f, 0.038116f, 0.131605f, 0.007763f, -0.152854f, 0.230161f, -0.082883f, 0.278632f, -0.185033f, 0.169947f, 0.113497f, 0.017293f, 0.126080f, 0.257669f, 0.292320f, 0.082558f, -0.260019f, 0.266500f, -0.206080f, 0.266765f, 0.253924f, 0.222763f, 0.105860f, -0.055551f, -0.098665f, 0.166781f, 0.089054f, -0.141041f, -0.127208f, -0.056099f, 0.033453f, -0.310057f, 0.071719f, 0.056119f, -0.261429f, -0.181166f, -0.048063f, 0.129269f, 0.119016f, -0.072958f, 0.110456f, -0.045422f, 0.130336f, -0.180855f, -0.294129f, 0.017098f, 0.336364f, 0.102738f, -0.111364f, 0.296269f, -0.116819f, -0.080396f, -0.184975f, -0.221638f, 0.274130f, -0.047869f, -0.210108f, -0.291537f, 0.140581f, 0.041839f, 0.233760f, 0.159435f, -0.200726f, 0.095039f, 0.200851f, -0.145119f, 0.225229f, -0.187670f, -0.309818f, 0.178256f, 0.017136f, -0.004127f, -0.099586f, 0.293301f, 0.145576f, -0.274290f, -0.257149f, 0.180532f, -0.184377f, -0.305563f, -0.258786f, -0.161690f, -0.038032f, 0.290551f, -0.296666f, -0.171071f, 0.280352f, 0.207584f, 0.091887f, -0.193850f, 0.127706f, 0.020564f, 0.081742f, -0.297709f, 0.312655f, 0.227021f, -0.017272f, 0.023460f, 0.144453f, 0.171698f, 0.193187f, 0.155802f, -0.120894f, 0.292555f, 0.180602f, -0.324206f, -0.038494f, 0.102263f, -0.097518f, 0.214909f, -0.190052f, 0.087688f, 0.262835f, -0.301895f, -0.047796f, 0.270999f, -0.053379f, 0.295864f, -0.340676f, 0.101974f, -0.178081f, -0.142847f, 0.088416f, 0.234076f, 0.142471f, -0.165669f, -0.252203f, -0.075544f, 0.004467f, -0.102599f, -0.172512f, 0.229481f, 0.303765f, -0.207620f, 0.306411f, 0.224708f, -0.265417f, -0.284567f, -0.046070f, 0.219524f, -0.217467f, -0.017629f, 0.268503f, 0.041634f, 0.078638f, 0.190676f, 0.057807f, 0.290914f, -0.232164f, 0.103055f, -0.166553f, 0.052914f, 0.131359f, 0.250381f, -0.066941f, 0.255733f, 0.236716f, 0.169153f, -0.227208f, -0.214944f, -0.017308f, -0.070971f, -0.072673f, 0.273223f, 0.252966f, -0.026775f, -0.193902f, 0.155759f, 0.014655f, 0.272470f, -0.026404f, -0.092921f, -0.201433f, -0.125729f, -0.131643f, 0.302358f, 0.068502f, -0.156375f, -0.048734f, -0.045861f, -0.127822f, -0.121956f, -0.018758f, 0.129440f, 0.157766f, 0.295956f, -0.061874f, -0.217316f, -0.172494f, -0.011397f, 0.059009f, 0.224691f, -0.012656f, -0.075490f, -0.085765f, 0.346340f, 0.312421f, -0.184454f, 0.276627f, 0.178458f, 0.381766f, -0.270429f, -0.102971f, -0.148127f, -0.247299f, -0.300839f, -0.165046f, -0.264431f, 0.116590f, -0.297969f, 0.048797f, -0.127928f, -0.230516f, -0.166477f, 0.027318f, 0.138174f, -0.267947f, 0.280952f, -0.265882f, -0.108859f, 0.046478f, 0.158221f, 0.233733f, -0.133749f, 0.300666f, -0.249970f, -0.123056f, -0.245389f, 0.246405f, 0.232622f, -0.083991f, 0.051836f, -0.201332f, 0.015474f, -0.084339f, 0.347998f, 0.121769f, 0.099490f, 0.122076f, -0.263126f, 0.119566f, 0.202200f, -0.077190f, -0.070179f, 0.080781f, 0.032698f, 0.120841f, -0.077628f, 0.258720f, 0.304315f, -0.010588f, -0.023590f, 0.295305f, -0.142936f, -0.090200f, -0.125365f, -0.144931f, -0.269624f, -0.099921f, 0.131234f, 0.471882f, 0.122588f, -0.138754f, -0.259515f, -0.251723f, -0.292416f, -0.046302f, 0.294512f, -0.265997f, 0.093055f, 0.271749f, -0.073984f, -0.270929f };
static const float room_occupancy_forecast_layer_3_biases[30] = { 0.058636f, 0.027997f, -0.035753f, -0.031209f, 0.012681f, 0.000000f, 0.056280f, -0.100517f, 0.134015f, 0.026431f, -0.017359f, 0.000000f, 0.000000f, -0.061736f, -0.061669f, -0.047571f, -0.031146f, -0.065499f, 0.000000f, 0.195359f, -0.012412f, 0.005949f, 0.048847f, 0.035147f, 0.105633f, -0.004130f, -0.025525f, 0.013115f, -0.013535f, 0.026260f };
static const float room_occupancy_forecast_layer_3_weights[900] = { 0.143960f, 0.105320f, 0.233978f, 0.174837f, 0.303745f, -0.146549f, 0.238962f, -0.148430f, -0.024512f, -0.016425f, -0.287821f, -0.128340f, 0.166235f, 0.068816f, -0.039227f, -0.057469f, -0.140032f, 0.074818f, -0.280350f, 0.249481f, -0.153568f, -0.126252f, -0.024642f, -0.161437f, 0.025443f, 0.056717f, -0.060682f, -0.306058f, 0.138222f, 0.078415f, 0.209337f, -0.233616f, -0.313982f, -0.037318f, -0.106638f, -0.214556f, -0.310998f, 0.201953f, -0.186252f, -0.070290f, -0.138259f, 0.018640f, 0.314388f, 0.054669f, -0.218721f, -0.274133f, -0.116348f, -0.267763f, 0.311765f, 0.028154f, 0.030824f, 0.035958f, 0.045859f, -0.253069f, 0.199980f, 0.198946f, 0.026451f, 0.143784f, -0.094472f, 0.135636f, -0.041640f, -0.022740f, 0.341206f, 0.081305f, -0.199094f, -0.042354f, -0.254585f, 0.167046f, 0.288108f, -0.071260f, 0.088986f, 0.264565f, -0.097205f, 0.080429f, 0.109528f, -0.282602f, -0.156147f, -0.228670f, 0.183463f, 0.018872f, -0.017566f, -0.266207f, 0.184548f, 0.253421f, 0.166556f, 0.131312f, -0.186308f, -0.102828f, -0.158949f, -0.282766f, -0.229600f, -0.294589f, -0.197910f, 0.111826f, -0.083417f, 0.099374f, 0.153574f, 0.270827f, 0.075216f, -0.258530f, -0.046405f, 0.126829f, 0.130144f, 0.263894f, 0.133072f, -0.001054f, -0.122513f, -0.162925f, 0.043242f, -0.174432f, -0.171278f, 0.303404f, 0.242068f, -0.117874f, 0.245972f, -0.326862f, -0.249322f, -0.273706f, 0.197990f, -0.166782f, -0.270406f, -0.243860f, -0.009786f, -0.097288f, -0.024063f, -0.220672f, -0.024501f, 0.184699f, -0.239269f, -0.214730f, 0.217758f, -0.062864f, -0.089121f, 0.332427f, -0.146725f, -0.093617f, -0.161715f, -0.163618f, -0.241374f, -0.160314f, 0.060856f, 0.176933f, -0.134573f, -0.154397f, -0.289848f, -0.080331f, 0.273009f, 0.237902f, 0.115379f, -0.312258f, 0.321648f, -0.083958f, -0.145473f, 0.107995f, 0.066264f, 0.146873f, 0.210150f, -0.266508f, 0.197074f, 0.270203f, -0.020991f, 0.020302f, -0.216563f, -0.131088f, 0.044615f, -0.053411f, 0.212962f, -0.265673f, -0.216232f, 0.157338f, -0.093604f, 0.160608f, 0.340118f, -0.079672f, -0.101667f, -0.236210f, 0.017950f, 0.266554f, -0.097220f, 0.330618f, 0.151685f, 0.100095f, 0.098606f, -0.109218f, -0.070457f, -0.283261f, 0.220683f, -0.231072f, 0.034365f, 0.188299f, 0.151150f, 0.016045f, -0.032598f, 0.204285f, 0.252336f, 0.274824f, -0.089227f, -0.216008f, -0.007396f, -0.213162f, 0.047252f, -0.277475f, 0.223139f, 0.127186f, 0.250185f, -0.006305f, 0.056642f, -0.148677f, 0.147625f, -0.174598f, 0.237206f, -0.028436f, -0.304584f, -0.154098f, 0.200531f, 0.299667f, -0.140926f, -0.131185f, -0.248431f, 0.063322f, 0.052556f, -0.216824f, -0.145045f, -0.272805f, 0.271432f, -0.063422f, 0.262528f, 0.217593f, 0.189358f, -0.281195f, 0.096825f, -0.219258f, -0.000735f, -0.224316f, 0.250332f, 0.261211f, 0.003338f, 0.134344f, 0.031402f, 0.091760f, 0.102380f, -0.191253f, 0.083667f, 0.161796f, -0.111752f, 0.038116f, 0.000865f, -0.159362f, 0.262981f, 0.205580f, -0.064768f, 0.185091f, 0.102333f, -0.299884f, -0.002043f, 0.110985f, 0.145936f, -0.010410f, -0.162111f, 0.136604f, 0.133701f, 0.252113f, -0.186150f, -0.040862f, -0.265280f, 0.032659f, 0.018654f, -0.143686f, 0.094803f, 0.188022f, -0.232562f, 0.251861f, 0.218658f, -0.011753f, -0.048095f, -0.233748f, -0.013983f, -0.153601f, 0.141955f, 0.237625f, -0.246318f, -0.291507f, 0.114223f, 0.195392f, -0.075400f, 0.078501f, 0.147568f, -0.239059f, 0.240844f, 0.012675f, -0.166217f, 0.124579f, 0.215273f, -0.171744f, 0.051838f, 0.154359f, 0.161914f, 0.121062f, 0.119071f, 0.199741f, -0.179790f, 0.158228f, 0.244816f, -0.269204f, -0.159712f, -0.016892f, -0.088569f, 0.141157f, -0.217253f, 0.145430f, 0.272257f, 0.043049f, -0.250196f, 0.216405f, 0.322260f, 0.257185f, 0.299543f, 0.329943f, 0.197885f, 0.213944f, 0.001358f, -0.038062f, 0.178685f, -0.261017f, -0.162125f, -0.177660f, -0.213246f, 0.100962f, -0.145120f, 0.135598f, -0.224418f, -0.283437f, 0.176840f, 0.103707f, 0.112212f, -0.271575f, 0.078322f, 0.266185f, 0.063868f, -0.293021f, 0.109799f, -0.215238f, -0.127210f, -0.158293f, 0.102242f, 0.323261f, 0.239823f, 0.303637f, -0.232857f, -0.085292f, 0.002181f, 0.133687f, -0.094229f, 0.196702f, -0.222089f, -0.166498f, -0.104316f, 0.270615f, -0.147898f, 0.066235f, 0.395594f, 0.078575f, -0.271564f, 0.125570f, 0.176182f, -0.068940f, 0.218358f, -0.210466f, -0.085044f, 0.202696f, 0.029704f, 0.010344f, -0.222565f, -0.015061f, 0.148818f, 0.038070f, 0.198584f, 0.134668f, -0.027659f, -0.024068f, 0.071549f, -0.287737f, -0.143741f, -0.218829f, 0.110304f, 0.274906f, -0.095994f, 0.067779f, -0.135780f, 0.311741f, 0.138561f, 0.232044f, 0.059189f, -0.324001f, 0.146287f, -0.252047f, 0.143664f, -0.171372f, 0.075311f, -0.117525f, 0.286902f, -0.245196f, -0.020834f, -0.117644f, -0.284152f, 0.022138f, 0.261997f, 0.264679f, -0.195164f, 0.090827f, 0.155320f, 0.187569f, -0.091849f, 0.042546f, 0.181693f, 0.110261f, 0.043348f, -0.035347f, 0.303694f, -0.122832f, 0.149809f, 0.052455f, 0.016934f, 0.205106f, -0.230059f, 0.290875f, 0.204760f, 0.300728f, 0.086465f, 0.277078f, -0.025301f, -0.262926f, 0.121713f, 0.172370f, -0.047061f, -0.248037f, -0.192194f, -0.007627f, -0.151931f, 0.023723f, 0.110865f, 0.274823f, -0.084911f, 0.015882f, -0.020635f, 0.049641f, 0.040928f, -0.304060f, -0.101728f, -0.251004f, 0.067029f, 0.121803f, -0.200007f, 0.149729f, -0.135398f, 0.043434f, -0.094739f, -0.214061f, 0.156408f, 0.199400f, -0.146101f, -0.184641f, -0.314336f, 0.150803f, -0.129621f, 0.242049f, -0.175679f, -0.035609f, -0.149176f, 0.022080f, 0.031280f, -0.061487f, -0.095300f, 0.209913f, 0.222035f, 0.189628f, 0.294065f, 0.316115f, -0.115125f, -0.077288f, -0.075256f, -0.258258f, -0.224431f, 0.036331f, 0.231432f, 0.009381f, 0.005226f, 0.309995f, -0.067069f, 0.012584f, -0.032535f, 0.040735f, 0.080904f, -0.162124f, -0.272198f, -0.148063f, 0.121049f, -0.049247f, -0.224622f, 0.334028f, -0.091780f, -0.106314f, -0.221104f, 0.155270f, 0.087381f, 0.008238f, 0.276776f, -0.237616f, -0.013146f, 0.198399f, 0.090436f, 0.462537f, 0.036511f, 0.135418f, -0.024449f, -0.128058f, 0.217049f, -0.024619f, 0.419504f, 0.057381f, 0.006835f, -0.199836f, 0.044044f, -0.363127f, -0.353598f, 0.266090f, -0.129567f, 0.094933f, 0.287880f, -0.051916f, -0.032091f, 0.064661f, 0.072431f, -0.032726f, 0.386875f, -0.114103f, -0.140443f, -0.234741f, 0.023137f, 0.176210f, 0.036040f, -0.147689f, 0.021138f, -0.136356f, 0.128648f, -0.224131f, -0.285326f, 0.204620f, -0.121374f, 0.081483f, -0.276162f, -0.019236f, -0.245016f, -0.135001f, 0.271893f, 0.190310f, 0.255390f, 0.229806f, -0.017230f, 0.310505f, -0.205443f, 0.259235f, -0.300220f, -0.124922f, -0.001611f, 0.265784f, -0.130737f, 0.284341f, -0.085369f, 0.269178f, -0.071052f, -0.036832f, 0.093570f, 0.255027f, -0.105451f, -0.020950f, -0.251040f, 0.272999f, 0.293096f, -0.252669f, 0.027532f, -0.042459f, -0.131866f, 0.219082f, 0.113947f, -0.062542f, 0.084076f, 0.064196f, -0.208799f, -0.018964f, 0.303936f, -0.262868f, -0.046476f, 0.005022f, -0.230435f, -0.119597f, -0.207853f, -0.278822f, 0.120676f, -0.208874f, -0.062723f, -0.298726f, 0.061006f, -0.138021f, 0.152269f, 0.095753f, -0.210320f, -0.247881f, 0.147021f, 0.116636f, 0.190753f, -0.089371f, 0.196358f, 0.096384f, 0.222876f, 0.125791f, 0.054733f, -0.213897f, 0.104773f, 0.094771f, -0.003885f, 0.113580f, 0.217977f, 0.058821f, 0.234933f, 0.259066f, 0.262323f, 0.005944f, -0.278121f, 0.264017f, -0.284379f, 0.240799f, -0.218338f, -0.288831f, 0.061165f, -0.224716f, 0.041414f, 0.263492f, 0.051285f, 0.097076f, -0.009711f, -0.156078f, -0.228651f, -0.254491f, -0.015500f, -0.062208f, 0.007498f, 0.172677f, -0.015178f, 0.078340f, -0.208704f, 0.230018f, 0.301684f, -0.035351f, 0.279802f, 0.177513f, -0.224530f, 0.039697f, 0.235681f, -0.216453f, 0.183682f, 0.102983f, 0.199851f, 0.168679f, -0.142334f, 0.232797f, -0.319597f, 0.030669f, 0.035829f, 0.125204f, 0.255850f, 0.221016f, 0.234114f, 0.285719f, 0.229100f, 0.023092f, 0.258545f, 0.225967f, 0.057164f, 0.114326f, -0.260104f, 0.203037f, -0.212223f, -0.336236f, -0.366698f, 0.091085f, 0.251358f, -0.090764f, 0.209871f, -0.220561f, -0.309998f, 0.109018f, 0.148455f, 0.134807f, -0.221501f, 0.018641f, 0.100693f, -0.276395f, 0.105795f, 0.214835f, 0.122247f, -0.223771f, 0.085565f, 0.021107f, 0.008624f, 0.173898f, 0.169667f, 0.055614f, 0.183785f, 0.294151f, -0.105883f, 0.156197f, -0.112145f, -0.297790f, -0.201989f, 0.053092f, 0.124808f, 0.101555f, -0.141550f, 0.073977f, -0.057953f, -0.237061f, 0.198148f, 0.060143f, 0.006864f, 0.081998f, -0.128293f, -0.156547f, -0.101117f, 0.308719f, 0.016715f, -0.118602f, -0.262703f, 0.229430f, 0.136916f, -0.088938f, 0.252526f, 0.164937f, 0.099808f, 0.226908f, 0.098672f, 0.190077f, -0.270876f, 0.171992f, 0.301385f, -0.310587f, -0.252704f, 0.061262f, -0.168944f, 0.197575f, -0.237297f, -0.095264f, 0.330509f, -0.245778f, -0.274568f, -0.267100f, 0.159060f, 0.161379f, 0.350206f, 0.282291f, -0.184555f, 0.024932f, -0.211323f, 0.084062f, -0.184239f, 0.038321f, 0.151276f, -0.114743f, -0.048250f, -0.272197f, 0.107350f, 0.234107f, 0.134434f, -0.148141f, 0.004105f, 0.277768f, -0.324153f, -0.262092f, -0.218274f, 0.022046f, 0.047180f, -0.256700f, 0.104508f, -0.130720f, 0.261569f, 0.180860f, 0.122641f, -0.098526f, 0.025865f, 0.026494f, 0.125161f, 0.300859f, -0.247481f, 0.277973f, 0.111017f, -0.099747f, -0.070499f, -0.198199f, -0.167983f, -0.227147f, -0.293900f, 0.112176f, 0.127157f, -0.048348f, -0.226778f, -0.213337f, 0.073814f, 0.010720f, 0.192627f, 0.054086f, -0.030906f, 0.377624f, 0.170713f, -0.185198f, 0.287943f, -0.154149f, -0.221573f, 0.077428f, 0.272001f, -0.267208f, 0.291249f, -0.095569f, 0.004784f, 0.155974f, 0.276148f, -0.239317f, 0.201483f, 0.034446f, -0.126512f, 0.043146f, -0.314797f, 0.061921f, 0.114941f, -0.307865f, 0.340534f, -0.275418f, -0.005427f, -0.186406f, 0.272169f, 0.148064f, 0.297167f, 0.070940f, -0.026229f, -0.165145f, 0.178890f, -0.244192f, 0.175804f, 0.191971f, -0.065322f, -0.227377f, -0.100826f, 0.030560f, -0.206940f, 0.184054f, -0.146999f, 0.279094f, 0.014259f, 0.270633f, -0.192604f, 0.232709f, -0.226896f, 0.073506f, -0.115485f, -0.167270f, -0.268262f, 0.285487f, -0.093542f, -0.055459f, -0.006565f, 0.186229f, -0.058913f, -0.036457f, -0.113205f, -0.185960f, -0.122911f, -0.122439f, -0.134514f, 0.066787f, -0.313041f, -0.222630f, 0.219340f, 0.230975f, 0.093588f, 0.039884f, -0.180105f, 0.057282f, -0.047307f, -0.003980f, 0.065439f, 0.326174f, -0.167224f, -0.292507f, 0.088825f, -0.170146f, -0.301762f, -0.335053f, 0.259577f, -0.117368f, -0.137943f, -0.140399f };
static const float room_occupancy_forecast_layer_4_biases[30] = { 0.011495f, 0.034045f, -0.109080f, 0.000776f, 0.033603f, -0.063954f, 0.024254f, -0.048723f, -0.062983f, 0.049003f, -0.028442f, 0.000000f, 0.054729f, -0.035705f, 0.000000f, 0.004479f, -0.097128f, -0.047132f, 0.007158f, -0.055833f, 0.013767f, -0.011069f, 0.015618f, -0.021528f, -0.086675f, 0.067309f, 0.097087f, -0.053761f, -0.040481f, 0.043075f };
static const float room_occupancy_forecast_layer_4_weights[900] = { 0.162146f, 0.050677f, 0.279126f, 0.300191f, -0.001885f, 0.352981f, 0.283336f, 0.075817f, -0.311097f, -0.051309f, 0.121678f, 0.032281f, 0.279666f, 0.006196f, -0.241140f, 0.147540f, 0.167504f, 0.114286f, 0.131980f, 0.292156f, -0.208288f, 0.079251f, 0.303861f, 0.259409f, 0.381038f, -0.088617f, 0.000297f, 0.190516f, -0.295728f, -0.125770f, -0.035385f, 0.298872f, -0.139248f, -0.251370f, -0.197827f, 0.330186f, 0.364591f, -0.160191f, -0.182483f, 0.086010f, -0.117361f, 0.153262f, -0.142926f, 0.132190f, -0.139754f, -0.189034f, 0.099059f, 0.257247f, -0.107875f, 0.167372f, -0.182176f, -0.252327f, 0.254108f, -0.111115f, -0.082622f, 0.410811f, 0.321192f, -0.241765f, 0.169429f, -0.066248f, -0.111932f, -0.061312f, 0.218306f, -0.139649f, -0.228654f, -0.097902f, -0.052873f, 0.122460f, 0.242583f, -0.233497f, -0.091529f, 0.125520f, 0.150686f, -0.267237f, -0.226798f, 0.038261f, 0.112988f, -0.149654f, -0.065447f, 0.323836f, 0.243481f, 0.212001f, -0.329683f, 0.079538f, 0.248097f, -0.177834f, -0.209904f, 0.306879f, 0.161428f, -0.122922f, -0.240334f, 0.032683f, -0.057176f, 0.240719f, -0.204606f, -0.204173f, 0.127130f, 0.152524f, -0.093744f, 0.105312f, 0.079576f, 0.292915f, -0.097233f, -0.059736f, -0.258827f, -0.313384f, -0.024860f, 0.238303f, -0.215982f, -0.045981f, 0.231376f, 0.285469f, -0.265970f, 0.173447f, -0.130872f, -0.289291f, -0.220166f, -0.130878f, 0.233446f, -0.162679f, 0.075757f, 0.349503f, 0.301984f, 0.221455f, 0.094594f, 0.189977f, 0.170849f, 0.105956f, 0.041793f, -0.229335f, -0.240910f, -0.029271f, 0.316679f, -0.140443f, -0.039261f, -0.139809f, 0.278158f, 0.331786f, 0.350864f, 0.126678f, -0.069804f, -0.156529f, -0.084479f, -0.214041f, 0.278713f, 0.241221f, 0.070331f, -0.267111f, 0.111511f, 0.235129f, -0.218603f, -0.261880f, -0.078334f, 0.297853f, -0.086299f, -0.031677f, -0.186662f, -0.113492f, 0.080340f, 0.258704f, 0.184581f, -0.211302f, -0.191549f, -0.095567f, 0.178030f, 0.187514f, -0.194559f, -0.307662f, 0.177574f, 0.234567f, -0.004240f, -0.205153f, -0.205289f, -0.061129f, -0.133671f, -0.272943f, -0.186219f, 0.006470f, 0.073336f, 0.240182f, 0.021138f, 0.249135f, -0.232705f, 0.016295f, 0.253037f, 0.207930f, 0.090009f, -0.173241f, 0.045427f, 0.141088f, 0.239048f, -0.076918f, 0.176761f, 0.194376f, -0.200688f, 0.028411f, -0.204654f, -0.027725f, 0.106641f, 0.005260f, 0.102075f, 0.043554f, 0.316593f, -0.122649f, -0.234946f, 0.147276f, 0.218371f, 0.034991f, 0.104874f, 0.264296f, -0.161453f, 0.024141f, -0.106141f, -0.185956f, 0.076953f, -0.003601f, 0.055900f, 0.212981f, 0.298426f, -0.047823f, -0.089650f, 0.291931f, 0.136363f, 0.156650f, -0.301302f, -0.007916f, -0.075862f, 0.160957f, -0.025046f, -0.204168f, -0.264592f, 0.253137f, 0.026256f, -0.149779f, 0.124506f, -0.298773f, 0.038320f, 0.163707f, 0.063544f, 0.186955f, 0.066465f, 0.144223f, 0.023283f, 0.008637f, -0.101668f, 0.423744f, 0.500525f, -0.257517f, -0.019300f, 0.194266f, -0.141594f, 0.044263f, 0.316304f, -0.075694f, -0.099140f, -0.012648f, 0.136608f, 0.025368f, 0.341028f, 0.245657f, 0.432160f, -0.244403f, 0.357985f, 0.164003f, 0.365425f, -0.046121f, 0.256129f, 0.063672f, 0.202073f, -0.111559f, 0.252947f, -0.250135f, 0.212289f, -0.198489f, 0.231290f, -0.018502f, 0.305771f, -0.209528f, -0.167458f, 0.026795f, -0.085025f, -0.278962f, 0.103535f, -0.265943f, -0.062728f, 0.263315f, -0.185920f, 0.280970f, 0.226292f, 0.016998f, -0.065242f, -0.178952f, 0.282382f, 0.148785f, 0.076852f, -0.164721f, -0.227354f, 0.233906f, -0.079520f, 0.256416f, 0.058416f, 0.183064f, 0.337135f, -0.287398f, 0.261721f, 0.155686f, 0.206840f, 0.209228f, -0.097928f, -0.033955f, -0.193214f, -0.311472f, 0.118560f, 0.207107f, -0.217401f, -0.278887f, 0.083587f, 0.111745f, 0.015467f, 0.313734f, -0.004114f, -0.207738f, -0.047524f, 0.054692f, 0.283062f, 0.199261f, -0.167878f, -0.185207f, 0.257295f, -0.285316f, -0.190872f, 0.071600f, -0.038916f, -0.315838f, 0.134604f, -0.094003f, 0.269584f, 0.136606f, 0.016838f, 0.071662f, 0.099081f, -0.183302f, 0.020965f, 0.209266f, -0.160038f, 0.270421f, 0.174358f, -0.289907f, -0.275476f, 0.057506f, 0.202872f, 0.227821f, 0.250060f, -0.096504f, 0.171779f, 0.296973f, -0.237548f, 0.053467f, -0.195845f, 0.239745f, -0.254719f, 0.134593f, 0.185060f, -0.012524f, -0.304696f, -0.255755f, 0.036074f, 0.068885f, 0.185077f, 0.216932f, 0.009831f, -0.201265f, -0.153426f, -0.123623f, -0.050128f, -0.260720f, -0.247871f, -0.065981f, -0.189779f, 0.116719f, 0.018483f, 0.099685f, -0.219190f, -0.005425f, 0.055977f, -0.261897f, -0.129671f, 0.089281f, -0.274050f, -0.283914f, -0.021930f, -0.003177f, 0.249738f, 0.166012f, -0.126364f, 0.068523f, -0.241132f, -0.146208f, 0.202046f, -0.104527f, -0.128166f, -0.190706f, -0.322865f, 0.272433f, 0.140994f, -0.314478f, -0.103675f, 0.278550f, -0.120956f, 0.137286f, 0.187190f, 0.020149f, 0.103133f, 0.236774f, 0.118663f, 0.100624f, 0.182873f, 0.140733f, 0.211618f, -0.204092f, -0.230067f, -0.124441f, 0.252092f, -0.030095f, -0.177288f, 0.068271f, -0.139923f, -0.026393f, 0.093198f, 0.120715f, -0.212629f, -0.003488f, 0.167355f, 0.029896f, -0.131990f, -0.108807f, -0.262529f, 0.186719f, 0.043520f, 0.057059f, 0.089840f, -0.014258f, -0.083756f, -0.080937f, 0.253016f, -0.214216f, 0.033274f, 0.254230f, 0.259699f, -0.085336f, 0.190258f, 0.034204f, -0.272768f, 0.214052f, -0.142906f, 0.185692f, -0.302489f, 0.247715f, 0.333385f, -0.308035f, -0.184081f, -0.110423f, -0.172245f, -0.337245f, 0.125843f, 0.112795f, 0.294858f, 0.164765f, 0.271119f, 0.304756f, 0.054973f, 0.273674f, 0.113603f, -0.236854f, 0.068302f, 0.160293f, 0.030805f, -0.073063f, 0.010287f, 0.017360f, -0.191749f, 0.080966f, -0.233767f, -0.109211f, -0.052897f, 0.207254f, 0.059936f, 0.336317f, 0.115611f, 0.051645f, -0.270961f, -0.308075f, -0.170155f, 0.003654f, -0.254394f, 0.076250f, -0.017155f, 0.050673f, 0.289219f, -0.091090f, -0.034772f, 0.194900f, 0.208782f, -0.092480f, -0.120183f, -0.020200f, -0.124116f, -0.040486f, 0.210233f, -0.059102f, -0.008841f, -0.192122f, 0.196872f, -0.058202f, -0.083256f, -0.215059f, -0.041820f, 0.052158f, 0.183815f, -0.257121f, -0.313522f, 0.204706f, 0.177556f, -0.286610f, 0.289948f, -0.243357f, 0.286314f, -0.040015f, 0.257451f, 0.228196f, -0.012936f, -0.243170f, -0.078213f, -0.176774f, 0.247223f, -0.012760f, -0.293750f, 0.117130f, -0.066423f, -0.341201f, -0.189782f, -0.060438f, -0.006311f, -0.126460f, -0.310836f, -0.095686f, 0.142814f, -0.310199f, 0.046278f, -0.041037f, 0.079415f, 0.068950f, 0.157905f, 0.055754f, -0.288398f, 0.198327f, -0.037948f, -0.248958f, -0.070880f, 0.297936f, -0.243713f, 0.019258f, -0.159365f, 0.131353f, -0.081696f, -0.104577f, 0.138069f, -0.105648f, -0.261827f, -0.272886f, -0.255605f, -0.037323f, 0.286858f, -0.262559f, 0.047544f, -0.177626f, -0.187834f, -0.264260f, -0.193853f, -0.257996f, -0.268763f, 0.079943f, 0.287672f, -0.092345f, 0.295613f, -0.164520f, -0.331064f, -0.153396f, 0.094555f, -0.035010f, 0.167048f, -0.174621f, 0.111305f, 0.218867f, 0.140741f, 0.071557f, 0.044127f, -0.222310f, 0.071683f, -0.067236f, -0.296386f, -0.195925f, 0.125643f, -0.139797f, -0.061954f, 0.185984f, 0.055904f, 0.090095f, -0.125871f, 0.125331f, -0.178037f, 0.208027f, -0.120805f, -0.092333f, -0.032041f, -0.072872f, 0.100465f, 0.086158f, -0.160548f, 0.199428f, 0.030224f, -0.137179f, -0.134159f, 0.034631f, 0.199207f, 0.192810f, -0.084182f, -0.067346f, 0.054773f, -0.100941f, -0.224119f, 0.096892f, 0.012454f, 0.256930f, 0.008123f, 0.040115f, -0.046848f, 0.017801f, -0.188329f, 0.016909f, 0.089605f, -0.072176f, -0.313942f, 0.049692f, -0.048764f, -0.336057f, -0.055570f, -0.053245f, -0.238234f, -0.014784f, 0.029303f, -0.227471f, 0.216397f, 0.038461f, 0.234169f, -0.193403f, -0.100867f, 0.291539f, 0.220385f, -0.085203f, 0.287576f, 0.177139f, -0.278107f, 0.294947f, 0.129369f, 0.282943f, 0.042370f, -0.093988f, 0.095643f, 0.325686f, 0.028029f, -0.169855f, 0.390368f, -0.222049f, -0.271378f, 0.208365f, -0.090004f, 0.283621f, 0.164674f, -0.233621f, 0.292289f, -0.230802f, 0.379751f, 0.026363f, 0.076104f, 0.342263f, 0.284833f, -0.253533f, -0.227217f, -0.162047f, -0.283698f, -0.047771f, 0.063308f, 0.243713f, -0.256922f, 0.067967f, -0.234727f, -0.155521f, -0.232561f, 0.394062f, 0.144824f, -0.017271f, -0.242661f, -0.312055f, -0.040520f, -0.071717f, 0.118955f, 0.000108f, -0.062924f, -0.221509f, 0.153696f, 0.278153f, -0.049186f, -0.194342f, 0.202244f, 0.086363f, -0.055318f, -0.278313f, 0.025457f, 0.258696f, 0.309753f, 0.124492f, -0.050416f, -0.316464f, 0.065770f, -0.174892f, 0.317367f, -0.383575f, 0.132984f, 0.308810f, 0.217795f, -0.098247f, -0.151703f, -0.058628f, -0.276659f, 0.123835f, 0.096850f, 0.239216f, 0.239624f, -0.300009f, 0.154326f, -0.420545f, -0.028795f, -0.069248f, -0.058116f, 0.210725f, 0.386546f, 0.199231f, -0.129436f, -0.052434f, -0.146404f, 0.019017f, 0.100709f, 0.241267f, -0.126325f, -0.222490f, -0.210786f, 0.066743f, -0.247133f, 0.138261f, 0.256841f, 0.113654f, -0.076413f, -0.323739f, 0.294657f, 0.022395f, 0.300401f, 0.083547f, 0.126486f, -0.044577f, 0.244451f, 0.129507f, 0.080222f, 0.229415f, -0.078263f, 0.027113f, 0.179872f, 0.246694f, -0.001849f, 0.008738f, -0.243586f, 0.024234f, -0.266464f, 0.214175f, 0.228599f, -0.310323f, 0.274736f, 0.330426f, -0.172885f, 0.136245f, 0.267793f, -0.133280f, 0.124679f, -0.012107f, -0.225384f, 0.052191f, 0.288491f, 0.177923f, -0.189816f, -0.167041f, -0.171542f, 0.323698f, 0.137108f, -0.104113f, -0.035747f, -0.114124f, 0.311854f, 0.216610f, 0.030805f, 0.026828f, 0.174266f, -0.178065f, -0.276800f, 0.076621f, -0.206607f, -0.123917f, -0.237376f, 0.125075f, 0.269662f, -0.170284f, -0.233650f, -0.157733f, 0.137179f, -0.272216f, -0.147848f, -0.016634f, -0.207033f, -0.253779f, -0.208494f, 0.305225f, -0.004005f, -0.153167f, -0.235661f, 0.003258f, -0.225166f, -0.244891f, -0.118161f, -0.122125f, -0.198623f, 0.012435f, 0.251779f, -0.014002f, -0.255701f, -0.083631f, 0.248565f, 0.191258f, -0.281633f, 0.111382f, 0.122977f, 0.310988f, 0.136411f, 0.034894f, -0.252624f, 0.205053f, -0.055679f, -0.090910f, 0.207319f, 0.056171f, 0.275062f, 0.286025f, 0.283025f, -0.114401f, -0.185069f, -0.266918f, -0.166013f, -0.174979f, 0.079131f, -0.071937f, -0.264840f, -0.108172f, 0.311437f, -0.090302f, -0.161481f, 0.092588f, 0.048089f, -0.255724f, 0.166150f, -0.007862f, 0.322737f, 0.309074f, 0.000112f, -0.281197f, -0.222256f, 0.235848f, 0.018400f, 0.271640f, 0.213323f, 0.229729f, -0.161517f, -0.053513f, 0.174810f, 0.077248f, -0.310508f, 0.055751f, -0.170314f, -0.216310f, -0.177521f, -0.103262f, -0.147495f, -0.175017f };
static const float room_occupancy_forecast_layer_5_biases[30] = { 0.027512f, 0.000000f, -0.048590f, -0.022325f, -0.041636f, -0.062314f, 0.000000f, -0.031015f, 0.000000f, -0.014781f, -0.006906f, -0.036677f, -0.021802f, 0.000000f, -0.047450f, -0.036889f, 0.029046f, 0.043049f, -0.026989f, 0.000000f, 0.054286f, -0.040789f, 0.018363f, -0.020479f, -0.092190f, -0.009455f, -0.033430f, 0.000000f, -0.027777f, 0.015579f };
static const float room_occupancy_forecast_layer_5_weights[900] = { -0.088959f, -0.100358f, 0.170369f, 0.103574f, 0.074302f, 0.171884f, 0.094369f, -0.134785f, -0.037168f, 0.107731f, 0.195391f, 0.031020f, 0.195676f, 0.290902f, 0.053493f, -0.171363f, 0.062096f, 0.254418f, -0.073553f, 0.107153f, 0.019157f, -0.060224f, -0.105662f, -0.229978f, 0.215957f, 0.264817f, -0.172187f, 0.208699f, -0.209163f, 0.288037f, -0.071061f, -0.309134f, -0.052969f, 0.273385f, -0.121114f, 0.315130f, 0.228525f, 0.041410f, 0.298257f, -0.255384f, 0.257629f, 0.346230f, -0.258171f, 0.152716f, -0.199106f, 0.194458f, 0.357943f, -0.008494f, -0.109755f, -0.272049f, 0.046669f, 0.013527f, 0.060883f, 0.200985f, 0.262895f, -0.092050f, 0.179076f, 0.143877f, 0.295191f, -0.050728f, -0.298910f, 0.093064f, -0.118744f, -0.009948f, 0.260435f, 0.152036f, 0.121695f, 0.313062f, -0.175753f, -0.045046f, 0.200800f, 0.245135f, 0.159968f, 0.102818f, -0.045867f, -0.083701f, 0.261225f, 0.166528f, -0.054314f, -0.248348f, 0.258661f, -0.084623f, -0.017101f, -0.028798f, 0.291571f, 0.221819f, -0.137355f, 0.042773f, 0.085880f, 0.011540f, -0.300520f, 0.122417f, 0.233708f, 0.274416f, -0.243546f, -0.253284f, 0.286458f, -0.212456f, 0.151011f, 0.237191f, 0.033114f, 0.013385f, -0.300290f, -0.296040f, -0.002247f, 0.292011f, -0.336609f, 0.173067f, -0.199720f, -0.092521f, 0.222424f, -0.096543f, 0.220053f, 0.182034f, 0.282538f, 0.214166f, 0.324402f, 0.271576f, 0.166645f, -0.004524f, -0.285080f, 0.285445f, 0.260999f, -0.220041f, 0.171595f, -0.156907f, 0.021939f, -0.061107f, -0.266092f, 0.090047f, -0.269726f, 0.290180f, 0.087796f, -0.186166f, 0.030247f, 0.062752f, 0.253219f, 0.214213f, 0.139453f, -0.112880f, -0.014822f, 0.113857f, 0.202891f, 0.045879f, -0.142575f, -0.258400f, -0.067549f, -0.311898f, 0.218967f, -0.189219f, 0.243850f, -0.061422f, 0.186852f, -0.308118f, 0.156529f, 0.074625f, 0.233868f, 0.001998f, 0.271517f, 0.253938f, -0.182108f, -0.194782f, 0.248431f, -0.070678f, 0.091894f, 0.142503f, -0.128680f, -0.030891f, -0.202546f, 0.202524f, -0.013827f, -0.144767f, -0.184591f, 0.104763f, -0.121935f, 0.083229f, -0.121694f, 0.042163f, 0.044583f, 0.359662f, 0.336559f, 0.027395f, -0.226013f, 0.246280f, 0.199826f, -0.215898f, -0.085190f, -0.311622f, -0.234064f, 0.318452f, 0.110758f, 0.149795f, 0.267747f, -0.184154f, 0.322010f, -0.244987f, 0.245240f, -0.014953f, -0.215126f, -0.284867f, 0.084871f, -0.104251f, 0.035803f, 0.008193f, -0.286645f, 0.031988f, -0.006753f, 0.257278f, -0.233369f, 0.207884f, 0.076850f, -0.117065f, 0.195318f, 0.258544f, -0.329857f, 0.218317f, -0.007214f, -0.141205f, -0.062752f, 0.000837f, 0.178868f, 0.233457f, -0.022449f, 0.256567f, 0.117901f, -0.207598f, -0.174389f, -0.217475f, 0.294839f, 0.234769f, 0.142915f, 0.183436f, -0.248033f, -0.137548f, 0.217560f, -0.159813f, 0.283855f, -0.069709f, -0.071476f, -0.210225f, -0.083083f, 0.071873f, 0.145496f, -0.244286f, 0.162445f, 0.133980f, 0.205285f, 0.034878f, -0.015843f, 0.136855f, -0.171169f, 0.006267f, 0.281907f, -0.292902f, 0.248409f, -0.316645f, -0.174440f, -0.082143f, 0.280766f, -0.132250f, -0.112495f, 0.236868f, 0.258625f, 0.007287f, 0.237137f, -0.201040f, 0.234758f, -0.202290f, 0.044453f, 0.060422f, 0.029679f, -0.083277f, -0.332603f, -0.272853f, -0.103876f, 0.009411f, 0.060020f, 0.235855f, -0.216760f, -0.116988f, -0.167716f, 0.045122f, -0.043321f, -0.169216f, -0.133967f, -0.212294f, 0.355255f, 0.356091f, 0.205440f, -0.085869f, 0.355997f, -0.145835f, -0.180658f, -0.167295f, 0.092281f, -0.242474f, -0.162242f, 0.122481f, 0.126593f, 0.186017f, -0.262629f, 0.285005f, 0.141399f, -0.298567f, -0.039930f, 0.229409f, -0.240389f, -0.079275f, -0.150981f, 0.122648f, 0.215266f, 0.127785f, -0.015938f, -0.278566f, 0.266529f, -0.068832f, -0.127702f, 0.118081f, -0.121756f, 0.275317f, 0.103405f, 0.014961f, -0.128091f, -0.094065f, 0.131240f, -0.206984f, 0.106874f, 0.153484f, -0.063133f, -0.071847f, -0.049694f, -0.143449f, 0.300559f, -0.242686f, -0.174488f, -0.172703f, -0.136059f, 0.238176f, 0.019180f, 0.163013f, 0.241686f, -0.168334f, 0.091354f, 0.155377f, 0.080366f, 0.208607f, -0.141939f, -0.294963f, -0.165939f, -0.275135f, 0.270030f, 0.024318f, 0.167095f, -0.161887f, 0.171111f, -0.074820f, 0.222296f, 0.194011f, -0.151082f, 0.209222f, 0.248387f, 0.069375f, -0.147777f, -0.091200f, -0.140280f, 0.108382f, -0.154386f, 0.015699f, -0.116570f, 0.180807f, -0.064206f, -0.172967f, -0.085057f, 0.178780f, 0.058237f, 0.252860f, 0.288284f, 0.325261f, 0.254087f, -0.083354f, -0.232219f, -0.001246f, -0.101406f, -0.129605f, 0.271619f, 0.109759f, -0.280671f, 0.100134f, 0.227788f, -0.111398f, -0.307927f, 0.182823f, 0.017553f, 0.005587f, -0.021675f, 0.000977f, -0.002576f, 0.024412f, 0.015335f, -0.272886f, 0.162479f, -0.289805f, -0.108330f, -0.039101f, 0.269440f, -0.213263f, -0.248695f, -0.022332f, 0.168896f, -0.094312f, -0.155059f, -0.226983f, 0.050310f, 0.205217f, -0.080075f, 0.000852f, -0.284828f, 0.254407f, -0.099041f, 0.258594f, 0.267370f, 0.287898f, 0.035548f, 0.272864f, -0.108580f, -0.065661f, -0.313115f, 0.082265f, 0.236244f, 0.133509f, -0.044716f, 0.217104f, -0.305502f, -0.055328f, 0.188240f, 0.170957f, -0.093060f, -0.277124f, 0.218322f, 0.136779f, -0.106962f, 0.170239f, 0.101558f, -0.246897f, -0.002889f, -0.150482f, 0.268980f, -0.308651f, -0.085577f, -0.292842f, 0.074379f, 0.179962f, 0.150521f, 0.167300f, 0.130293f, 0.018353f, -0.162165f, 0.256471f, 0.300290f, -0.085337f, -0.127021f, -0.179798f, 0.117597f, -0.195440f, 0.217187f, -0.249235f, 0.216284f, -0.040174f, -0.254982f, 0.291248f, 0.076814f, 0.294568f, -0.041265f, 0.109839f, -0.280049f, 0.014105f, -0.277907f, -0.271262f, 0.305475f, -0.098061f, -0.183756f, 0.255876f, 0.257319f, 0.061958f, -0.033658f, -0.085773f, -0.244617f, -0.267815f, -0.140307f, 0.237341f, -0.265354f, 0.017921f, -0.211591f, 0.175396f, -0.140985f, -0.291064f, 0.132792f, 0.183815f, -0.131259f, 0.240933f, 0.158770f, 0.141292f, 0.018729f, 0.095603f, 0.269619f, 0.059010f, 0.285235f, 0.101170f, 0.226023f, 0.267296f, 0.072639f, -0.238210f, 0.291588f, 0.286400f, -0.168880f, 0.281050f, -0.130966f, -0.075934f, -0.262446f, 0.044624f, 0.064945f, 0.312969f, 0.143253f, -0.298417f, -0.056101f, 0.082668f, 0.217434f, -0.172016f, -0.124878f, 0.126625f, -0.292338f, 0.013152f, 0.202734f, 0.099778f, 0.246221f, -0.134457f, 0.147581f, -0.207200f, -0.153210f, 0.120629f, 0.014122f, -0.176981f, -0.157897f, -0.210141f, -0.312709f, 0.030181f, -0.269622f, 0.138244f, -0.258659f, 0.005219f, -0.016120f, 0.251472f, -0.089172f, -0.059681f, 0.297807f, -0.256553f, 0.154993f, 0.267866f, 0.066176f, -0.303221f, 0.068732f, -0.022203f, -0.189255f, 0.060888f, 0.278415f, -0.020352f, 0.100707f, -0.065659f, -0.319840f, -0.000291f, 0.028843f, -0.079445f, 0.275313f, -0.066277f, -0.001113f, -0.124522f, 0.041091f, -0.014018f, -0.159294f, 0.066361f, -0.097657f, 0.116110f, 0.229321f, -0.197378f, -0.292430f, -0.055750f, -0.002377f, -0.070160f, -0.143351f, -0.136457f, -0.160222f, 0.192427f, -0.099256f, 0.027662f, -0.112683f, 0.139278f, 0.235401f, -0.170501f, 0.120284f, 0.196939f, -0.047977f, -0.252237f, 0.150451f, 0.154117f, -0.048620f, -0.230784f, -0.270032f, -0.185062f, -0.119379f, 0.237868f, -0.249137f, 0.215982f, -0.187755f, 0.266990f, -0.293906f, 0.247871f, 0.221639f, -0.099095f, 0.303371f, -0.201608f, 0.079257f, 0.126352f, 0.143214f, -0.234755f, -0.269051f, 0.231631f, 0.082103f, -0.019597f, -0.293926f, -0.287952f, 0.205261f, 0.024048f, 0.338932f, -0.214273f, -0.273832f, -0.084145f, -0.070235f, 0.111857f, -0.171543f, 0.041940f, -0.124316f, 0.024785f, -0.251865f, 0.245302f, -0.261306f, 0.142388f, -0.185600f, -0.278362f, 0.139472f, -0.157584f, -0.155870f, 0.203213f, 0.079252f, -0.297897f, 0.286254f, -0.289445f, -0.167395f, -0.022980f, -0.314661f, -0.147862f, 0.152855f, -0.253902f, 0.115230f, -0.266170f, -0.193786f, 0.280817f, -0.161877f, 0.146383f, -0.151376f, 0.105810f, 0.017597f, 0.082905f, 0.092721f, 0.023379f, -0.150553f, 0.236478f, 0.171019f, 0.034227f, -0.005092f, -0.142878f, -0.017309f, -0.040141f, 0.028061f, -0.044167f, -0.078926f, 0.254730f, -0.025114f, -0.222657f, 0.063375f, 0.120129f, 0.170190f, 0.314852f, 0.182953f, -0.300174f, 0.071256f, 0.088033f, 0.261166f, 0.242345f, 0.036797f, -0.155439f, 0.187144f, 0.018063f, -0.295247f, -0.157162f, 0.210433f, -0.049090f, 0.219594f, -0.145649f, 0.006560f, 0.189725f, -0.063156f, -0.144321f, 0.136518f, 0.133433f, -0.015122f, 0.166087f, -0.050960f, -0.268038f, 0.304968f, -0.232344f, 0.241623f, -0.021335f, -0.020915f, 0.236834f, 0.082837f, 0.166339f, -0.215149f, -0.264816f, -0.156602f, 0.012299f, -0.050964f, -0.088526f, -0.021406f, -0.123468f, -0.067682f, 0.251442f, -0.094945f, 0.205034f, -0.040591f, -0.088620f, 0.046548f, 0.298106f, -0.174011f, 0.045489f, 0.266196f, -0.013788f, 0.254103f, -0.046418f, -0.260143f, 0.001549f, 0.376339f, 0.056531f, -0.205874f, -0.309970f, -0.182893f, 0.361817f, 0.002191f, 0.020650f, 0.189414f, 0.247664f, -0.066686f, 0.245750f, -0.063514f, 0.098800f, 0.302644f, 0.061381f, -0.100067f, 0.035259f, -0.257758f, -0.024332f, -0.125967f, 0.191229f, 0.047950f, 0.240549f, -0.276038f, 0.214183f, 0.031946f, 0.058161f, 0.140983f, 0.318476f, 0.357450f, -0.023079f, -0.038235f, -0.246745f, 0.087992f, 0.299533f, 0.303641f, -0.042703f, -0.200629f, 0.155670f, 0.041379f, -0.061289f, 0.417024f, 0.241236f, 0.181158f, -0.081627f, 0.099023f, -0.133176f, 0.016716f, 0.278544f, 0.419667f, -0.201213f, 0.341310f, -0.295924f, -0.334668f, -0.235154f, -0.334216f, -0.191998f, -0.308662f, -0.006747f, -0.262693f, 0.248781f, 0.320387f, -0.076105f, -0.061630f, -0.302313f, -0.191739f, 0.260502f, -0.271514f, -0.241621f, 0.039038f, 0.206209f, -0.332500f, -0.116490f, 0.243913f, -0.000731f, 0.154525f, 0.254935f, -0.008877f, -0.011795f, 0.211635f, 0.076987f, -0.057778f, -0.304665f, 0.316544f, -0.241781f, 0.016738f, 0.113101f, 0.019007f, -0.235489f, 0.244908f, 0.066611f, 0.092478f, 0.049594f, 0.071724f, 0.236915f, -0.055667f, -0.222817f, 0.059582f, -0.171454f, -0.176911f, -0.321792f, 0.161307f, -0.112893f, 0.245604f, 0.008771f, -0.152754f, 0.096857f, -0.094480f, -0.221389f, -0.097897f, 0.022234f, -0.247861f, 0.282108f, 0.220841f, -0.294868f, 0.176759f, 0.214363f, 0.210240f, 0.011379f, -0.122992f, 0.044424f, -0.234617f, -0.020733f, 0.290825f, -0.150057f, -0.053059f, -0.155946f, 0.157721f, 0.178671f, -0.033549f, -0.194497f, 0.017828f, -0.173795f, -0.053526f, -0.158654f, 0.203355f, 0.243300f, 0.045197f, 0.000504f, 0.309259f, -0.009792f, -0.207331f, -0.076088f, -0.090354f, 0.303207f, -0.156539f, -0.289186f, -0.211536f, -0.211929f };
static const float room_occupancy_forecast_layer_6_biases[30] = { 0.000000f, -0.002983f, -0.022694f, -0.088322f, 0.029777f, -0.039274f, 0.018455f, -0.005167f, 0.034387f, 0.013606f, 0.042513f, 0.015745f, 0.000000f, -0.059811f, 0.000000f, -0.016034f, -0.033956f, 0.000000f, 0.000000f, 0.000000f, 0.137721f, 0.032348f, 0.030917f, -0.000242f, 0.034799f, 0.105803f, -0.054220f, -0.015673f, -0.005251f, 0.062197f };
static const float room_occupancy_forecast_layer_6_weights[900] = { 0.285926f, 0.008274f, -0.144258f, 0.083935f, -0.257302f, 0.087612f, -0.121783f, 0.146810f, 0.063516f, 0.269321f, 0.191603f, 0.218731f, -0.060833f, -0.260245f, -0.187090f, 0.151074f, 0.016612f, -0.100065f, -0.024728f, 0.150444f, 0.137533f, 0.049323f, 0.078440f, 0.070930f, -0.011018f, 0.279565f, 0.060471f, -0.057350f, -0.225369f, 0.384436f, 0.233751f, -0.187945f, 0.117603f, 0.280461f, -0.159679f, 0.096574f, 0.082481f, 0.095380f, -0.300027f, 0.027785f, 0.156725f, 0.071465f, -0.121676f, -0.305492f, 0.212781f, -0.056111f, -0.255314f, -0.154838f, -0.161129f, 0.213457f, 0.061424f, 0.227158f, 0.074397f, 0.265485f, -0.179917f, 0.244969f, 0.053651f, -0.188043f, 0.190164f, -0.105999f, 0.240206f, -0.115556f, 0.305255f, 0.285004f, 0.042743f, 0.194657f, -0.279046f, -0.096544f, -0.299307f, 0.042563f, -0.080816f, -0.097199f, -0.298234f, 0.327231f, -0.195153f, -0.186341f, 0.133154f, -0.041260f, -0.200003f, 0.041156f, 0.209488f, -0.138173f, 0.055282f, -0.257211f, -0.057323f, -0.093883f, 0.245145f, -0.260895f, 0.123090f, 0.010668f, 0.226796f, -0.221293f, 0.141561f, -0.068033f, -0.039653f, -0.221698f, 0.118775f, 0.048900f, 0.234819f, 0.043731f, -0.000503f, 0.003898f, 0.023022f, 0.295677f, 0.044359f, 0.073137f, -0.128445f, -0.251660f, -0.299673f, -0.228664f, -0.104132f, 0.008842f, -0.009138f, -0.179417f, 0.136224f, 0.251375f, -0.000908f, -0.129665f, 0.300633f, 0.219953f, -0.056143f, 0.102444f, 0.134490f, -0.150785f, -0.263344f, -0.023165f, 0.026232f, 0.181148f, -0.151659f, 0.225499f, -0.297043f, 0.196309f, -0.062901f, -0.139563f, 0.307836f, 0.011190f, -0.040435f, 0.092552f, -0.293293f, 0.073564f, 0.125153f, -0.298657f, 0.095080f, -0.187393f, -0.163393f, -0.214581f, 0.173423f, 0.096436f, -0.213509f, 0.257774f, -0.237257f, -0.085063f, 0.227154f, 0.290127f, -0.072349f, 0.115524f, 0.128012f, 0.014392f, -0.082559f, 0.231230f, 0.040070f, 0.165840f, -0.212417f, 0.048726f, 0.085057f, -0.263613f, -0.002570f, -0.265640f, 0.080030f, -0.197208f, 0.338445f, 0.151452f, 0.054233f, 0.194549f, -0.176062f, -0.158767f, 0.254922f, -0.230468f, 0.099616f, 0.091077f, -0.063289f, 0.069570f, -0.153857f, -0.014065f, 0.082684f, -0.240506f, 0.315844f, 0.110066f, 0.165935f, -0.021157f, -0.100924f, -0.135722f, 0.314702f, -0.004327f, 0.220629f, 0.075228f, 0.119564f, -0.065629f, 0.265318f, 0.292533f, -0.142137f, -0.157541f, 0.068271f, -0.267312f, 0.197132f, -0.177555f, 0.238035f, 0.093395f, 0.111905f, 0.045143f, -0.222172f, -0.242963f, -0.284452f, 0.114973f, -0.081375f, -0.094866f, 0.010276f, -0.047642f, -0.003662f, -0.161131f, -0.101393f, -0.249639f, 0.075351f, 0.240210f, 0.115088f, -0.106328f, 0.113463f, 0.066998f, -0.091101f, 0.167506f, -0.170906f, 0.301650f, -0.187571f, 0.052512f, 0.060962f, 0.055393f, 0.277943f, -0.063494f, -0.104856f, -0.264146f, 0.077756f, -0.040484f, -0.265244f, -0.227227f, -0.259311f, 0.167003f, -0.185697f, 0.167262f, 0.268850f, 0.074734f, 0.084951f, -0.313016f, 0.256478f, -0.049847f, 0.001027f, 0.114739f, 0.116186f, -0.057293f, 0.146820f, -0.058008f, 0.113898f, -0.171249f, 0.235685f, -0.229854f, -0.175978f, 0.041775f, -0.146412f, -0.305547f, 0.049610f, 0.207639f, -0.256824f, -0.250530f, 0.317215f, -0.189335f, -0.048489f, 0.221325f, 0.265199f, 0.116109f, -0.274404f, 0.252915f, -0.076473f, 0.294544f, 0.125267f, -0.126443f, 0.141204f, 0.218476f, 0.127070f, 0.223180f, -0.166283f, 0.117888f, -0.199054f, -0.015655f, -0.076315f, 0.123424f, 0.276773f, 0.315824f, -0.272508f, 0.028091f, 0.019882f, -0.131216f, 0.215333f, -0.181646f, -0.041491f, 0.021876f, 0.062103f, -0.204592f, -0.269745f, 0.315197f, 0.126429f, 0.110551f, 0.014705f, 0.277144f, 0.169142f, -0.168489f, -0.035067f, 0.107294f, -0.268047f, 0.206875f, 0.036507f, 0.100772f, -0.281603f, 0.034180f, -0.088244f, 0.273814f, -0.111816f, 0.170708f, -0.173080f, -0.273022f, 0.043352f, 0.186221f, -0.172368f, -0.222976f, 0.152514f, -0.190326f, 0.239499f, 0.216729f, 0.287290f, -0.202249f, -0.067061f, 0.056906f, 0.253544f, 0.225554f, -0.201474f, 0.094082f, -0.172928f, -0.182393f, 0.274102f, -0.306806f, -0.226195f, -0.111318f, -0.045230f, 0.088315f, -0.024576f, -0.318656f, -0.254319f, 0.227530f, -0.315905f, 0.282507f, -0.161171f, 0.005666f, 0.063257f, 0.214603f, -0.040702f, 0.140410f, -0.226586f, 0.099291f, 0.193408f, 0.179013f, 0.231293f, 0.169617f, -0.001265f, -0.035078f, 0.260925f, -0.173335f, -0.085292f, 0.105397f, 0.160354f, 0.207173f, 0.284240f, -0.281988f, -0.224179f, 0.233941f, -0.175646f, -0.018298f, 0.154877f, -0.070627f, -0.323533f, 0.225813f, 0.201114f, 0.030912f, 0.146393f, 0.233461f, -0.114076f, 0.037762f, 0.041904f, 0.139950f, 0.071117f, -0.162956f, -0.050928f, -0.222102f, 0.002402f, -0.014291f, -0.291176f, 0.225738f, 0.301623f, 0.075948f, 0.209360f, 0.085891f, -0.086637f, 0.082915f, 0.241510f, -0.150845f, -0.315693f, 0.288847f, -0.197072f, -0.312007f, -0.092405f, 0.086896f, 0.310925f, 0.135295f, 0.113602f, -0.050601f, -0.255153f, -0.305188f, -0.014095f, 0.169126f, -0.087025f, 0.101598f, 0.292877f, -0.223191f, 0.223683f, -0.264924f, 0.234720f, 0.023893f, -0.124907f, -0.087591f, 0.186793f, 0.237455f, -0.244527f, 0.296550f, -0.115839f, 0.193667f, -0.070771f, 0.069038f, 0.024497f, -0.014290f, -0.118301f, 0.124227f, -0.091569f, 0.092209f, -0.271605f, 0.185672f, -0.090883f, 0.163891f, -0.096715f, 0.041670f, 0.195975f, -0.309641f, -0.257240f, 0.037291f, 0.049353f, 0.100385f, -0.024522f, -0.156071f, 0.140378f, 0.153859f, -0.188066f, -0.149580f, 0.046086f, -0.274776f, -0.134929f, 0.172158f, -0.200589f, -0.023697f, 0.241089f, -0.231708f, 0.042633f, -0.082312f, -0.095752f, -0.213260f, 0.101788f, 0.001610f, 0.030860f, -0.243009f, -0.049948f, -0.272825f, 0.198828f, -0.021681f, 0.247473f, -0.088845f, -0.081761f, 0.297347f, -0.161643f, -0.015910f, 0.014169f, -0.113615f, 0.281991f, 0.023166f, -0.194499f, -0.168066f, 0.070137f, 0.313853f, 0.142567f, -0.305180f, 0.289773f, 0.015603f, -0.148245f, 0.011514f, 0.190533f, 0.373174f, -0.285705f, -0.178815f, 0.187300f, -0.296843f, -0.082752f, -0.153982f, -0.020784f, 0.076369f, 0.287440f, 0.026846f, -0.037240f, -0.224875f, -0.285704f, 0.118105f, 0.099610f, 0.218365f, 0.158504f, -0.039573f, -0.155890f, -0.068880f, -0.273389f, 0.042004f, 0.205288f, 0.293444f, 0.110259f, 0.179271f, -0.219771f, 0.242363f, -0.085965f, 0.303096f, 0.146242f, 0.273033f, -0.287841f, 0.208333f, 0.146203f, 0.229553f, -0.059377f, 0.260225f, 0.133931f, -0.230768f, 0.093961f, -0.069588f, -0.276840f, -0.171655f, 0.139394f, 0.200657f, -0.074719f, -0.256574f, -0.252435f, -0.178199f, -0.170005f, 0.323689f, 0.244348f, 0.240489f, -0.124199f, -0.298269f, 0.235250f, -0.044882f, -0.095802f, 0.087653f, 0.229693f, -0.280676f, 0.028597f, 0.197989f, -0.235423f, 0.275545f, 0.173206f, -0.011207f, -0.087425f, 0.140936f, 0.046590f, -0.282206f, -0.041931f, -0.086188f, 0.187434f, -0.032225f, 0.114050f, -0.194403f, 0.200941f, 0.208177f, 0.311382f, 0.262235f, 0.224436f, -0.068912f, 0.166588f, 0.248328f, 0.060740f, 0.237607f, -0.060585f, 0.239045f, -0.122352f, 0.132350f, 0.243916f, -0.233344f, -0.066786f, -0.236814f, -0.013655f, -0.188417f, 0.179362f, -0.227470f, -0.176317f, 0.280602f, -0.029050f, -0.002142f, 0.242849f, 0.103415f, 0.268585f, -0.173474f, -0.279869f, -0.154055f, -0.018290f, -0.080493f, 0.394914f, -0.292338f, -0.152612f, 0.101946f, -0.056211f, 0.264304f, 0.188483f, -0.045384f, -0.286699f, -0.246226f, -0.075275f, -0.219108f, 0.214146f, 0.255101f, -0.033160f, -0.234564f, 0.187724f, 0.054564f, -0.264923f, -0.285813f, 0.071288f, 0.138177f, -0.050990f, -0.151647f, -0.021991f, -0.178416f, -0.095036f, -0.002373f, 0.336845f, -0.112902f, -0.263433f, -0.135748f, 0.312252f, 0.041949f, -0.169886f, -0.322793f, -0.202564f, -0.096800f, 0.195326f, 0.204922f, 0.275551f, 0.266829f, -0.113759f, -0.269195f, 0.049406f, 0.049135f, -0.055396f, -0.031244f, 0.249741f, 0.012595f, -0.047871f, -0.120806f, -0.137299f, 0.022518f, -0.009440f, 0.083297f, -0.253286f, 0.037736f, -0.154998f, -0.053255f, -0.040100f, 0.150825f, 0.269331f, 0.355848f, -0.322953f, -0.321943f, -0.170176f, -0.072878f, -0.201810f, -0.225844f, 0.269300f, 0.112729f, 0.225727f, 0.076079f, 0.297178f, 0.221519f, -0.120062f, 0.295113f, 0.025117f, 0.091630f, -0.274711f, -0.290294f, 0.168051f, -0.300032f, 0.114744f, -0.291518f, 0.039933f, -0.125935f, 0.290868f, 0.213190f, -0.267035f, -0.314607f, -0.233492f, 0.214545f, -0.157381f, -0.319576f, 0.085245f, -0.209873f, -0.300556f, -0.279320f, -0.099128f, -0.185375f, -0.131603f, -0.037996f, -0.121317f, -0.321697f, -0.220565f, -0.063780f, -0.075138f, -0.234790f, 0.134766f, 0.162221f, -0.085977f, -0.253313f, 0.291805f, 0.032249f, 0.194148f, 0.130242f, -0.239188f, -0.218210f, -0.061313f, -0.310563f, -0.040482f, -0.177924f, 0.066669f, -0.162607f, 0.086554f, -0.221702f, 0.062022f, 0.251012f, 0.161430f, 0.029346f, -0.122994f, -0.262817f, 0.259544f, -0.293546f, -0.227750f, -0.205917f, -0.079927f, 0.226433f, -0.029964f, -0.087524f, -0.294852f, 0.008773f, 0.149398f, 0.193044f, 0.015746f, -0.119520f, -0.053104f, 0.316544f, 0.188183f, -0.050264f, -0.230345f, -0.147464f, -0.137369f, 0.043830f, -0.203052f, -0.065752f, 0.276063f, 0.077364f, 0.221750f, 0.201838f, 0.307873f, 0.246391f, 0.215381f, 0.281299f, 0.137080f, -0.208228f, 0.027838f, 0.101491f, 0.153725f, -0.012717f, 0.237948f, 0.143304f, -0.206214f, 0.264801f, 0.141860f, -0.194919f, 0.042711f, -0.058794f, -0.065695f, -0.205142f, -0.232855f, -0.131659f, -0.180743f, -0.343929f, -0.042816f, -0.164580f, 0.280107f, 0.230514f, -0.180007f, 0.108626f, -0.271305f, 0.168362f, -0.103182f, -0.160059f, 0.265118f, 0.272951f, -0.168815f, 0.109594f, -0.263578f, -0.313155f, 0.005858f, 0.161788f, 0.031489f, 0.145365f, 0.200596f, 0.269525f, 0.314678f, -0.102626f, 0.115187f, -0.113072f, -0.035358f, 0.007359f, 0.206311f, -0.303278f, 0.224844f, 0.068428f, 0.160881f, 0.053476f, -0.202594f, 0.202951f, -0.198573f, -0.058804f, 0.084945f, -0.075798f, 0.280891f, 0.218811f, 0.306794f, 0.261183f, 0.248040f, 0.015159f, -0.306677f, 0.122950f, -0.079309f, -0.096474f, -0.151750f, -0.017237f, -0.136101f, -0.005214f, 0.235619f, 0.121693f, -0.118511f, -0.044677f, 0.207388f, 0.033659f, 0.079511f, -0.182282f, -0.006929f, 0.214361f, -0.092726f, -0.206417f, 0.140586f, -0.130373f, -0.001169f, -0.196581f, -0.012676f, 0.012477f, 0.336797f, -0.220165f, -0.010320f, 0.080129f, -0.180773f, -0.065069f, -0.100620f, -0.140474f, -0.221241f, -0.209537f, -0.113975f, 0.152201f, 0.175765f, 0.275020f, 0.090921f, 0.112086f, -0.240830f, -0.111718f, -0.047851f, 0.354493f };
static const float room_occupancy_forecast_layer_7_biases[30] = { 0.057947f, -0.061578f, -0.000862f, 0.000683f, -0.060545f, 0.012991f, -0.010772f, -0.042619f, 0.000000f, 0.000000f, 0.007076f, -0.042980f, 0.057021f, -0.056627f, 0.000000f, -0.020933f, -0.077335f, -0.014897f, -0.008234f, 0.008591f, -0.008174f, -0.085237f, 0.004906f, 0.004353f, -0.046282f, 0.049160f, -0.017049f, -0.039813f, -0.001385f, -0.046030f };
static const float room_occupancy_forecast_layer_7_weights[900] = { 0.211819f, 0.082296f, 0.103382f, -0.020691f, 0.288988f, 0.231471f, -0.079792f, 0.117291f, -0.121375f, -0.130095f, -0.143449f, 0.128016f, -0.175808f, 0.233897f, 0.273167f, 0.149951f, 0.315805f, 0.268410f, 0.121767f, -0.247795f, -0.138134f, -0.065293f, -0.022926f, -0.033249f, -0.197057f, -0.159187f, -0.046739f, -0.183880f, 0.180135f, -0.280164f, -0.309536f, 0.155069f, -0.283410f, -0.301254f, 0.011714f, -0.137745f, -0.040263f, 0.244495f, 0.014642f, -0.306647f, 0.084417f, 0.126578f, -0.124164f, 0.183655f, -0.315685f, 0.142788f, -0.239687f, -0.266025f, -0.163986f, -0.138866f, -0.216780f, 0.061581f, -0.313188f, -0.068436f, -0.151311f, -0.051093f, -0.244609f, 0.032713f, 0.272687f, 0.171576f, 0.118724f, 0.104647f, 0.182020f, -0.003682f, -0.259401f, 0.006544f, 0.140534f, -0.252638f, -0.206141f, -0.301629f, -0.145944f, 0.074750f, 0.155102f, -0.098036f, -0.301078f, 0.291346f, 0.005328f, 0.162169f, -0.259077f, -0.186055f, -0.055454f, -0.008343f, 0.205775f, 0.026591f, 0.220173f, -0.116207f, -0.307413f, 0.051586f, 0.296249f, 0.030001f, -0.145947f, 0.042560f, -0.041931f, -0.041947f, 0.217153f, 0.105367f, -0.143696f, 0.049062f, -0.139760f, 0.053273f, -0.090951f, 0.177898f, -0.164147f, 0.037294f, 0.274947f, -0.184165f, -0.245337f, -0.243004f, -0.168877f, 0.189892f, -0.258549f, 0.081302f, 0.262304f, 0.138894f, 0.260175f, -0.195127f, -0.298990f, 0.129686f, -0.011193f, 0.096581f, -0.028531f, -0.244116f, 0.136377f, 0.128431f, 0.052298f, -0.097135f, -0.078660f, -0.165505f, 0.256225f, -0.219126f, -0.113221f, -0.032215f, -0.227424f, 0.003999f, -0.105498f, -0.262855f, 0.031487f, -0.250927f, -0.241331f, -0.010918f, -0.288567f, 0.266008f, -0.054246f, 0.211430f, 0.141609f, 0.001400f, 0.244285f, 0.136224f, 0.116315f, -0.131939f, -0.133779f, 0.204586f, -0.163243f, -0.307024f, 0.220721f, -0.019113f, -0.088987f, 0.239377f, -0.203210f, -0.029245f, -0.183109f, 0.209351f, -0.260473f, -0.060547f, -0.291110f, -0.018928f, 0.126012f, 0.156500f, -0.176024f, -0.288760f, -0.200497f, 0.013661f, -0.221273f, -0.245089f, 0.191406f, -0.164739f, -0.294072f, -0.239566f, -0.192432f, 0.071214f, 0.321534f, 0.243372f, -0.242256f, -0.316970f, -0.226012f, 0.227789f, 0.004499f, -0.067839f, -0.076173f, 0.313813f, 0.254762f, -0.083855f, 0.002269f, -0.073703f, 0.096332f, 0.154146f, 0.069611f, -0.280625f, -0.102738f, 0.067357f, -0.003448f, -0.264319f, 0.288661f, 0.194663f, 0.196764f, 0.352657f, -0.232138f, 0.251225f, 0.232857f, -0.051426f, 0.280399f, 0.188301f, 0.204164f, -0.011931f, 0.289875f, 0.163560f, 0.181739f, 0.041288f, 0.168421f, -0.067853f, -0.055606f, 0.075618f, -0.154356f, -0.171639f, 0.072307f, 0.133463f, -0.276567f, -0.011987f, -0.215265f, 0.231111f, 0.030973f, 0.063541f, 0.040804f, 0.239887f, 0.222760f, 0.068519f, 0.294004f, 0.106923f, -0.047705f, -0.128959f, 0.180093f, -0.031563f, -0.047668f, -0.248086f, 0.013713f, -0.023307f, -0.074587f, -0.228547f, -0.311512f, 0.264966f, 0.202233f, 0.078913f, -0.028311f, 0.286683f, -0.256748f, -0.021229f, 0.411734f, -0.059108f, 0.123946f, 0.322499f, 0.159879f, 0.044304f, -0.231360f, -0.054381f, -0.153856f, 0.319687f, -0.000400f, -0.151223f, 0.393674f, 0.003845f, 0.143825f, 0.272709f, -0.062514f, 0.168344f, 0.037653f, 0.104547f, 0.268593f, 0.018324f, -0.188572f, -0.005319f, 0.134498f, -0.070685f, 0.070991f, -0.262366f, -0.085119f, 0.117861f, 0.028652f, -0.188417f, 0.338112f, -0.037011f, 0.023291f, -0.321612f, -0.100429f, 0.021468f, -0.168950f, -0.169587f, -0.026754f, 0.068683f, 0.004537f, -0.083346f, 0.046429f, -0.064670f, -0.028254f, -0.128164f, -0.186572f, 0.323683f, -0.049843f, -0.057423f, 0.166908f, -0.019906f, 0.295123f, 0.175716f, 0.351693f, 0.006444f, -0.142037f, 0.245841f, 0.055452f, -0.195599f, 0.148467f, 0.266654f, 0.081231f, -0.250304f, -0.102584f, 0.272211f, -0.210715f, 0.216025f, 0.247335f, 0.157502f, -0.098226f, 0.314213f, 0.099701f, -0.239559f, -0.124468f, 0.025577f, -0.181798f, 0.117439f, -0.022696f, 0.303738f, -0.063729f, -0.024010f, -0.025072f, -0.085882f, 0.126422f, -0.042517f, -0.269215f, -0.055232f, 0.080099f, -0.254731f, 0.117381f, 0.283334f, -0.196897f, -0.247544f, -0.229789f, -0.079586f, 0.099597f, -0.138944f, -0.076218f, 0.021604f, -0.088724f, 0.063966f, -0.189925f, -0.308724f, 0.255767f, -0.069779f, -0.034799f, -0.076414f, 0.264535f, 0.164524f, 0.181521f, -0.195831f, 0.145547f, 0.071286f, 0.144581f, 0.313280f, -0.183976f, -0.191832f, 0.280478f, -0.313309f, 0.078641f, 0.067594f, -0.010654f, 0.094165f, -0.188706f, -0.254355f, 0.200514f, -0.105818f, 0.285190f, -0.256945f, 0.101109f, -0.148941f, -0.262632f, 0.018967f, -0.027428f, -0.030207f, -0.296035f, -0.139417f, -0.112430f, 0.020102f, -0.005166f, -0.144093f, -0.140689f, 0.079404f, -0.116070f, 0.134941f, -0.241116f, -0.187527f, 0.296948f, -0.114066f, -0.069217f, 0.265464f, -0.048798f, 0.160684f, -0.072958f, 0.220039f, -0.066595f, -0.016035f, 0.149243f, 0.265092f, 0.131322f, 0.223061f, -0.020370f, -0.000788f, -0.237911f, 0.189344f, -0.254340f, -0.040483f, -0.283566f, 0.230111f, 0.046971f, 0.277402f, 0.042123f, -0.046863f, -0.192939f, 0.178089f, -0.128196f, 0.182040f, -0.286106f, -0.243866f, 0.303502f, 0.050743f, -0.110032f, -0.152078f, 0.055382f, 0.106357f, 0.257428f, -0.282441f, -0.142128f, 0.031943f, 0.089284f, -0.004787f, 0.260803f, 0.293708f, 0.153205f, 0.133504f, 0.093753f, 0.338364f, 0.204171f, 0.146201f, -0.085354f, 0.124153f, 0.048308f, -0.280257f, -0.229183f, -0.147427f, 0.164540f, -0.159087f, -0.145125f, 0.117020f, -0.219694f, 0.066593f, -0.311129f, 0.202599f, 0.105673f, -0.103490f, 0.261167f, 0.207960f, -0.020798f, -0.054266f, 0.069417f, -0.229433f, -0.031883f, 0.070100f, -0.045977f, 0.112134f, 0.153998f, 0.143109f, -0.102775f, 0.248836f, -0.168909f, -0.252989f, 0.244781f, -0.056033f, 0.151414f, 0.026128f, 0.094886f, 0.110755f, 0.171324f, 0.155104f, 0.308517f, 0.269569f, -0.096633f, -0.238523f, 0.011946f, 0.171638f, 0.012448f, -0.057949f, 0.239142f, 0.104930f, -0.310182f, 0.104750f, -0.202289f, 0.240181f, 0.287078f, -0.104455f, 0.262240f, 0.085321f, -0.232366f, -0.018156f, 0.053150f, -0.164583f, 0.181044f, 0.117670f, 0.261106f, 0.141950f, -0.149088f, -0.076365f, -0.104292f, -0.132285f, 0.269370f, -0.135016f, 0.252898f, -0.170382f, 0.190221f, -0.313081f, -0.068251f, 0.148810f, 0.283125f, 0.028558f, 0.177115f, -0.259220f, -0.086570f, -0.221978f, 0.100108f, 0.307266f, 0.106317f, 0.225556f, -0.114399f, -0.103067f, -0.144096f, -0.133936f, -0.204002f, -0.001842f, 0.211092f, 0.132511f, -0.283815f, 0.235357f, -0.160281f, -0.045334f, 0.066102f, -0.172284f, -0.151834f, -0.291766f, -0.101961f, -0.211215f, 0.165428f, -0.154171f, -0.223553f, -0.223946f, 0.052810f, -0.185206f, -0.000862f, 0.220487f, 0.084777f, -0.143967f, -0.307503f, -0.294249f, -0.245440f, -0.007760f, -0.086677f, -0.093750f, -0.215448f, 0.104839f, -0.147139f, 0.011000f, -0.128075f, 0.126621f, -0.234498f, -0.298939f, -0.254165f, -0.282844f, -0.140188f, 0.151710f, -0.196416f, -0.085068f, 0.052796f, -0.218064f, 0.128458f, 0.169439f, -0.302919f, -0.279205f, 0.050072f, 0.106981f, 0.177544f, -0.097848f, -0.220149f, 0.283823f, -0.263231f, -0.220462f, -0.158563f, 0.190113f, -0.307712f, -0.014103f, 0.243350f, 0.254281f, -0.004011f, 0.003098f, 0.123570f, -0.019587f, 0.254988f, -0.268733f, 0.300592f, -0.276060f, -0.101882f, -0.163105f, 0.166492f, -0.181181f, -0.026262f, 0.145048f, -0.013009f, -0.310138f, 0.291629f, -0.078261f, 0.025833f, -0.051696f, 0.219762f, 0.289921f, -0.312415f, -0.163733f, 0.250552f, -0.004488f, 0.106294f, 0.283424f, 0.057951f, -0.281186f, 0.304316f, 0.134378f, 0.179914f, -0.162922f, 0.137529f, 0.199987f, -0.095794f, 0.031096f, -0.296362f, -0.145167f, -0.142609f, -0.010244f, 0.198579f, -0.194696f, 0.309927f, 0.262900f, -0.135142f, 0.261281f, 0.252767f, 0.082932f, 0.121037f, 0.288102f, -0.151628f, 0.205486f, -0.021819f, -0.236949f, 0.144268f, -0.018764f, 0.100315f, 0.045764f, 0.006916f, 0.014304f, -0.168195f, -0.154092f, 0.027383f, 0.265092f, 0.141623f, -0.038621f, -0.168948f, 0.324401f, 0.026580f, 0.226325f, -0.070783f, -0.308776f, -0.094856f, -0.266968f, -0.229011f, -0.226158f, -0.313888f, 0.270871f, 0.111926f, -0.004561f, -0.029160f, -0.017133f, 0.089132f, 0.085821f, 0.250006f, 0.257180f, 0.176748f, -0.260208f, 0.052742f, 0.243365f, -0.200840f, -0.190918f, 0.303375f, -0.236265f, 0.007028f, 0.110686f, 0.197684f, -0.171889f, 0.010226f, 0.114447f, -0.230957f, -0.170633f, -0.148901f, -0.081976f, -0.037895f, 0.225082f, -0.174749f, -0.233138f, -0.003886f, 0.333640f, -0.275403f, -0.233314f, -0.007663f, -0.113496f, 0.141006f, 0.307116f, 0.306625f, -0.264341f, -0.106697f, -0.095238f, -0.185395f, 0.169962f, 0.025285f, 0.331973f, -0.318344f, -0.243317f, -0.264974f, 0.065723f, 0.222417f, 0.268196f, -0.269727f, -0.106098f, -0.199232f, 0.094144f, -0.093766f, 0.028982f, -0.142718f, 0.091546f, -0.188820f, 0.300704f, 0.076968f, 0.040706f, -0.174371f, 0.236191f, -0.183606f, -0.302492f, 0.045649f, -0.043633f, -0.302240f, 0.100765f, 0.339160f, -0.063954f, 0.140257f, 0.168525f, 0.180848f, -0.245203f, 0.149957f, -0.096818f, -0.154129f, 0.384344f, 0.119682f, 0.135738f, 0.116151f, -0.231868f, 0.019683f, -0.034240f, -0.279081f, 0.076981f, -0.270505f, 0.137651f, 0.032380f, 0.089894f, -0.298851f, 0.001871f, 0.211497f, -0.265296f, 0.315872f, -0.249076f, -0.112169f, -0.021819f, 0.241889f, 0.084336f, 0.002659f, 0.272357f, -0.130150f, 0.061569f, 0.266117f, 0.237381f, -0.201253f, 0.312357f, 0.066329f, -0.005426f, -0.308661f, 0.044164f, 0.343292f, -0.170854f, 0.002585f, -0.227975f, 0.147208f, 0.046854f, 0.099403f, -0.224046f, -0.125233f, 0.140467f, 0.250078f, 0.041673f, 0.080877f, -0.321349f, -0.150806f, 0.366863f, 0.007763f, 0.056390f, 0.054891f, 0.043235f, 0.028945f, -0.048346f, -0.313716f, 0.112005f, 0.010804f, -0.142841f, 0.062956f, -0.059196f, -0.140294f, 0.159095f, -0.008318f, -0.012088f, -0.156245f, 0.030921f, -0.076654f, 0.097607f, -0.074479f, -0.145490f, -0.018927f, -0.142815f, -0.139964f, 0.116237f, 0.401145f, 0.044599f, 0.034322f, 0.130911f, 0.057237f, -0.313587f, -0.051118f, -0.242281f, -0.070952f, 0.052683f, -0.150687f, -0.257368f, -0.061108f, -0.149076f, -0.082514f, -0.233930f, 0.214056f, 0.266307f, 0.377355f, 0.061600f, 0.204464f, -0.004314f, -0.188093f, 0.193656f, 0.145192f, -0.183913f, -0.117511f, -0.163649f, -0.215866f, -0.112095f, 0.308078f, 0.142776f, -0.204810f, -0.145083f, 0.413443f, 0.154999f, 0.208616f, 0.220287f, 0.144367f, 0.232182f, -0.145516f, 0.103824f, -0.224067f, 0.241987f, -0.309361f, -0.079542f, 0.149939f, -0.016814f };
static const float room_occupancy_forecast_layer_8_biases[30] = { 0.020299f, -0.033541f, -0.042614f, 0.000000f, -0.045356f, -0.033753f, 0.027564f, -0.044806f, -0.041984f, 0.008122f, -0.030628f, 0.000404f, -0.013302f, -0.029429f, 0.000000f, -0.015894f, -0.064946f, -0.037575f, -0.010527f, -0.025891f, -0.001070f, 0.042086f, 0.000000f, -0.079802f, 0.000000f, 0.000000f, -0.036668f, -0.064954f, 0.070345f, -0.055828f };
static const float room_occupancy_forecast_layer_8_weights[900] = { 0.324335f, 0.203932f, 0.192801f, 0.237316f, -0.151831f, 0.159796f, 0.263440f, -0.077320f, -0.162250f, -0.024938f, 0.128814f, 0.101416f, -0.003506f, 0.302270f, 0.021119f, -0.237679f, 0.193801f, 0.239605f, 0.011840f, 0.005054f, 0.278510f, -0.237170f, 0.132326f, 0.313223f, 0.315456f, -0.248170f, 0.055328f, 0.242753f, -0.073598f, 0.052260f, -0.158049f, 0.282817f, 0.115759f, -0.203805f, -0.183885f, 0.204317f, 0.122725f, -0.075786f, -0.194657f, 0.218779f, 0.025287f, 0.007956f, -0.119267f, 0.088730f, -0.082617f, -0.057887f, 0.140716f, -0.018324f, 0.220248f, -0.291441f, -0.186964f, 0.033824f, -0.297422f, -0.000534f, 0.042449f, -0.278613f, -0.199461f, 0.213213f, 0.017281f, 0.154160f, 0.169242f, 0.247545f, -0.045232f, 0.120496f, -0.220311f, -0.120540f, 0.081558f, -0.190663f, 0.184507f, 0.021167f, 0.108804f, 0.138888f, 0.023886f, 0.290977f, 0.132771f, -0.023164f, 0.293117f, -0.058754f, 0.098856f, -0.086798f, -0.226253f, -0.305721f, 0.191162f, -0.229487f, -0.056431f, 0.152290f, -0.267412f, -0.262312f, -0.063180f, -0.054338f, 0.202138f, 0.135673f, 0.105696f, 0.133208f, 0.074351f, 0.164755f, 0.145395f, -0.251719f, -0.222302f, -0.101764f, -0.228796f, -0.149815f, -0.080380f, -0.170127f, 0.020576f, 0.014047f, 0.083257f, 0.249531f, -0.016085f, -0.085916f, 0.121559f, -0.143133f, 0.023944f, -0.135013f, -0.262587f, 0.169906f, -0.076458f, -0.305792f, -0.096499f, 0.235818f, -0.188565f, 0.139981f, 0.137095f, -0.001570f, -0.114875f, 0.056360f, 0.003417f, 0.236920f, -0.295234f, -0.148578f, -0.064871f, 0.134384f, -0.294960f, -0.198865f, -0.254255f, -0.025754f, -0.212830f, -0.103276f, 0.146892f, 0.263129f, -0.149583f, 0.199888f, 0.310833f, -0.216657f, -0.089695f, -0.142058f, -0.185476f, 0.130828f, 0.038013f, 0.071008f, 0.321311f, -0.262604f, -0.013396f, -0.258509f, -0.083105f, -0.215667f, 0.281061f, 0.020048f, -0.197781f, 0.137199f, 0.051494f, -0.053398f, 0.059943f, -0.094458f, -0.309001f, 0.201798f, 0.173893f, -0.161498f, 0.114127f, 0.038069f, 0.133061f, -0.066375f, -0.091021f, 0.233388f, -0.060599f, -0.151205f, 0.241601f, -0.022459f, 0.128380f, -0.232111f, 0.197790f, -0.015216f, 0.167986f, -0.141727f, -0.230973f, -0.093254f, -0.052727f, 0.015060f, -0.113850f, -0.205222f, 0.127743f, 0.122117f, -0.097004f, 0.225947f, -0.284902f, 0.170406f, -0.086998f, -0.145358f, -0.287170f, -0.142762f, -0.207128f, 0.068590f, 0.289093f, -0.083197f, -0.071307f, 0.149879f, -0.096157f, 0.174992f, 0.244180f, -0.000636f, 0.120539f, 0.144760f, -0.151678f, 0.223346f, -0.009674f, 0.105077f, 0.036694f, 0.181029f, 0.159890f, 0.156504f, 0.232562f, -0.292278f, 0.059672f, -0.133127f, -0.195242f, -0.034078f, -0.024087f, -0.009526f, -0.266293f, -0.096221f, -0.050990f, -0.208996f, 0.130940f, -0.173834f, -0.215279f, -0.012119f, -0.221281f, 0.307722f, 0.008071f, 0.122950f, 0.136844f, 0.001909f, 0.134966f, -0.268665f, 0.218602f, 0.037098f, 0.030795f, 0.021559f, -0.230651f, -0.134293f, 0.273665f, -0.188335f, 0.005684f, -0.133870f, -0.146817f, -0.118208f, -0.009826f, 0.161642f, -0.244710f, 0.177920f, -0.244903f, -0.269333f, -0.216951f, 0.307406f, 0.140796f, 0.057566f, 0.249391f, -0.221298f, -0.294645f, 0.145857f, -0.087134f, 0.186014f, -0.185872f, -0.030935f, 0.259474f, -0.148414f, -0.030046f, 0.109039f, 0.273652f, 0.271467f, 0.043992f, -0.097328f, -0.071012f, 0.005873f, -0.044951f, -0.296173f, -0.245595f, -0.217186f, 0.291149f, -0.086767f, -0.179156f, 0.196757f, 0.292912f, -0.133937f, 0.312869f, 0.239000f, -0.300992f, -0.285891f, 0.235546f, -0.013704f, 0.163301f, -0.221100f, 0.226504f, -0.283448f, -0.201450f, -0.286956f, 0.337534f, -0.049686f, 0.142316f, -0.047628f, 0.128424f, -0.297847f, 0.224332f, 0.070310f, -0.014297f, 0.198635f, -0.252605f, -0.156557f, -0.322404f, 0.230952f, 0.046316f, -0.058868f, 0.142442f, -0.227833f, 0.016043f, 0.124283f, -0.341425f, 0.021722f, -0.098628f, -0.193314f, -0.011373f, 0.244050f, 0.212471f, 0.016170f, 0.307940f, -0.249910f, -0.187978f, -0.015922f, 0.048320f, 0.058086f, 0.171665f, 0.121928f, -0.276503f, -0.074451f, -0.008783f, -0.029765f, 0.004984f, -0.275820f, -0.048341f, 0.269067f, -0.031505f, -0.179531f, -0.258444f, 0.247194f, -0.240522f, 0.164233f, -0.011284f, 0.134252f, 0.272926f, 0.310375f, 0.393424f, -0.213341f, 0.266530f, -0.224745f, 0.122054f, 0.050313f, 0.183029f, 0.024451f, -0.149988f, -0.287371f, 0.009735f, 0.258212f, 0.171805f, 0.296494f, 0.170244f, 0.087505f, 0.284912f, 0.243144f, 0.281616f, 0.122845f, -0.199015f, 0.182972f, -0.180660f, 0.275757f, -0.220058f, -0.280765f, 0.006134f, 0.217446f, -0.075723f, -0.252148f, 0.262311f, -0.017903f, -0.237741f, 0.254662f, 0.045997f, -0.268981f, -0.292644f, 0.026932f, -0.181125f, 0.062461f, -0.230501f, -0.003990f, 0.306297f, 0.101901f, -0.220744f, -0.293228f, 0.122964f, 0.182079f, 0.021134f, 0.091035f, 0.277642f, 0.107248f, -0.162919f, -0.247827f, -0.308583f, -0.123041f, 0.255125f, -0.079018f, 0.275444f, 0.318010f, 0.308003f, 0.065737f, 0.095880f, -0.286211f, -0.275216f, 0.000094f, 0.253106f, -0.139019f, 0.118275f, 0.123865f, -0.202920f, -0.252724f, 0.025359f, -0.220698f, -0.275497f, -0.050050f, 0.074355f, -0.090212f, 0.002216f, -0.272433f, -0.164270f, -0.302875f, -0.165321f, 0.044776f, -0.234678f, -0.294467f, 0.249390f, 0.069862f, -0.072846f, -0.293484f, -0.131015f, 0.114771f, -0.179135f, 0.034428f, -0.202505f, -0.207142f, -0.069695f, 0.289220f, 0.219747f, 0.141609f, -0.300670f, 0.264714f, -0.042276f, 0.072223f, 0.308839f, -0.043967f, 0.027597f, 0.186222f, 0.056331f, 0.235826f, 0.088711f, -0.178565f, -0.178202f, -0.050621f, 0.117159f, -0.195418f, -0.251663f, -0.199300f, -0.131328f, 0.009613f, -0.020873f, 0.254770f, -0.153923f, -0.273287f, -0.256600f, 0.204597f, 0.178185f, 0.150234f, -0.231131f, -0.042352f, 0.010991f, 0.291325f, -0.104186f, 0.126897f, 0.028253f, -0.021811f, 0.307394f, 0.219130f, 0.252657f, 0.088417f, -0.228944f, 0.193278f, -0.003338f, 0.320767f, -0.283655f, -0.251259f, 0.074841f, 0.038677f, 0.164182f, 0.228781f, -0.258574f, 0.073255f, 0.175005f, -0.277295f, 0.193650f, -0.031176f, -0.222309f, -0.201195f, -0.251206f, -0.196472f, 0.179947f, -0.161853f, 0.244674f, 0.205564f, -0.153299f, -0.203091f, -0.254756f, -0.110092f, 0.005328f, 0.245132f, -0.115918f, 0.039976f, -0.287597f, 0.078559f, -0.244904f, -0.061413f, -0.145867f, 0.256175f, 0.192145f, -0.092635f, 0.312120f, -0.200600f, -0.189513f, -0.048725f, 0.039361f, 0.036169f, -0.226314f, -0.012321f, 0.248433f, 0.054958f, 0.074219f, 0.139398f, -0.271230f, 0.190152f, -0.168378f, -0.279692f, 0.316240f, 0.233955f, -0.017359f, 0.155346f, -0.304498f, -0.227612f, -0.241839f, 0.115973f, 0.083770f, -0.033118f, 0.020438f, 0.067247f, 0.214631f, -0.043690f, 0.286004f, -0.042817f, -0.225480f, -0.105886f, -0.297272f, 0.145871f, -0.042011f, 0.056753f, 0.019656f, 0.289207f, 0.046191f, 0.057215f, -0.040381f, 0.123008f, -0.162636f, -0.164110f, 0.104819f, -0.267474f, -0.012917f, 0.225255f, -0.047010f, -0.160041f, -0.205905f, -0.000585f, 0.037228f, -0.187365f, 0.040634f, 0.261009f, -0.181316f, -0.252113f, -0.270051f, 0.151845f, 0.067107f, 0.140399f, 0.111464f, 0.131302f, 0.280561f, -0.143205f, -0.079856f, 0.221594f, 0.124807f, -0.187788f, -0.120073f, 0.148866f, -0.143033f, -0.236279f, 0.198831f, 0.033167f, 0.062149f, 0.073030f, -0.165025f, -0.026766f, -0.303493f, -0.292535f, 0.263364f, 0.141347f, -0.286381f, -0.279441f, 0.235320f, 0.160168f, 0.216835f, 0.292781f, -0.036330f, 0.115573f, -0.016682f, -0.007910f, 0.300730f, -0.298702f, -0.229390f, 0.311367f, -0.203098f, -0.048834f, -0.047635f, -0.148406f, -0.263740f, -0.049001f, -0.196723f, 0.033299f, -0.190901f, 0.139629f, -0.086506f, -0.052166f, -0.092192f, -0.025572f, 0.212269f, 0.183210f, 0.126081f, 0.094914f, -0.302664f, -0.255454f, -0.027691f, 0.030724f, -0.153556f, -0.137153f, -0.244170f, -0.089033f, 0.229945f, -0.280256f, -0.282016f, 0.016674f, 0.021711f, -0.041429f, 0.059145f, -0.240830f, -0.101351f, -0.068208f, 0.107838f, 0.033073f, 0.251949f, -0.003754f, -0.076322f, 0.056828f, 0.248821f, -0.248680f, -0.255751f, -0.138451f, -0.324790f, 0.021279f, -0.062048f, -0.167494f, 0.062759f, 0.196081f, -0.116625f, 0.105153f, 0.083505f, -0.133533f, 0.161405f, 0.266410f, -0.205771f, -0.248755f, -0.059209f, 0.262675f, -0.246808f, -0.204583f, 0.080392f, -0.229099f, 0.192646f, 0.311564f, -0.216271f, -0.232419f, -0.119730f, -0.179900f, 0.200872f, -0.286220f, -0.091906f, 0.206296f, -0.010134f, 0.015915f, -0.009526f, -0.054073f, 0.292546f, 0.045556f, -0.123718f, 0.139817f, 0.083407f, 0.178989f, -0.306374f, 0.222068f, 0.265160f, -0.102817f, 0.253100f, -0.210837f, -0.045949f, 0.061432f, 0.026670f, 0.012061f, 0.076025f, -0.059898f, 0.051121f, -0.260836f, 0.169223f, 0.095779f, -0.001663f, 0.301165f, -0.212305f, -0.146462f, -0.266391f, -0.039821f, -0.265106f, -0.157412f, 0.195515f, -0.058193f, 0.163110f, 0.301326f, 0.042135f, -0.224368f, 0.137935f, 0.140657f, -0.138036f, -0.016268f, 0.032980f, 0.300739f, 0.181270f, 0.145394f, 0.300381f, 0.161832f, 0.309365f, -0.335118f, 0.181284f, -0.068514f, -0.030692f, 0.216282f, -0.092267f, -0.176718f, -0.253734f, 0.163042f, -0.372130f, 0.168678f, -0.202849f, 0.073356f, -0.279331f, -0.011303f, -0.249435f, 0.211892f, 0.172180f, -0.271037f, -0.108952f, 0.155528f, -0.132422f, 0.006479f, -0.120144f, 0.162679f, 0.256288f, 0.284924f, 0.095522f, -0.015479f, 0.198642f, 0.084388f, 0.167729f, 0.256169f, -0.227948f, -0.092353f, -0.310453f, 0.106554f, 0.011008f, 0.121084f, 0.295650f, -0.030062f, 0.151860f, 0.138715f, -0.215043f, 0.030464f, -0.234222f, -0.176750f, -0.246317f, -0.295527f, -0.282538f, 0.167727f, -0.251075f, -0.034428f, 0.102997f, 0.139347f, 0.217933f, 0.203842f, -0.229491f, 0.037669f, -0.282580f, -0.229912f, -0.071273f, 0.012477f, 0.255524f, 0.055717f, -0.068830f, -0.297464f, -0.078111f, -0.104096f, 0.156994f, -0.064250f, -0.096944f, 0.289326f, -0.097672f, 0.096594f, 0.019784f, 0.112924f, -0.028190f, -0.232388f, 0.328988f, -0.139075f, -0.277449f, 0.004923f, -0.171860f, 0.152748f, -0.287629f, 0.297214f, 0.034312f, 0.201604f, 0.309832f, 0.098673f, 0.044417f, -0.191732f, 0.099116f, -0.130407f, -0.002681f, -0.311373f, 0.119306f, 0.223090f, 0.062000f, -0.221940f, 0.047648f, 0.279997f, -0.029990f, 0.239438f, -0.213057f, -0.058914f, -0.156701f, -0.027236f, 0.105574f, 0.058650f, 0.133344f, -0.145526f, 0.174115f, -0.173193f, 0.243039f, -0.007637f, -0.061102f, 0.177471f, 0.281696f, -0.150480f, -0.192691f, 0.005069f, -0.175468f, 0.085279f, 0.047831f, 0.220783f, 0.157950f, 0.217004f, 0.253498f, -0.156648f, 0.095962f, 0.136268f };
static const float room_occupancy_forecast_layer_9_biases[30] = { -0.026204f, 0.000000f, 0.000000f, 0.000000f, -0.065691f, -0.022708f, -0.018411f, -0.022426f, -0.012624f, 0.024764f, 0.030910f, -0.001368f, 0.058819f, 0.000000f, -0.106331f, -0.021257f, 0.016346f, -0.004367f, 0.000000f, -0.032845f, -0.058983f, -0.043391f, 0.000000f, -0.031498f, -0.082950f, -0.034474f, 0.000000f, -0.045564f, 0.040211f, -0.001200f };
static const float room_occupancy_forecast_layer_9_weights[900] = { -0.195026f, 0.029137f, -0.258444f, 0.149976f, 0.282426f, -0.144356f, 0.303734f, 0.214263f, 0.136547f, 0.111329f, -0.258993f, 0.116371f, -0.075619f, -0.079659f, -0.123193f, 0.058171f, -0.017473f, 0.262106f, 0.037536f, -0.109326f, -0.045832f, 0.278053f, -0.068229f, 0.188821f, 0.071854f, 0.213218f, -0.166200f, -0.158114f, 0.254962f, -0.050161f, -0.235255f, 0.055994f, -0.231166f, -0.068417f, -0.140843f, -0.136028f, -0.013703f, -0.102363f, -0.310255f, -0.254784f, -0.235093f, 0.074931f, 0.061892f, 0.169275f, 0.082855f, -0.037366f, 0.155555f, 0.036852f, -0.125016f, 0.152384f, 0.105987f, 0.322052f, -0.205357f, 0.181093f, -0.141164f, 0.259135f, -0.243773f, 0.333010f, -0.243470f, -0.284526f, 0.015911f, -0.306731f, 0.060044f, -0.243561f, 0.058279f, 0.255974f, -0.228486f, 0.049066f, -0.127794f, 0.150088f, 0.258184f, 0.206205f, -0.124838f, 0.200939f, -0.031537f, 0.072380f, 0.001124f, 0.009808f, -0.298243f, -0.303635f, 0.314937f, -0.233250f, -0.066243f, 0.285821f, -0.234350f, 0.000061f, 0.306922f, -0.157418f, 0.003208f, -0.135561f, 0.244346f, 0.161965f, -0.252572f, 0.040589f, 0.279153f, 0.041493f, 0.259905f, -0.193839f, -0.148140f, -0.144347f, 0.010428f, -0.135390f, -0.062249f, -0.271544f, -0.079146f, 0.198945f, -0.038132f, -0.089470f, -0.240556f, 0.246367f, -0.214778f, -0.239720f, 0.166267f, -0.028117f, 0.151130f, 0.238579f, -0.011880f, 0.114563f, 0.038192f, 0.207153f, -0.203411f, 0.178431f, 0.125703f, 0.034715f, 0.240016f, 0.291431f, -0.121267f, -0.307221f, 0.054907f, -0.175207f, -0.099655f, -0.084189f, -0.151101f, -0.114900f, 0.160850f, -0.257293f, -0.227497f, 0.087716f, 0.057933f, 0.101949f, 0.054584f, -0.016008f, -0.087949f, 0.218929f, 0.268233f, 0.021784f, 0.314371f, 0.272774f, -0.102367f, -0.220016f, 0.056348f, -0.051759f, -0.166703f, 0.153909f, 0.221689f, -0.120408f, 0.182898f, -0.218912f, 0.265788f, -0.259995f, 0.118311f, -0.289479f, 0.202582f, 0.112945f, -0.225231f, -0.283049f, 0.104104f, -0.264695f, -0.033937f, 0.239872f, 0.151367f, -0.198469f, -0.053900f, -0.121143f, 0.210364f, 0.113150f, -0.284752f, 0.154914f, -0.241771f, -0.254454f, -0.008658f, -0.068815f, -0.235470f, -0.037601f, 0.250851f, -0.200702f, 0.360440f, 0.235124f, -0.047499f, 0.061743f, 0.008949f, 0.134905f, -0.187197f, -0.221220f, -0.168047f, 0.071735f, -0.158474f, 0.069753f, 0.277874f, 0.120508f, -0.150191f, -0.335231f, -0.294395f, -0.291222f, -0.291008f, 0.048538f, -0.240836f, -0.174320f, 0.206587f, 0.295015f, 0.011261f, 0.181320f, 0.297818f, -0.000081f, 0.221104f, -0.044404f, 0.063362f, 0.126973f, 0.204128f, -0.011226f, -0.152746f, 0.251783f, -0.066512f, -0.005029f, 0.012663f, -0.229392f, 0.228759f, -0.042000f, -0.252829f, 0.009123f, 0.061373f, 0.001333f, -0.129557f, -0.034422f, -0.085565f, 0.245858f, 0.195931f, 0.321407f, 0.116054f, 0.005631f, 0.229966f, 0.006620f, -0.315257f, 0.220756f, -0.069209f, 0.078990f, -0.060358f, 0.145512f, 0.195327f, 0.115490f, 0.337370f, -0.151319f, -0.293066f, -0.019886f, 0.219778f, 0.237452f, -0.214416f, 0.016535f, 0.161386f, 0.135374f, 0.250238f, 0.207895f, -0.265073f, 0.035479f, 0.148243f, -0.186498f, -0.107467f, -0.174961f, 0.131814f, 0.092867f, 0.042030f, 0.272732f, -0.093221f, 0.199562f, -0.080238f, 0.025864f, 0.061148f, -0.023495f, 0.227415f, -0.164981f, -0.040981f, -0.145899f, 0.039732f, -0.088524f, -0.140462f, -0.211376f, 0.222525f, 0.210727f, 0.058266f, -0.234757f, -0.184034f, -0.156270f, 0.099670f, 0.310986f, 0.158380f, -0.178045f, 0.103806f, 0.003754f, -0.185215f, 0.090896f, 0.037010f, 0.027435f, 0.240462f, -0.061910f, -0.078330f, -0.148732f, -0.285723f, 0.019648f, 0.168391f, 0.002953f, 0.275865f, -0.243046f, 0.198429f, -0.310463f, 0.001468f, -0.037241f, 0.046357f, 0.167668f, -0.238769f, 0.047465f, -0.001161f, 0.101231f, -0.236411f, 0.253091f, -0.110768f, -0.230181f, -0.115762f, -0.007357f, -0.107937f, -0.124906f, 0.232979f, -0.202347f, -0.297008f, -0.299823f, 0.310192f, 0.061074f, 0.109365f, -0.119320f, 0.293632f, 0.339993f, 0.074018f, -0.187698f, 0.065353f, 0.180881f, -0.059490f, -0.050777f, 0.089615f, -0.298096f, -0.067455f, 0.115106f, -0.243445f, -0.281606f, -0.314566f, -0.241005f, -0.120421f, 0.185327f, -0.216992f, 0.321187f, -0.087958f, -0.191128f, 0.062995f, -0.019529f, -0.067690f, -0.160793f, -0.154246f, -0.288163f, -0.269516f, 0.144102f, -0.031016f, 0.241491f, 0.168071f, 0.360082f, 0.217128f, -0.287449f, 0.012202f, -0.049782f, 0.290668f, 0.100384f, 0.131255f, 0.246183f, 0.172699f, 0.079182f, -0.084269f, 0.205632f, 0.180236f, -0.016246f, -0.312204f, 0.209167f, -0.009007f, -0.119938f, -0.193895f, -0.244154f, -0.020075f, 0.316048f, 0.267149f, 0.265193f, 0.289080f, 0.196380f, 0.305006f, -0.188681f, 0.224221f, 0.081995f, 0.080360f, -0.251712f, -0.225146f, -0.318498f, 0.205909f, 0.141689f, -0.209606f, 0.009400f, 0.318575f, 0.202460f, -0.311130f, -0.003444f, 0.281228f, 0.049522f, -0.067054f, -0.143057f, 0.025278f, -0.149184f, 0.245458f, -0.301290f, 0.049739f, -0.301495f, -0.065788f, -0.115392f, -0.205375f, 0.006585f, -0.104962f, -0.123601f, -0.054758f, -0.159220f, -0.124306f, 0.282936f, -0.211636f, 0.114291f, 0.288690f, -0.086683f, -0.264805f, 0.067575f, 0.011882f, -0.300311f, -0.112198f, -0.172715f, 0.053938f, 0.072640f, 0.145853f, -0.278525f, -0.172051f, -0.229688f, 0.250845f, -0.013348f, -0.119268f, 0.302206f, -0.016963f, -0.290920f, 0.151384f, 0.066398f, 0.069032f, 0.001289f, -0.133534f, -0.203915f, 0.240745f, 0.077957f, 0.305009f, 0.099988f, -0.049520f, -0.290216f, -0.161508f, -0.148348f, 0.154808f, 0.145321f, 0.023796f, -0.270333f, 0.286997f, -0.265242f, 0.061445f, 0.059189f, -0.202409f, 0.031645f, -0.034589f, -0.127963f, 0.133546f, -0.174572f, 0.043933f, 0.003811f, 0.256356f, -0.242229f, -0.198066f, 0.202833f, 0.204043f, 0.313491f, -0.022450f, -0.132740f, 0.120255f, 0.086356f, -0.268187f, -0.115658f, -0.303925f, -0.259766f, 0.307316f, 0.208130f, 0.236073f, 0.217396f, 0.062450f, -0.118302f, -0.313909f, -0.154502f, 0.189448f, -0.069384f, 0.202497f, -0.108409f, -0.167232f, 0.184263f, -0.276910f, 0.254059f, -0.219966f, -0.003997f, 0.260888f, 0.022907f, -0.187062f, 0.116341f, 0.096626f, 0.048991f, 0.288099f, 0.163173f, -0.287353f, 0.071156f, -0.194446f, 0.257772f, -0.200595f, -0.325218f, 0.307333f, 0.259059f, -0.271226f, -0.127383f, -0.086305f, -0.032550f, -0.148538f, 0.093241f, -0.163482f, -0.019187f, -0.158963f, 0.024636f, -0.224321f, -0.181545f, 0.214770f, 0.276619f, 0.077143f, -0.134109f, 0.106344f, -0.136380f, -0.289948f, 0.263329f, 0.226336f, -0.007061f, 0.018181f, 0.321785f, -0.202845f, 0.145615f, -0.264643f, 0.326657f, -0.249533f, -0.173206f, -0.048291f, -0.172663f, -0.143301f, -0.037769f, -0.109534f, 0.105909f, 0.063314f, -0.217875f, 0.302886f, -0.282569f, -0.130615f, 0.019986f, 0.184206f, -0.309640f, 0.230420f, -0.159229f, 0.173898f, -0.109334f, 0.078912f, 0.063269f, 0.288943f, -0.304546f, -0.156859f, 0.080112f, -0.065168f, 0.194705f, 0.109098f, -0.360460f, 0.147284f, -0.279414f, -0.216942f, 0.287796f, -0.073010f, 0.006335f, -0.082467f, -0.028227f, 0.297221f, -0.160503f, 0.113895f, 0.182324f, 0.057156f, 0.249246f, 0.284587f, 0.137201f, -0.233141f, 0.102833f, -0.138697f, -0.227147f, 0.270280f, -0.165482f, -0.193813f, 0.211834f, -0.104045f, 0.158427f, 0.058797f, 0.240920f, -0.271710f, -0.034573f, -0.255382f, -0.261581f, -0.039765f, 0.294511f, 0.146222f, 0.245202f, -0.004369f, 0.224983f, -0.255715f, -0.126889f, 0.301460f, -0.146762f, -0.182057f, -0.255511f, 0.215367f, -0.163326f, 0.288642f, 0.262074f, -0.158003f, -0.137678f, 0.197692f, 0.294721f, -0.280720f, 0.251603f, 0.034653f, -0.218170f, 0.218787f, -0.204607f, 0.195370f, 0.086445f, -0.193999f, -0.231868f, -0.085473f, 0.131856f, 0.029724f, -0.165166f, 0.312887f, 0.050711f, -0.006875f, -0.203309f, -0.040612f, -0.190572f, -0.073919f, 0.265493f, 0.046877f, -0.060078f, 0.166417f, 0.189550f, -0.148056f, 0.183922f, 0.090747f, 0.144244f, -0.031049f, -0.029503f, -0.227869f, 0.162461f, 0.088093f, 0.011663f, 0.187550f, 0.191133f, 0.185119f, 0.162181f, -0.090892f, -0.188924f, -0.066741f, -0.280981f, -0.162281f, 0.074386f, -0.052383f, -0.250163f, -0.160026f, -0.229317f, 0.108341f, -0.032600f, 0.169103f, -0.013310f, 0.097816f, 0.200653f, 0.287539f, -0.007214f, 0.224960f, -0.184685f, 0.250062f, 0.131309f, -0.304036f, -0.052554f, -0.174703f, 0.139294f, -0.059020f, -0.136955f, -0.211276f, 0.125141f, 0.233961f, 0.186764f, 0.285932f, 0.191068f, 0.285207f, 0.254881f, -0.021540f, -0.244764f, 0.067286f, -0.153140f, -0.013210f, 0.155075f, 0.187148f, -0.081084f, 0.134960f, -0.221282f, -0.236673f, 0.312952f, -0.059539f, 0.276925f, -0.158468f, 0.214624f, 0.022101f, -0.079644f, -0.207786f, -0.238176f, 0.102239f, 0.021046f, -0.092558f, 0.217447f, -0.094942f, -0.123752f, -0.294370f, -0.270951f, 0.149158f, -0.311655f, -0.039001f, 0.234331f, -0.209104f, 0.128834f, -0.076009f, -0.279752f, -0.149609f, -0.007077f, 0.101009f, -0.226569f, 0.110376f, 0.056262f, 0.069862f, 0.159512f, 0.277975f, 0.007418f, 0.175636f, -0.306520f, 0.200387f, 0.134190f, -0.249439f, 0.160834f, -0.154305f, 0.122612f, -0.264596f, -0.121193f, 0.246664f, -0.069009f, 0.244590f, 0.258234f, -0.092152f, -0.108222f, 0.022402f, 0.184817f, 0.075674f, 0.118831f, -0.215701f, 0.164519f, 0.226755f, -0.168302f, -0.284133f, 0.107425f, 0.085949f, -0.315574f, -0.086152f, 0.278477f, -0.098315f, -0.185006f, 0.233882f, 0.179574f, -0.261678f, 0.155065f, 0.135569f, -0.123105f, 0.280531f, -0.179785f, -0.219323f, 0.090241f, -0.257193f, 0.235207f, 0.191197f, -0.061677f, -0.038124f, -0.240613f, 0.058283f, 0.099228f, 0.064341f, -0.050392f, 0.234508f, -0.196949f, -0.166230f, 0.256426f, -0.196995f, -0.257039f, -0.111595f, 0.215370f, 0.274007f, 0.177094f, -0.191985f, 0.178956f, 0.324437f, 0.133680f, -0.295766f, 0.257203f, -0.152273f, -0.082259f, 0.024293f, 0.242249f, -0.141814f, -0.170928f, -0.217604f, -0.089651f, -0.283118f, 0.134833f, -0.265762f, -0.070366f, -0.106227f, -0.332903f, -0.057843f, 0.016031f, -0.284336f, 0.291833f, 0.055462f, 0.268398f, -0.019154f, -0.140738f, -0.204169f, -0.120338f, 0.222138f, -0.177154f, -0.185405f, -0.039549f, 0.242008f, 0.205604f, 0.053687f, -0.181045f, -0.272534f, -0.190535f, -0.257618f, -0.230006f, -0.280937f, 0.215734f, 0.103213f, -0.127464f, 0.290887f, -0.251814f, 0.066457f, 0.237409f, -0.100467f, -0.141929f, 0.263694f, 0.152044f, -0.218574f, 0.090401f, 0.278108f, -0.181692f, -0.304853f, 0.262817f, 0.227179f, 0.108517f, 0.163491f, -0.070743f, -0.221537f, 0.267034f, 0.204469f, 0.116587f, 0.016440f, 0.114992f, 0.072375f, 0.002784f };
static const float room_occupancy_forecast_layer_10_biases[30] = { -0.021722f, -0.023080f, -0.009434f, -0.071729f, -0.013933f, 0.003679f, 0.019314f, 0.000000f, -0.060039f, -0.023202f, -0.058898f, 0.007907f, 0.000000f, 0.000000f, 0.000000f, 0.000000f, -0.028597f, 0.000000f, 0.000000f, 0.000000f, -0.054288f, -0.117043f, -0.070841f, 0.045393f, 0.000000f, 0.000000f, -0.031310f, 0.041267f, 0.043940f, -0.011621f };
